~o
<STREAMINFO> 1 39
<VECSIZE> 39<NULLD><MFCC_D_A_0><DIAGC>
~h "three"
<BEGINHMM>
<NUMSTATES> 6
<STATE> 2
<MEAN> 39
 4.388408e-01 -2.423049e+01 8.606725e-01 -5.906762e+00 -1.907348e+01 -5.170398e-01 -1.903913e+01 -6.115331e+00 3.299679e+00 -1.006025e+01 3.465249e+00 1.325873e+00 6.142533e+01 2.304345e+00 -8.241792e-01 2.599648e-01 -2.965412e-02 -6.207770e-01 -1.284410e+00 -2.112632e+00 -6.879486e-01 -5.216900e-01 -7.855687e-01 3.805168e-01 2.412013e-02 1.374153e+00 -1.934052e-01 2.624898e-01 -1.624102e-01 2.249748e-02 2.935006e-01 -1.238385e-01 8.298776e-02 -1.362254e-02 -1.659064e-01 6.951912e-02 -2.056605e-02 -8.489263e-02 -1.097271e-01
<VARIANCE> 39
 7.397796e+01 2.636145e+01 3.628113e+01 3.337331e+01 4.375266e+01 7.175468e+01 6.900936e+01 5.363155e+01 6.395231e+01 4.076368e+01 3.606964e+01 3.139434e+01 2.116522e+01 2.892341e+00 4.098955e+00 4.568646e+00 3.168859e+00 5.701613e+00 7.134216e+00 5.975723e+00 4.223595e+00 5.468318e+00 3.126583e+00 3.776548e+00 3.506602e+00 1.339389e+00 5.936284e-01 6.382431e-01 9.209070e-01 6.104071e-01 9.247739e-01 1.488699e+00 1.270545e+00 8.257766e-01 9.331565e-01 5.668949e-01 6.445329e-01 6.699197e-01 2.200758e-01
<GCONST> 1.341953e+02
<STATE> 3
<MEAN> 39
 9.080178e+00 -2.708918e+01 2.247262e+00 -5.403474e+00 -1.924887e+01 -1.045450e+01 -2.833903e+01 -6.460730e+00 -1.922254e+00 -1.292689e+01 6.602027e+00 -6.132121e-01 6.917554e+01 -1.818131e-01 -2.223918e-01 8.778556e-01 1.021185e-01 -9.194695e-01 -3.487026e-01 6.325933e-01 1.417782e-01 -3.429855e-01 -2.098396e-01 8.126505e-02 1.589205e-01 3.502294e-01 -1.407143e-01 6.799944e-02 1.852687e-01 -2.240790e-02 -2.161555e-01 2.239627e-01 3.200099e-01 -1.331485e-01 -3.360905e-02 2.336618e-02 -6.232390e-02 8.035286e-02 -1.040965e-01
<VARIANCE> 39
 6.611181e+00 8.858967e+00 3.760941e+01 2.403833e+01 3.531126e+01 5.045136e+01 3.578728e+01 3.307483e+01 4.524148e+01 3.201463e+01 4.094471e+01 2.690355e+01 7.732195e+00 4.436579e-01 5.816824e-01 2.107055e+00 1.435267e+00 2.299910e+00 2.925455e+00 3.210740e+00 2.824262e+00 4.029064e+00 2.269761e+00 2.848247e+00 2.131967e+00 2.862099e-01 9.054504e-02 1.187505e-01 2.391041e-01 2.384026e-01 2.411712e-01 5.533184e-01 3.187363e-01 5.391350e-01 7.852383e-01 4.259592e-01 4.741480e-01 3.527979e-01 3.398500e-02
<GCONST> 1.026354e+02
<STATE> 4
<MEAN> 39
 4.546893e+00 -2.348765e+01 1.646125e+01 -6.942911e+00 -3.217211e+01 -4.909585e+00 -1.772580e+01 -1.456137e+01 -5.388298e+00 -1.226384e+01 5.266024e+00 1.239006e-01 6.813618e+01 -2.276341e-01 3.989288e-01 3.342960e-01 -8.905156e-02 -1.759269e-01 5.498814e-01 1.152717e-01 -4.674097e-01 9.656333e-03 1.454194e-01 -1.614117e-01 -1.872080e-01 -4.648310e-01 -2.751008e-02 2.095766e-02 -1.511974e-01 3.732343e-02 1.228025e-01 -4.092890e-02 -4.600741e-02 1.116733e-01 7.481272e-02 3.887732e-02 -2.707769e-02 -5.167757e-02 -6.362512e-02
<VARIANCE> 39
 1.083999e+01 1.083963e+01 1.711040e+01 1.536166e+01 1.611674e+01 4.301062e+01 3.696883e+01 5.028654e+01 4.484348e+01 3.771634e+01 3.844929e+01 3.258523e+01 1.153704e+01 3.814669e-01 5.357090e-01 1.104812e+00 8.563465e-01 1.151522e+00 1.888198e+00 2.458826e+00 2.915221e+00 1.915967e+00 1.858417e+00 1.662784e+00 1.882302e+00 3.309043e-01 7.654682e-02 8.166364e-02 1.261356e-01 1.519668e-01 2.055139e-01 2.330538e-01 4.328594e-01 3.885104e-01 3.671612e-01 3.635202e-01 2.674333e-01 3.283641e-01 2.484966e-02
<GCONST> 9.351212e+01
<STATE> 5
<MEAN> 39
 -3.942711e+00 -1.664190e+01 9.166153e+00 -5.424552e+00 -2.620317e+01 7.848227e-01 -1.239088e+01 -1.107556e+01 -2.419701e+00 -1.036580e+01 6.084553e-01 -9.248087e-01 5.741866e+01 -1.460065e+00 8.386591e-01 -1.520479e+00 1.357349e-01 1.512870e+00 1.963574e-01 1.159594e+00 9.308581e-01 2.152354e-01 5.466795e-01 -3.074817e-01 -3.345013e-02 -9.656793e-01 -1.426642e-02 -4.934002e-02 -1.092715e-01 -1.775251e-02 2.113495e-01 -1.123428e-01 -3.437482e-02 6.462671e-02 -1.263921e-02 3.545103e-02 8.444201e-02 9.451376e-02 5.582970e-02
<VARIANCE> 39
 3.063946e+01 3.463051e+01 5.617469e+01 1.379302e+01 6.499335e+01 4.015181e+01 8.036051e+01 7.727377e+01 5.107716e+01 3.661586e+01 3.376995e+01 2.667883e+01 1.234006e+01 9.484689e-01 9.308850e-01 1.736294e+00 1.110328e+00 2.966551e+00 2.364535e+00 3.243422e+00 2.808351e+00 2.490498e+00 2.126771e+00 1.662080e+00 2.048007e+00 2.807114e-01 1.666355e-01 1.230067e-01 2.682626e-01 1.865360e-01 4.423662e-01 3.906081e-01 6.168686e-01 5.159342e-01 4.149100e-01 3.545956e-01 3.314516e-01 3.716446e-01 3.348244e-02
<GCONST> 1.078683e+02
<TRANSP> 6
 0.000000e+00 1.000000e+00 0.000000e+00 0.000000e+00 0.000000e+00 0.000000e+00
 0.000000e+00 8.735565e-01 1.264435e-01 0.000000e+00 0.000000e+00 0.000000e+00
 0.000000e+00 0.000000e+00 9.075501e-01 9.244991e-02 0.000000e+00 0.000000e+00
 0.000000e+00 0.000000e+00 0.000000e+00 9.420726e-01 5.792740e-02 0.000000e+00
 0.000000e+00 0.000000e+00 0.000000e+00 0.000000e+00 8.834900e-01 1.165100e-01
 0.000000e+00 0.000000e+00 0.000000e+00 0.000000e+00 0.000000e+00 0.000000e+00
<ENDHMM>
