~o
<STREAMINFO> 1 39
<VECSIZE> 39<NULLD><MFCC_D_A_0><DIAGC>
~h "eight"
<BEGINHMM>
<NUMSTATES> 6
<STATE> 2
<MEAN> 39
 2.828839e+00 -2.614569e+01 5.919383e+00 -1.245699e+01 -3.025886e+01 -4.899434e-01 -1.334895e+01 -1.241578e+00 5.340399e+00 -7.458532e+00 4.543513e+00 -1.756328e+00 6.580297e+01 2.307709e+00 -8.300002e-01 1.377172e+00 -1.527763e+00 -2.328317e+00 -5.147994e-01 -9.386958e-01 -1.049762e+00 -1.422931e-01 -2.621731e-01 2.202647e-01 -1.639069e-01 2.016467e+00 -4.831032e-01 4.241108e-01 -1.642830e-01 3.059820e-01 5.032842e-01 -1.043681e-01 1.766475e-01 -2.526692e-01 -2.612658e-01 -2.673328e-03 -1.545522e-01 6.140691e-02 -3.222125e-01
<VARIANCE> 39
 3.245036e+01 2.127133e+01 1.901078e+01 2.358945e+01 4.111476e+01 3.898924e+01 3.404866e+01 7.202170e+01 3.415066e+01 4.249431e+01 3.953997e+01 3.367087e+01 2.194103e+01 2.907976e+00 2.460316e+00 1.393717e+00 2.465985e+00 2.916851e+00 1.521091e+00 2.800929e+00 3.792053e+00 2.839476e+00 2.480774e+00 2.764596e+00 2.782289e+00 1.632205e+00 3.853884e-01 3.932892e-01 2.841849e-01 3.838719e-01 5.097297e-01 2.517900e-01 5.258324e-01 4.897034e-01 4.775510e-01 4.508244e-01 5.205551e-01 5.101856e-01 2.992339e-01
<GCONST> 1.170241e+02
<STATE> 3
<MEAN> 39
 7.018089e+00 -2.250315e+01 1.299431e+01 -1.403237e+01 -3.507393e+01 -1.617285e+00 -1.868161e+01 -1.264975e+01 1.023916e+00 -9.447497e+00 3.162257e+00 6.432385e-01 6.774048e+01 -1.264221e-01 4.565516e-01 4.511928e-01 3.778310e-01 1.762185e-01 -1.321357e-02 -4.663088e-01 -6.280305e-01 -5.006391e-01 -1.496967e-01 1.900290e-02 2.640735e-02 -4.534373e-01 -1.210194e-01 4.618205e-03 -1.103539e-01 9.669900e-02 1.561991e-01 7.311882e-02 6.045336e-02 1.097506e-01 2.081924e-02 1.075071e-02 -4.510371e-03 8.736160e-03 -1.393103e-01
<VARIANCE> 39
 7.363486e+00 1.616811e+01 1.788718e+01 1.920886e+01 1.502444e+01 3.653090e+01 3.180419e+01 4.309824e+01 6.008242e+01 2.265017e+01 3.642689e+01 3.404208e+01 8.422102e+00 3.214969e-01 6.066240e-01 6.965432e-01 9.146765e-01 1.113785e+00 1.153995e+00 1.538426e+00 1.831111e+00 1.736549e+00 1.510896e+00 1.532098e+00 2.129511e+00 3.129904e-01 1.068303e-01 1.015998e-01 1.289551e-01 1.889671e-01 1.918858e-01 2.686234e-01 3.048491e-01 2.792452e-01 3.044909e-01 2.895301e-01 2.818388e-01 3.119928e-01 3.185799e-02
<GCONST> 9.051073e+01
<STATE> 4
<MEAN> 39
 -8.484476e+00 -1.496390e+01 4.399123e+00 -3.966390e+00 -1.361352e+01 4.947521e+00 -7.575294e+00 -2.806153e+00 4.139370e+00 -3.303397e+00 5.228998e+00 1.274222e+00 5.567289e+01 3.061437e-01 2.461316e-02 -4.876373e-01 -1.619995e-01 4.740477e-01 1.238137e-01 -3.862058e-01 5.308449e-01 -1.112509e-01 -7.616735e-01 -1.078630e-01 -1.278708e-01 1.049786e-02 2.262495e-03 -1.069151e-02 7.755909e-02 1.172011e-02 -1.120533e-01 4.221080e-02 4.480186e-02 -1.290585e-01 -6.483125e-02 5.926211e-02 -8.119116e-02 -8.718678e-02 2.349631e-02
<VARIANCE> 39
 7.855300e+01 6.251334e+01 5.090136e+01 3.003126e+01 1.311355e+02 2.945794e+01 1.304386e+02 1.187676e+02 3.447611e+01 1.296320e+02 1.542548e+01 1.174762e+01 4.815830e+01 2.760059e+00 3.962216e+00 2.023032e+00 1.815636e+00 1.025782e+01 3.095075e+00 7.165786e+00 5.931463e+00 3.273455e+00 6.056780e+00 2.227712e+00 1.342912e+00 2.132512e+00 3.213077e-01 6.199948e-01 3.157097e-01 3.594563e-01 1.814658e+00 5.721419e-01 1.210168e+00 1.082065e+00 5.042684e-01 1.008041e+00 4.849129e-01 2.012175e-01 2.123658e-01
<GCONST> 1.306000e+02
<STATE> 5
<MEAN> 39
 -2.786018e+00 -1.748038e+01 3.230762e+00 -6.269155e+00 -2.195505e+01 -6.532016e-01 -1.452973e+01 -9.158352e+00 -2.200560e+00 -1.105450e+01 2.628922e-01 -1.066965e+00 5.765738e+01 -1.155287e+00 3.749392e-01 -1.157937e+00 4.340808e-01 1.050758e+00 -4.447182e-02 1.060594e+00 7.227522e-01 1.092406e-01 2.912478e-01 -2.618614e-01 1.614582e-01 -6.904722e-01 -5.492732e-03 -5.925192e-03 -9.441678e-02 -6.801179e-02 4.721127e-02 -6.595634e-02 -4.746791e-03 5.187348e-02 5.073577e-02 2.702288e-02 -4.246946e-03 1.722176e-02 4.816737e-02
<VARIANCE> 39
 3.634619e+01 2.842462e+01 5.073132e+01 2.158795e+01 5.336841e+01 2.734414e+01 4.557760e+01 3.768150e+01 3.130064e+01 2.473447e+01 2.479198e+01 1.666273e+01 9.043996e+00 3.277693e+00 2.042936e+00 2.760448e+00 2.020261e+00 3.714633e+00 1.808401e+00 3.367881e+00 2.441032e+00 3.033521e+00 2.163996e+00 1.535762e+00 1.819689e+00 8.007541e-01 4.686461e-01 2.678958e-01 3.899028e-01 3.354457e-01 4.382072e-01 3.114880e-01 6.115784e-01 3.760152e-01 5.701346e-01 3.949780e-01 2.540704e-01 3.629672e-01 7.041385e-02
<GCONST> 1.114486e+02
<TRANSP> 6
 0.000000e+00 1.000000e+00 0.000000e+00 0.000000e+00 0.000000e+00 0.000000e+00
 0.000000e+00 8.195779e-01 1.804221e-01 0.000000e+00 0.000000e+00 0.000000e+00
 0.000000e+00 0.000000e+00 9.336463e-01 6.031605e-03 6.032205e-02 0.000000e+00
 0.000000e+00 0.000000e+00 0.000000e+00 9.743632e-01 2.563678e-02 0.000000e+00
 0.000000e+00 0.000000e+00 0.000000e+00 0.000000e+00 9.180602e-01 8.193982e-02
 0.000000e+00 0.000000e+00 0.000000e+00 0.000000e+00 0.000000e+00 0.000000e+00
<ENDHMM>
