~o
<STREAMINFO> 1 39
<VECSIZE> 39<NULLD><MFCC_D_A_0><DIAGC>
~h "six"
<BEGINHMM>
<NUMSTATES> 6
<STATE> 2
<MEAN> 39
 5.268384e-01 -2.190840e+01 2.859329e+00 -5.101460e+00 -2.392186e+01 -3.337552e+00 -1.203224e+01 -7.862391e+00 5.870947e-01 -7.901628e+00 8.805054e-01 7.653024e-01 6.141264e+01 2.140085e+00 -5.479801e-01 7.003168e-02 -4.423710e-01 -1.730485e+00 -1.742057e+00 -2.303734e-01 -4.804429e-01 7.703634e-02 3.924308e-01 -1.627875e-01 3.906434e-01 1.602320e+00 -4.398271e-01 -3.602235e-02 -1.098762e-01 1.388248e-01 8.125011e-02 1.777704e-01 4.572276e-01 1.368495e-01 8.634229e-02 1.877949e-01 4.071345e-02 -1.742993e-02 -9.760777e-02
<VARIANCE> 39
 8.804790e+01 7.603383e+01 2.987431e+01 2.928087e+01 7.113910e+01 8.481045e+01 4.076717e+01 4.715549e+01 3.204813e+01 4.228774e+01 2.725937e+01 3.007461e+01 4.575557e+01 4.432949e+00 1.353304e+00 2.411828e+00 2.758282e+00 2.181292e+00 6.510375e+00 4.512191e+00 3.671194e+00 4.223721e+00 4.988111e+00 2.677423e+00 2.709487e+00 1.232701e+00 8.971635e-01 2.071959e-01 2.746036e-01 4.116280e-01 4.116406e-01 1.029163e+00 8.232993e-01 7.762035e-01 5.924502e-01 4.654622e-01 5.034479e-01 4.208191e-01 1.536272e-01
<GCONST> 1.257740e+02
<STATE> 3
<MEAN> 39
 6.552752e+00 -2.843493e+01 4.834035e+00 -9.002781e+00 -3.266103e+01 -6.344431e+00 -8.145623e+00 -2.680371e+00 3.103580e+00 -5.454511e+00 3.323123e+00 -5.398359e-01 7.070292e+01 -5.616268e-01 -6.377400e-02 6.326509e-01 -2.652886e-01 -2.038006e-01 3.662036e-01 3.656428e-01 6.363798e-01 -3.214435e-01 -3.345294e-01 4.465390e-01 -5.641595e-01 7.218525e-04 -2.335873e-01 1.612344e-01 1.492100e-01 8.383477e-02 2.629552e-01 2.105936e-01 -2.683612e-01 -8.830437e-02 -2.074991e-01 -2.963549e-01 -1.722031e-02 -2.784560e-02 -3.803353e-01
<VARIANCE> 39
 1.223757e+01 1.159412e+01 3.945027e+01 6.402658e+01 2.553608e+01 1.511482e+02 4.586508e+01 7.769199e+01 3.878738e+01 9.618980e+01 3.573969e+01 3.753226e+01 5.155441e+00 4.956037e-01 5.545720e-01 1.975361e+00 1.681190e+00 1.221656e+00 2.321261e+00 4.811855e+00 4.099030e+00 2.206593e+00 5.514539e+00 2.731483e+00 2.941715e+00 6.749923e-01 1.521507e-01 8.647673e-02 3.562959e-01 3.483461e-01 3.202546e-01 5.477572e-01 6.268351e-01 6.645563e-01 2.961200e-01 1.073841e+00 4.428385e-01 6.734077e-01 6.446546e-02
<GCONST> 1.119609e+02
<STATE> 4
<MEAN> 39
 8.781579e-01 -2.637377e+01 9.012523e+00 -8.551789e+00 -3.141445e+01 -4.477350e+00 -1.100144e+01 -2.664260e+00 -2.157014e-01 -8.780645e+00 4.404319e+00 -1.684701e+00 6.460497e+01 -1.461017e+00 8.111842e-01 -4.306791e-01 9.413132e-01 9.460251e-01 5.335586e-01 3.523771e-01 6.712183e-02 -1.527860e-01 9.673966e-03 -4.965789e-01 1.322525e-01 -2.047666e+00 -2.958397e-01 2.784024e-01 -5.766844e-01 1.160121e-01 4.191837e-01 -7.873612e-02 2.809154e-01 2.327655e-01 3.489556e-01 3.340121e-01 -7.480573e-02 1.337376e-01 -1.610161e-01
<VARIANCE> 39
 1.622814e+01 1.017040e+01 1.067851e+01 3.661300e+01 3.043437e+01 1.022885e+02 6.459140e+01 6.503471e+01 8.785203e+01 3.705328e+01 4.027480e+01 2.022763e+01 1.562817e+01 7.673454e-01 6.980795e-01 1.416208e+00 1.052112e+00 1.964450e+00 1.640132e+00 2.159511e+00 2.005086e+00 2.909540e+00 2.792206e+00 1.972678e+00 1.867966e+00 2.673057e-01 1.662868e-01 2.472441e-01 2.151523e-01 3.494756e-01 4.845951e-01 3.964518e-01 5.756093e-01 4.077243e-01 5.890720e-01 5.709652e-01 4.591324e-01 4.998150e-01 1.086201e-01
<GCONST> 1.075084e+02
<STATE> 5
<MEAN> 39
 -6.580186e+00 -2.097220e+01 1.598155e+00 -2.653132e+00 -2.259901e+01 -5.140468e+00 -8.912778e+00 -1.179239e+00 1.855609e-01 -7.845405e+00 3.061150e+00 2.577039e-01 5.677066e+01 -2.144734e+00 1.711307e+00 -1.584644e+00 4.197384e-01 2.421825e+00 3.611587e-02 2.942580e-01 4.648566e-01 4.984701e-01 5.123467e-01 -2.381749e-01 6.851851e-01 -1.585841e+00 2.069529e-01 -1.679728e-01 -5.887625e-02 -1.519639e-01 -5.651733e-03 -8.741659e-02 -1.280912e-01 -1.599068e-01 2.060389e-02 1.019570e-01 -1.507481e-02 7.194387e-02 2.213921e-01
<VARIANCE> 39
 1.961625e+01 4.187053e+01 2.451894e+01 2.952063e+01 5.087010e+01 7.688137e+01 5.961416e+01 3.737920e+01 6.540337e+01 4.590339e+01 2.839640e+01 2.821478e+01 1.189943e+01 2.560208e+00 5.355662e+00 2.718553e+00 2.759855e+00 6.714892e+00 4.555705e+00 3.608605e+00 3.514644e+00 4.634635e+00 4.770420e+00 2.580928e+00 2.512353e+00 1.978934e+00 4.351487e-01 1.021435e+00 3.401369e-01 3.534157e-01 1.334814e+00 6.997734e-01 6.997412e-01 3.654497e-01 8.221093e-01 8.778368e-01 3.366399e-01 4.835367e-01 2.836203e-01
<GCONST> 1.266024e+02
<TRANSP> 6
 0.000000e+00 1.000000e+00 0.000000e+00 0.000000e+00 0.000000e+00 0.000000e+00
 0.000000e+00 8.221422e-01 1.778578e-01 0.000000e+00 0.000000e+00 0.000000e+00
 0.000000e+00 0.000000e+00 8.616943e-01 1.383058e-01 0.000000e+00 0.000000e+00
 0.000000e+00 0.000000e+00 0.000000e+00 7.650869e-01 2.349131e-01 0.000000e+00
 0.000000e+00 0.000000e+00 0.000000e+00 0.000000e+00 7.387545e-01 2.612456e-01
 0.000000e+00 0.000000e+00 0.000000e+00 0.000000e+00 0.000000e+00 0.000000e+00
<ENDHMM>
