~o
<STREAMINFO> 1 39
<VECSIZE> 39<NULLD><MFCC_D_A_0><DIAGC>
~h "one"
<BEGINHMM>
<NUMSTATES> 6
<STATE> 2
<MEAN> 39
 6.516323e+00 -1.518755e+01 2.406190e+00 -1.850353e+01 -2.728960e+01 -1.385539e+00 -1.655696e+01 -7.803713e-01 1.294147e+00 -1.081878e+01 3.688407e+00 -3.643387e+00 6.134808e+01 1.540198e+00 -1.396682e+00 -2.519254e-01 -1.596971e+00 -6.770911e-01 1.004616e+00 2.901740e-01 8.424655e-01 2.806270e-01 -2.925025e-01 5.284070e-01 -5.383058e-02 1.507850e+00 -4.952023e-01 -1.467154e-01 -2.578493e-01 3.277504e-01 6.682512e-01 4.014519e-01 3.816545e-01 -8.793651e-02 -5.782636e-02 9.308758e-02 -4.417417e-03 1.501564e-01 -8.664607e-02
<VARIANCE> 39
 1.904208e+01 3.765894e+01 4.332369e+01 4.107232e+01 2.697607e+01 2.736594e+01 6.202914e+01 3.955504e+01 2.800768e+01 2.347456e+01 2.945546e+01 2.043291e+01 2.420761e+01 3.587606e+00 1.549502e+00 3.664613e+00 2.797148e+00 5.406110e+00 3.161321e+00 6.099036e+00 3.013949e+00 2.799099e+00 2.519692e+00 2.787747e+00 2.282788e+00 4.231362e-01 4.185577e-01 2.533477e-01 3.490368e-01 5.994800e-01 4.358050e-01 3.517216e-01 7.453325e-01 8.153024e-01 5.777310e-01 4.358062e-01 4.298304e-01 4.530895e-01 6.910437e-02
<GCONST> 1.170886e+02
<STATE> 3
<MEAN> 39
 7.894356e+00 -2.856247e+01 -5.138142e+00 -1.865738e+01 -1.485689e+01 1.333589e+01 -1.284036e+01 -1.816838e+00 2.516582e+00 -1.124385e+01 3.897789e+00 -3.172791e+00 7.012940e+01 -1.161728e-01 -6.001335e-01 -3.707848e-01 6.544502e-01 7.905712e-01 2.030609e-01 -3.604246e-01 -3.960374e-01 2.022860e-01 -1.070388e-01 -3.205191e-01 4.423954e-02 9.163001e-02 -1.991586e-02 1.456916e-01 1.400556e-01 5.596551e-02 -2.324221e-01 -3.315868e-01 -1.195873e-01 9.159440e-02 6.966372e-02 -4.402273e-03 -6.218524e-02 -1.678691e-02 -1.193565e-01
<VARIANCE> 39
 3.905220e+00 1.529371e+01 3.989364e+01 5.547502e+01 5.946442e+01 3.142315e+01 4.155376e+01 4.667173e+01 2.319808e+01 3.248269e+01 3.198078e+01 3.046405e+01 1.129908e+01 1.862738e-01 6.829598e-01 1.233166e+00 1.483247e+00 2.059660e+00 3.625958e+00 2.626585e+00 2.722139e+00 1.751307e+00 2.897888e+00 2.177669e+00 2.274495e+00 2.501592e-01 3.563003e-02 8.931892e-02 2.208994e-01 2.497123e-01 1.776931e-01 2.780490e-01 3.613082e-01 4.162132e-01 2.783866e-01 5.067965e-01 3.337628e-01 4.019996e-01 3.044534e-02
<GCONST> 9.785308e+01
<STATE> 4
<MEAN> 39
 6.703918e+00 -2.887177e+01 -2.509659e+00 -1.320885e+01 -1.940621e+01 3.037830e+00 -1.786831e+01 -1.193108e+00 3.345616e+00 -1.343464e+01 1.682300e+00 -2.405974e+00 6.672384e+01 -5.640416e-01 1.015702e+00 1.427878e+00 9.450098e-01 -1.140036e+00 -1.413685e+00 -7.162322e-01 -4.598016e-01 -5.897190e-01 5.861308e-02 -9.210952e-02 -4.456633e-01 -1.049691e+00 -1.771260e-01 3.271249e-01 8.603398e-02 1.980138e-01 2.299510e-01 1.500517e-01 5.325846e-02 -3.748504e-01 -3.114387e-01 9.918991e-02 2.489881e-03 -1.377573e-01 -1.974671e-01
<VARIANCE> 39
 5.224535e+00 1.336459e+01 3.353260e+01 1.694287e+01 3.119868e+01 1.880359e+01 3.225468e+01 2.986184e+01 6.240557e+01 2.743308e+01 4.935010e+01 4.756721e+01 8.908113e+00 5.657586e-01 8.520161e-01 6.514178e-01 2.232137e+00 1.213526e+00 1.529503e+00 2.024540e+00 2.950897e+00 1.739932e+00 1.832198e+00 1.898546e+00 1.744295e+00 4.236044e-01 4.410064e-02 7.147685e-02 2.128779e-01 3.110882e-01 2.112278e-01 2.704816e-01 5.062899e-01 3.705699e-01 3.128676e-01 3.752007e-01 4.018747e-01 3.294754e-01 7.363307e-02
<GCONST> 9.666917e+01
<STATE> 5
<MEAN> 39
 1.026263e+00 -1.621915e+01 4.551827e+00 -5.151834e+00 -1.949802e+01 -2.793447e+00 -1.885830e+01 -7.966763e+00 -2.897477e+00 -1.282887e+01 -2.066509e+00 -5.225517e+00 5.776528e+01 -1.045247e+00 1.210450e+00 -4.573356e-02 5.305905e-01 7.127084e-01 -6.589796e-02 7.344816e-01 -3.772143e-01 -4.207259e-01 2.898244e-01 -4.466806e-01 3.136096e-02 -8.692461e-01 -3.190452e-02 -9.153284e-02 -2.152382e-01 -1.878694e-01 7.860150e-02 7.698090e-02 2.045987e-01 2.614542e-01 1.349910e-01 1.074499e-01 9.101673e-02 1.040014e-01 4.879278e-02
<VARIANCE> 39
 2.230856e+01 3.185150e+01 4.620484e+01 1.551982e+01 4.169648e+01 2.575391e+01 3.084704e+01 5.465577e+01 4.772125e+01 4.841698e+01 3.449496e+01 3.210353e+01 9.444960e+00 1.086992e+00 1.478574e+00 1.656809e+00 1.467164e+00 2.310152e+00 1.533495e+00 2.575711e+00 3.630188e+00 3.426126e+00 2.893829e+00 2.065575e+00 2.455570e+00 3.541864e-01 1.440822e-01 1.969092e-01 1.959965e-01 2.219669e-01 3.478123e-01 2.786302e-01 3.224332e-01 4.774044e-01 4.733028e-01 4.770209e-01 2.845191e-01 3.991147e-01 4.816870e-02
<GCONST> 1.063717e+02
<TRANSP> 6
 0.000000e+00 1.000000e+00 0.000000e+00 0.000000e+00 0.000000e+00 0.000000e+00
 0.000000e+00 8.611602e-01 1.289224e-01 9.917486e-03 0.000000e+00 0.000000e+00
 0.000000e+00 0.000000e+00 9.274688e-01 7.253125e-02 0.000000e+00 0.000000e+00
 0.000000e+00 0.000000e+00 0.000000e+00 8.285483e-01 1.714517e-01 0.000000e+00
 0.000000e+00 0.000000e+00 0.000000e+00 0.000000e+00 8.882459e-01 1.117541e-01
 0.000000e+00 0.000000e+00 0.000000e+00 0.000000e+00 0.000000e+00 0.000000e+00
<ENDHMM>
