~o
<STREAMINFO> 1 39
<VECSIZE> 39<NULLD><MFCC_D_A_0><DIAGC>
~h "seven"
<BEGINHMM>
<NUMSTATES> 6
<STATE> 2
<MEAN> 39
 4.136296e+00 -2.365946e+01 -4.664383e+00 -9.121174e+00 -1.985036e+01 -5.237688e+00 -1.653664e+01 -9.136352e-01 4.391150e+00 -4.565598e+00 2.410195e+00 -6.243422e+00 6.288387e+01 1.931767e+00 -8.661788e-01 2.075532e-01 -1.219440e+00 -9.639405e-01 -4.455358e-01 -9.051445e-01 5.833434e-01 3.912820e-01 -1.828256e-02 -9.006025e-02 -1.080450e+00 1.425073e+00 -2.961241e-01 4.429954e-02 -1.337553e-01 7.393453e-02 2.174606e-01 1.958234e-01 4.091494e-01 1.437137e-01 -2.558021e-02 -4.764965e-02 -2.027770e-01 -1.019130e-01 -1.195847e-01
<VARIANCE> 39
 6.558035e+01 2.974797e+01 7.426906e+01 3.234554e+01 2.550319e+01 6.335470e+01 5.010850e+01 4.001274e+01 5.213139e+01 5.320520e+01 2.082548e+01 4.602561e+01 1.805776e+01 6.014207e+00 2.931759e+00 5.934818e+00 2.248146e+00 2.798945e+00 6.638868e+00 5.849606e+00 3.259875e+00 2.843721e+00 3.797846e+00 3.031209e+00 3.252177e+00 2.137956e+00 7.895656e-01 2.841459e-01 9.224296e-01 4.347997e-01 5.172392e-01 9.299013e-01 1.131956e+00 5.288895e-01 3.989907e-01 6.474044e-01 5.212464e-01 4.770960e-01 2.482586e-01
<GCONST> 1.286823e+02
<STATE> 3
<MEAN> 39
 7.184911e+00 -2.936031e+01 -2.644175e+00 -1.501733e+01 -2.088678e+01 3.690319e-01 -1.501250e+01 6.523705e+00 9.294798e+00 -6.900271e+00 -7.597436e-01 -1.072206e+01 6.913424e+01 -1.291269e-01 -3.769886e-02 7.741837e-02 2.079908e-01 1.314704e-01 6.045634e-02 -2.019598e-01 -2.211920e-01 1.544408e-02 4.427534e-02 1.061812e-02 -8.919861e-02 -1.069109e-01 -1.126255e-01 1.421152e-01 1.246936e-01 1.406865e-01 -4.847837e-02 -1.793107e-01 -2.644539e-01 -2.277984e-01 -1.430595e-01 -5.088942e-02 1.668958e-01 1.726333e-01 -2.018014e-01
<VARIANCE> 39
 9.845987e+00 3.097956e+01 1.801955e+01 1.450177e+01 7.876144e+00 2.856737e+01 3.316004e+01 4.059309e+01 6.876226e+01 3.211412e+01 4.512682e+01 1.872598e+01 5.747937e+00 2.491849e-01 7.216815e-01 1.218289e+00 6.064221e-01 9.407124e-01 1.617034e+00 3.037514e+00 3.356622e+00 1.988699e+00 2.140345e+00 3.372764e+00 8.408050e-01 6.450503e-01 1.016176e-01 1.283391e-01 2.041636e-01 1.596310e-01 1.425567e-01 2.158224e-01 3.718771e-01 6.197553e-01 4.607148e-01 3.927483e-01 4.806466e-01 2.028274e-01 1.294165e-01
<GCONST> 9.575331e+01
<STATE> 4
<MEAN> 39
 4.710739e+00 -2.576826e+01 -1.467420e+00 -1.039179e+01 -2.441003e+01 -3.689027e+00 -1.941929e+01 -2.922525e+00 7.485087e+00 -8.641033e+00 -1.867891e+00 -4.360065e+00 6.361900e+01 -4.143021e-01 5.669878e-01 -5.552284e-02 6.034898e-01 2.579690e-02 -2.330474e-01 9.578294e-02 -6.232668e-01 -5.267780e-01 -1.848438e-01 -2.194018e-01 1.532428e-01 -6.300803e-01 -8.427370e-02 1.490701e-01 -1.544642e-02 2.210194e-02 1.325446e-01 2.867825e-02 1.148166e-01 -1.250354e-02 -6.069218e-02 9.098610e-02 -8.636770e-03 -3.646074e-02 -3.958950e-02
<VARIANCE> 39
 1.761948e+01 1.381290e+01 2.747071e+01 2.700569e+01 1.389659e+01 2.333609e+01 3.549823e+01 3.820111e+01 6.189077e+01 4.219904e+01 2.979928e+01 3.678313e+01 1.107104e+01 1.263636e+00 1.112273e+00 1.306050e+00 1.169226e+00 1.206005e+00 1.408127e+00 2.450195e+00 3.084720e+00 2.446878e+00 1.953760e+00 2.021501e+00 1.995932e+00 8.245679e-01 1.825278e-01 1.482224e-01 2.017136e-01 2.004055e-01 2.112055e-01 2.350928e-01 4.122318e-01 5.028034e-01 4.920813e-01 4.216842e-01 3.828743e-01 3.631513e-01 1.179193e-01
<GCONST> 1.030512e+02
<STATE> 5
<MEAN> 39
 -1.879770e+00 -1.307978e+01 5.984002e-01 -5.611348e+00 -1.929727e+01 -5.911024e+00 -1.642088e+01 -7.921074e+00 -2.401789e+00 -9.640759e+00 -2.933203e+00 -6.121930e+00 5.594149e+01 -1.301991e+00 1.045743e+00 -1.301167e-01 4.612525e-01 9.388810e-01 -1.382499e-01 9.172920e-01 4.405663e-03 -3.110143e-01 2.351550e-01 -2.871796e-01 4.112703e-01 -8.503481e-01 -3.373660e-02 -1.507715e-01 -1.194700e-01 -1.180604e-01 2.382278e-02 1.250902e-01 1.397654e-01 2.306752e-01 1.335804e-01 -6.191355e-03 -3.067304e-03 6.423192e-02 3.630644e-02
<VARIANCE> 39
 3.579864e+01 3.372558e+01 2.410294e+01 1.964223e+01 2.864637e+01 2.535323e+01 4.058092e+01 1.633320e+01 3.072056e+01 3.147550e+01 2.931148e+01 2.155801e+01 7.684547e+00 1.438370e+00 1.628691e+00 9.412194e-01 1.419791e+00 2.206660e+00 1.780746e+00 3.051098e+00 1.981067e+00 1.612141e+00 1.875546e+00 2.681128e+00 2.135118e+00 3.423855e-01 2.840445e-01 2.486543e-01 2.089864e-01 2.475677e-01 4.323490e-01 3.381943e-01 5.893476e-01 3.316674e-01 2.961920e-01 3.961004e-01 6.007578e-01 3.772469e-01 6.988318e-02
<GCONST> 1.040131e+02
<TRANSP> 6
 0.000000e+00 1.000000e+00 0.000000e+00 0.000000e+00 0.000000e+00 0.000000e+00
 0.000000e+00 8.706190e-01 1.035154e-01 2.586559e-02 0.000000e+00 0.000000e+00
 0.000000e+00 0.000000e+00 9.108213e-01 8.917876e-02 0.000000e+00 0.000000e+00
 0.000000e+00 0.000000e+00 0.000000e+00 9.080766e-01 9.192341e-02 0.000000e+00
 0.000000e+00 0.000000e+00 0.000000e+00 0.000000e+00 8.938480e-01 1.061520e-01
 0.000000e+00 0.000000e+00 0.000000e+00 0.000000e+00 0.000000e+00 0.000000e+00
<ENDHMM>
