~o
<STREAMINFO> 1 39
<VECSIZE> 39<NULLD><MFCC_D_A_0><DIAGC>
~h "five"
<BEGINHMM>
<NUMSTATES> 6
<STATE> 2
<MEAN> 39
 6.275264e+00 -2.702601e+01 -5.895910e+00 -1.749793e+01 -1.683523e+01 1.003016e+01 -1.116833e+01 -8.324206e-01 3.165918e+00 -4.635867e+00 7.237264e+00 -5.947877e+00 6.649648e+01 2.294928e+00 -1.453786e+00 -3.358427e-01 -2.041815e+00 -2.066816e-01 1.788067e+00 -1.024480e-01 4.151954e-01 -1.691115e-01 -6.913924e-01 3.135970e-01 -9.920571e-01 2.501524e+00 -9.123629e-01 3.136076e-01 2.343038e-01 7.185830e-01 6.453310e-01 -2.635176e-02 2.985577e-01 1.053927e-01 -1.096881e-01 -2.189975e-01 -5.351017e-01 1.542062e-01 -6.256093e-01
<VARIANCE> 39
 1.884259e+01 3.065460e+01 3.131675e+01 6.350628e+01 2.665354e+01 2.980175e+01 3.595120e+01 3.173503e+01 2.287828e+01 2.669082e+01 2.745726e+01 3.234830e+01 1.949077e+01 4.954190e+00 1.774160e+00 3.058531e+00 5.314691e+00 4.127750e+00 2.680306e+00 4.373778e+00 2.960564e+00 2.312046e+00 2.328319e+00 3.921110e+00 2.145325e+00 1.926773e+00 5.676583e-01 2.372345e-01 5.746788e-01 7.207340e-01 4.506658e-01 4.625339e-01 8.385300e-01 6.179368e-01 5.252783e-01 3.875861e-01 4.443386e-01 3.473408e-01 1.800680e-01
<GCONST> 1.196310e+02
<STATE> 3
<MEAN> 39
 7.365294e+00 -3.073945e+01 -6.172034e+00 -1.832356e+01 -1.087209e+01 1.661316e+01 -1.201127e+01 -3.617709e-01 1.764107e+00 -1.028657e+01 3.616854e+00 -8.341253e+00 7.006686e+01 -1.784292e-01 -1.616264e-01 -1.735808e-02 1.830669e-01 2.022251e-01 -1.695498e-02 -9.544982e-02 1.546836e-01 8.137570e-02 -1.950087e-01 -4.289143e-01 -3.174497e-01 -7.747493e-02 -1.670886e-02 6.471350e-02 -4.898362e-03 1.179707e-02 -1.464012e-01 -1.866253e-01 -8.169662e-03 4.535433e-02 6.931764e-02 9.541977e-02 6.764801e-03 1.234711e-02 -6.904160e-02
<VARIANCE> 39
 3.766074e+00 1.005078e+01 2.561352e+01 2.933594e+01 1.954707e+01 1.192578e+01 2.816390e+01 1.319086e+01 2.678393e+01 2.442665e+01 1.880448e+01 2.769100e+01 8.085768e+00 1.781050e-01 3.654839e-01 6.838025e-01 6.755177e-01 1.199919e+00 1.042290e+00 1.771915e+00 1.656228e+00 1.271976e+00 1.492155e+00 1.288376e+00 1.212005e+00 1.332188e-01 4.466643e-02 8.459467e-02 1.342069e-01 1.189080e-01 1.669345e-01 2.194377e-01 3.252510e-01 3.518640e-01 2.220147e-01 3.037332e-01 2.692131e-01 2.198531e-01 3.154639e-02
<GCONST> 8.082671e+01
<STATE> 4
<MEAN> 39
 5.177866e+00 -3.011299e+01 -3.725940e+00 -1.575329e+01 -2.015073e+01 4.643482e+00 -1.344120e+01 6.062876e+00 7.808419e+00 -9.017966e+00 -3.572519e-01 -8.879077e+00 6.694122e+01 -2.207137e-01 6.034816e-01 5.229856e-01 3.058761e-01 -1.397120e+00 -1.863088e+00 -3.347992e-01 4.545654e-01 2.617612e-01 1.070317e-02 2.230705e-01 6.356058e-01 -6.150596e-01 -4.160681e-02 1.320120e-01 6.250610e-02 3.236706e-02 4.197185e-02 -1.202260e-02 -3.654278e-02 -1.569406e-01 -1.643369e-01 -4.161293e-02 9.648590e-02 7.006983e-02 -9.114403e-02
<VARIANCE> 39
 4.701171e+00 1.608338e+01 3.938192e+01 2.097842e+01 4.227964e+01 4.335654e+01 4.428071e+01 2.916245e+01 2.201830e+01 1.938650e+01 2.652697e+01 2.279177e+01 1.992658e+01 2.657184e-01 6.624241e-01 8.721588e-01 9.666820e-01 1.401279e+00 2.028927e+00 1.958529e+00 1.937344e+00 2.239442e+00 2.097589e+00 2.348198e+00 1.031332e+00 2.470223e-01 5.049263e-02 9.150796e-02 1.323911e-01 1.536846e-01 3.140160e-01 4.004699e-01 3.200703e-01 3.130516e-01 2.912021e-01 3.807622e-01 3.797670e-01 1.826240e-01 2.710138e-02
<GCONST> 9.223153e+01
<STATE> 5
<MEAN> 39
 1.010414e-01 -2.071103e+01 5.896193e-02 -1.121362e+01 -2.356195e+01 -6.264493e+00 -1.604728e+01 3.053486e+00 4.651606e+00 -9.401540e+00 1.977522e+00 -3.660680e+00 5.834772e+01 -1.474729e+00 1.401831e+00 -2.682755e-01 7.036871e-01 1.236994e+00 -5.495691e-02 3.829656e-01 -9.265639e-01 -5.368668e-01 2.619419e-01 -5.038455e-01 3.481049e-01 -1.406955e+00 -2.127955e-01 -3.883445e-02 -2.145788e-01 -3.528776e-02 3.539531e-01 3.400411e-01 3.154955e-01 2.687185e-02 1.213310e-02 1.479362e-01 -1.582630e-01 -2.187333e-02 -1.485853e-02
<VARIANCE> 39
 2.221337e+01 4.788599e+01 4.796799e+01 2.094224e+01 2.554446e+01 3.017611e+01 4.159269e+01 4.100495e+01 2.820425e+01 3.002455e+01 4.911309e+01 2.779786e+01 1.736234e+01 1.345223e+00 7.424408e-01 1.479451e+00 8.216568e-01 1.607513e+00 3.116323e+00 3.707963e+00 1.786000e+00 1.912092e+00 1.591935e+00 2.231681e+00 1.645805e+00 3.056631e-01 1.809517e-01 1.055017e-01 1.913280e-01 2.032551e-01 3.449416e-01 4.741836e-01 6.066568e-01 3.947149e-01 4.509957e-01 2.559747e-01 3.990248e-01 2.629070e-01 5.244317e-02
<GCONST> 1.035804e+02
<TRANSP> 6
 0.000000e+00 1.000000e+00 0.000000e+00 0.000000e+00 0.000000e+00 0.000000e+00
 0.000000e+00 7.811422e-01 2.188579e-01 0.000000e+00 0.000000e+00 0.000000e+00
 0.000000e+00 0.000000e+00 9.281355e-01 7.186453e-02 0.000000e+00 0.000000e+00
 0.000000e+00 0.000000e+00 0.000000e+00 8.986902e-01 1.013098e-01 0.000000e+00
 0.000000e+00 0.000000e+00 0.000000e+00 0.000000e+00 8.554439e-01 1.445561e-01
 0.000000e+00 0.000000e+00 0.000000e+00 0.000000e+00 0.000000e+00 0.000000e+00
<ENDHMM>
