~o
<STREAMINFO> 1 39
<VECSIZE> 39<NULLD><MFCC_D_A_0><DIAGC>
~h "zero"
<BEGINHMM>
<NUMSTATES> 6
<STATE> 2
<MEAN> 39
 6.628231e-01 -1.701520e+01 1.074062e+01 -5.011910e+00 -2.205504e+01 -4.999616e+00 -2.307349e+01 -6.938286e+00 -7.418225e-01 -1.257977e+01 2.304247e+00 -1.795635e+00 6.033676e+01 1.440145e+00 -1.028906e+00 1.243032e+00 3.445133e-02 -1.333338e+00 -1.179131e+00 -9.061213e-01 -4.032270e-01 -6.802239e-01 -1.205732e-01 7.085927e-01 -1.277380e-01 1.341161e+00 -2.953694e-01 1.615689e-02 -2.647319e-01 -1.695949e-02 1.983472e-01 1.186704e-01 5.044098e-01 2.614067e-02 -8.391653e-02 2.310903e-01 -2.890087e-02 3.985212e-03 -5.209206e-02
<VARIANCE> 39
 2.420822e+01 7.217754e+01 3.224504e+01 1.597975e+01 4.527176e+01 4.606999e+01 5.780761e+01 3.815709e+01 3.525048e+01 3.295551e+01 3.755925e+01 3.023478e+01 2.465462e+01 3.357109e+00 1.731442e+00 1.391277e+00 1.091285e+00 2.361700e+00 5.075655e+00 7.951973e+00 2.872197e+00 2.639796e+00 2.883869e+00 3.113773e+00 1.935037e+00 7.700583e-01 5.829608e-01 1.974498e-01 3.110721e-01 1.944626e-01 4.379869e-01 7.076308e-01 9.871569e-01 5.392816e-01 4.169001e-01 4.064602e-01 4.022930e-01 3.585156e-01 1.224754e-01
<GCONST> 1.168010e+02
<STATE> 3
<MEAN> 39
 7.487606e+00 -2.445418e+01 1.088331e+01 -8.074949e+00 -2.611115e+01 -8.700118e+00 -2.177515e+01 -3.708976e+00 -2.091574e+00 -8.693616e+00 8.024474e+00 -3.465770e+00 6.908642e+01 3.236322e-01 -3.457359e-01 -1.069714e+00 -5.608712e-01 8.998328e-01 2.147020e-01 -5.208045e-01 6.926966e-01 6.365010e-01 2.672352e-01 1.766851e-01 -2.886711e-01 2.145868e-01 -5.631176e-02 5.405635e-02 -1.712332e-01 -6.572095e-02 2.268580e-01 2.845462e-01 -6.958488e-02 1.557591e-02 2.036066e-01 9.770518e-03 -1.059344e-01 -3.136434e-02 -1.387500e-01
<VARIANCE> 39
 1.260663e+01 1.496271e+01 3.186466e+01 3.134275e+01 2.953698e+01 3.980769e+01 6.292238e+01 4.886384e+01 5.532834e+01 5.890241e+01 3.086965e+01 2.498207e+01 6.577725e+00 5.939628e-01 9.617900e-01 2.335146e+00 1.306541e+00 1.862357e+00 3.256273e+00 5.053342e+00 4.057823e+00 3.328914e+00 3.081561e+00 2.826526e+00 1.849027e+00 5.961519e-01 1.362383e-01 1.971508e-01 4.174605e-01 2.107671e-01 3.136353e-01 5.687500e-01 9.792460e-01 8.862887e-01 6.382508e-01 6.087988e-01 6.221018e-01 3.883088e-01 9.855723e-02
<GCONST> 1.117919e+02
<STATE> 4
<MEAN> 39
 9.614856e+00 -2.649988e+01 -7.567648e-01 -1.487792e+01 -1.767989e+01 1.643594e+00 -2.247984e+01 -1.542848e+00 4.309527e+00 -7.059668e+00 7.062319e+00 -5.558386e+00 6.879115e+01 -3.289278e-02 1.933946e-01 -3.104728e-01 -3.115868e-01 -2.511144e-02 5.056171e-01 3.156276e-01 -1.527635e-01 -1.051125e-01 -1.095827e-02 2.324751e-02 4.051544e-02 -2.619839e-01 -4.660345e-02 7.244141e-02 5.377544e-02 7.042114e-02 -7.057914e-02 -9.341159e-02 4.320273e-02 -3.785870e-02 -1.145235e-01 -5.617036e-02 8.534292e-04 5.253327e-02 -5.503716e-02
<VARIANCE> 39
 8.916286e+00 2.553366e+01 3.246034e+01 2.310579e+01 1.823174e+01 5.313419e+01 5.567259e+01 5.297496e+01 3.838497e+01 2.678304e+01 3.217459e+01 3.204116e+01 9.869087e+00 2.946415e-01 6.643519e-01 1.036731e+00 7.004739e-01 1.192141e+00 1.615455e+00 1.936634e+00 2.487911e+00 1.901097e+00 1.658759e+00 1.679593e+00 1.824443e+00 3.159576e-01 4.825283e-02 1.096601e-01 1.430699e-01 1.383451e-01 1.952931e-01 2.481059e-01 3.539557e-01 3.253497e-01 2.744115e-01 2.472861e-01 3.069327e-01 2.729431e-01 2.998848e-02
<GCONST> 9.311701e+01
<STATE> 5
<MEAN> 39
 1.539939e+00 -1.529282e+01 -7.721818e-01 -1.051521e+01 -1.634480e+01 4.561528e+00 -1.341434e+01 -7.361262e+00 -3.480721e+00 -9.152864e+00 3.409122e+00 -4.166526e+00 5.766957e+01 -1.452080e+00 8.574747e-01 -3.673710e-01 9.757581e-01 8.722175e-01 -1.495052e-01 1.358858e+00 -1.847701e-01 -3.152311e-01 3.039246e-01 -7.401497e-01 1.779870e-01 -9.910551e-01 -7.593694e-02 -7.638407e-02 -3.188767e-02 2.337301e-02 1.057550e-01 -1.279496e-02 6.276920e-02 1.552554e-01 1.023801e-01 6.184939e-02 -4.010101e-02 -2.646581e-04 1.796319e-02
<VARIANCE> 39
 5.680027e+01 3.020242e+01 5.940290e+01 5.192949e+01 2.691663e+01 2.908934e+01 3.613901e+01 4.270726e+01 3.062858e+01 4.863298e+01 4.993376e+01 2.416823e+01 1.521984e+01 9.348890e-01 1.299891e+00 1.855414e+00 1.711866e+00 1.496901e+00 1.338450e+00 1.837220e+00 2.023023e+00 2.197508e+00 2.345270e+00 2.466327e+00 1.770565e+00 4.197044e-01 1.360770e-01 1.938553e-01 2.950231e-01 2.282633e-01 2.677183e-01 2.094691e-01 3.104885e-01 2.607390e-01 3.515056e-01 3.777368e-01 3.983024e-01 2.961085e-01 4.562712e-02
<GCONST> 1.049204e+02
<TRANSP> 6
 0.000000e+00 1.000000e+00 0.000000e+00 0.000000e+00 0.000000e+00 0.000000e+00
 0.000000e+00 8.464646e-01 1.535354e-01 0.000000e+00 0.000000e+00 0.000000e+00
 0.000000e+00 0.000000e+00 8.970152e-01 1.029848e-01 0.000000e+00 0.000000e+00
 0.000000e+00 0.000000e+00 0.000000e+00 9.510013e-01 4.899867e-02 0.000000e+00
 0.000000e+00 0.000000e+00 0.000000e+00 0.000000e+00 9.021996e-01 9.780049e-02
 0.000000e+00 0.000000e+00 0.000000e+00 0.000000e+00 0.000000e+00 0.000000e+00
<ENDHMM>
