~o
<STREAMINFO> 1 39
<VECSIZE> 39<NULLD><MFCC_D_A_0><DIAGC>
~h "four"
<BEGINHMM>
<NUMSTATES> 6
<STATE> 2
<MEAN> 39
 8.010134e+00 -1.882156e+01 -2.165557e+00 -1.939628e+01 -2.672967e+01 1.018216e+00 -1.308312e+01 -3.472134e+00 -1.007795e+00 -1.072876e+01 4.851518e+00 -6.508748e-02 6.433694e+01 2.559042e+00 -9.256892e-01 9.532688e-01 -2.162204e+00 -2.407477e+00 2.053112e-01 -4.105071e-01 7.591269e-01 3.999595e-01 -9.807597e-01 5.882342e-01 1.388284e-01 1.741658e+00 -9.630103e-01 1.575831e-01 -4.386512e-04 6.788123e-01 7.312762e-01 5.896557e-02 2.336083e-01 7.223945e-02 1.395727e-01 2.832695e-01 -9.274843e-02 -6.325473e-02 -5.111048e-01
<VARIANCE> 39
 2.338357e+01 4.214670e+01 2.393679e+01 4.427812e+01 3.223492e+01 2.490665e+01 1.706394e+01 1.726449e+01 1.133799e+01 2.803710e+01 3.729117e+01 1.628492e+01 1.718642e+01 5.502289e+00 2.217633e+00 2.085275e+00 4.634357e+00 4.330873e+00 3.264122e+00 2.220198e+00 2.039382e+00 1.663153e+00 3.082733e+00 3.849676e+00 2.266039e+00 2.099798e+00 6.131920e-01 3.924081e-01 3.581274e-01 6.401234e-01 5.246936e-01 5.566713e-01 4.602741e-01 3.774276e-01 2.439796e-01 5.570158e-01 6.130812e-01 5.111169e-01 2.620993e-01
<GCONST> 1.160225e+02
<STATE> 3
<MEAN> 39
 9.943865e+00 -1.830635e+01 2.067257e+00 -2.332080e+01 -3.031617e+01 3.071294e-01 -1.592080e+01 8.328161e-01 8.176981e-01 -1.220940e+01 6.735501e+00 -1.624864e+00 6.482824e+01 -6.565508e-02 -1.280470e-01 -3.002664e-01 -7.089985e-02 4.517707e-01 2.574957e-01 -3.249929e-02 -2.165789e-02 -3.479472e-01 2.627691e-02 3.545317e-01 -2.642066e-02 -4.388986e-02 -1.813018e-02 8.861303e-03 -1.420787e-01 9.095045e-02 1.731141e-01 -7.028866e-03 -1.490101e-02 -6.910012e-02 -5.567262e-02 5.560432e-02 1.591580e-02 -1.811410e-02 -2.175009e-02
<VARIANCE> 39
 2.726752e+00 2.356367e+01 1.753290e+01 1.426031e+01 1.380021e+01 2.585381e+01 2.672679e+01 1.737298e+01 2.160060e+01 1.294219e+01 2.574909e+01 2.267797e+01 7.659935e+00 1.828865e-01 7.225764e-01 1.223060e+00 7.251331e-01 1.275457e+00 1.315200e+00 1.703456e+00 1.375042e+00 1.605199e+00 8.348207e-01 1.529198e+00 1.602802e+00 2.581642e-01 4.017967e-02 1.066279e-01 1.142792e-01 1.275144e-01 1.713869e-01 1.661806e-01 2.412664e-01 2.055854e-01 3.126130e-01 1.583472e-01 2.405618e-01 2.884944e-01 3.300256e-02
<GCONST> 8.114946e+01
<STATE> 4
<MEAN> 39
 8.555838e+00 -2.354490e+01 -7.764530e+00 -1.912138e+01 -1.781283e+01 3.436551e+00 -1.753626e+01 -1.207491e-02 1.614958e+00 -7.816725e+00 8.732005e+00 -4.798014e+00 6.499411e+01 -1.756462e-01 -1.981041e-01 -1.306624e-01 8.056059e-01 5.386847e-01 -5.933738e-01 -8.722384e-01 2.583228e-02 6.545587e-01 2.192237e-01 -4.973257e-01 -4.865721e-01 -2.087727e-01 -7.489166e-02 4.277184e-02 1.255114e-01 5.371883e-02 -1.148856e-01 -5.466568e-02 2.763832e-02 -7.849684e-03 -1.497744e-02 -7.503056e-02 -1.424512e-01 -8.174630e-03 -6.318832e-02
<VARIANCE> 39
 6.358650e+00 1.707743e+01 1.584190e+01 2.572331e+01 2.148333e+01 3.700811e+01 6.015638e+01 3.259557e+01 4.372274e+01 3.078841e+01 5.032340e+01 3.907058e+01 8.066042e+00 3.320522e-01 5.610476e-01 1.295945e+00 1.244821e+00 1.836243e+00 1.100544e+00 2.413465e+00 1.443217e+00 1.821856e+00 1.641899e+00 1.642981e+00 1.353119e+00 2.178247e-01 7.064230e-02 1.108663e-01 1.593761e-01 2.063403e-01 2.311790e-01 2.208475e-01 4.045784e-01 2.928281e-01 3.578967e-01 2.746790e-01 3.341148e-01 2.336275e-01 2.924069e-02
<GCONST> 9.285638e+01
<STATE> 5
<MEAN> 39
 1.085743e+00 -2.066444e+01 -5.139066e+00 -7.983327e+00 -1.306008e+01 -1.136879e+00 -2.051212e+01 -2.884138e+00 3.351349e+00 -8.264847e+00 1.598497e+00 -5.765707e+00 5.947311e+01 -2.003299e+00 1.077904e+00 -2.130865e-01 1.393120e+00 1.162666e+00 -1.274614e-01 1.318309e+00 -3.199784e-01 -6.263555e-02 5.660799e-01 -8.422623e-01 1.627810e-01 -1.184720e+00 -1.803549e-01 1.214593e-01 -1.228032e-01 -9.442330e-02 9.885997e-02 5.168865e-02 2.340876e-01 2.796502e-02 6.308782e-03 1.795579e-01 6.773332e-02 1.719818e-01 -7.519498e-02
<VARIANCE> 39
 3.297963e+01 3.228049e+01 2.300449e+01 2.890087e+01 3.721458e+01 5.301160e+01 6.046075e+01 2.855728e+01 2.859826e+01 4.538810e+01 3.365298e+01 1.717194e+01 1.030095e+01 1.134377e+00 1.008618e+00 1.062783e+00 8.882878e-01 1.561640e+00 1.653219e+00 2.449347e+00 1.751495e+00 2.002917e+00 1.946708e+00 2.315377e+00 1.988143e+00 3.187217e-01 1.894083e-01 1.430040e-01 2.076644e-01 1.949010e-01 3.058659e-01 3.112711e-01 4.843222e-01 3.116653e-01 3.475748e-01 3.297641e-01 4.596751e-01 3.394271e-01 4.429350e-02
<GCONST> 1.020752e+02
<TRANSP> 6
 0.000000e+00 1.000000e+00 0.000000e+00 0.000000e+00 0.000000e+00 0.000000e+00
 0.000000e+00 7.896507e-01 1.953236e-01 1.502576e-02 0.000000e+00 0.000000e+00
 0.000000e+00 0.000000e+00 9.300760e-01 6.992401e-02 0.000000e+00 0.000000e+00
 0.000000e+00 0.000000e+00 0.000000e+00 9.152200e-01 8.478007e-02 0.000000e+00
 0.000000e+00 0.000000e+00 0.000000e+00 0.000000e+00 8.577175e-01 1.422825e-01
 0.000000e+00 0.000000e+00 0.000000e+00 0.000000e+00 0.000000e+00 0.000000e+00
<ENDHMM>
