~o
<STREAMINFO> 1 39
<VECSIZE> 39<NULLD><MFCC_D_A_0><DIAGC>
~h "nine"
<BEGINHMM>
<NUMSTATES> 6
<STATE> 2
<MEAN> 39
 6.085685e+00 -2.237793e+01 2.381666e+00 -6.743948e+00 -2.068113e+01 -1.810004e+00 -1.841736e+01 -5.102656e+00 1.081418e-01 -1.258454e+01 -8.567929e-01 -3.956157e+00 6.323744e+01 1.475652e+00 -2.225948e+00 -4.892795e-01 -1.021824e+00 1.842656e-01 7.479991e-01 -6.409647e-01 1.172770e+00 8.007654e-01 -3.281634e-01 6.014112e-04 -8.871121e-01 1.700530e+00 -4.251926e-01 1.876374e-01 -1.999292e-01 -7.633181e-03 5.431936e-01 1.996306e-01 1.397502e-01 3.432071e-02 9.549551e-02 2.347180e-01 3.603777e-02 -4.357212e-02 -2.002695e-01
<VARIANCE> 39
 2.763262e+01 6.519342e+01 4.598899e+01 3.383369e+01 3.016166e+01 3.852351e+01 4.586131e+01 8.304361e+01 4.707708e+01 2.608220e+01 4.492804e+01 3.376106e+01 2.704955e+01 2.875551e+00 2.103604e+00 4.162240e+00 1.670441e+00 3.961374e+00 4.288350e+00 4.614229e+00 6.818861e+00 2.734803e+00 1.928928e+00 2.884537e+00 2.091045e+00 9.379228e-01 2.777336e-01 3.380324e-01 7.046182e-01 3.371489e-01 4.597152e-01 7.232353e-01 7.466224e-01 1.292076e+00 5.141380e-01 3.733754e-01 5.217134e-01 4.578943e-01 1.312375e-01
<GCONST> 1.229246e+02
<STATE> 3
<MEAN> 39
 7.298450e+00 -3.144782e+01 -3.433917e+00 -1.312283e+01 -1.198313e+01 6.482861e+00 -2.078928e+01 6.902682e-01 5.279448e+00 -1.114795e+01 3.161727e-01 -9.109548e+00 6.908388e+01 -1.189862e-01 8.650240e-02 1.446891e-01 1.288707e-01 3.569353e-03 -1.999136e-01 -1.330260e-01 2.433107e-01 1.872436e-01 -1.964060e-01 -5.925506e-02 1.431091e-01 -1.139372e-01 -1.615755e-02 1.000472e-01 8.116204e-02 1.208827e-01 -2.817703e-01 -2.534156e-01 1.459112e-01 2.955878e-02 -6.442340e-02 -8.223433e-02 -1.305856e-02 1.785229e-01 -9.468997e-02
<VARIANCE> 39
 6.776403e+00 1.182334e+01 1.813651e+01 1.960507e+01 1.144439e+01 3.886992e+01 2.456917e+01 5.119807e+01 3.252674e+01 3.018981e+01 3.538836e+01 1.870764e+01 4.646303e+00 2.167019e-01 5.845608e-01 8.390584e-01 8.906643e-01 2.088392e+00 1.974218e+00 1.813264e+00 1.896230e+00 1.730954e+00 1.720467e+00 1.408722e+00 1.997910e+00 1.555505e-01 4.176028e-02 1.452309e-01 1.127794e-01 1.226287e-01 2.299079e-01 1.463241e-01 2.864323e-01 3.056798e-01 3.368088e-01 2.578732e-01 2.576777e-01 3.059284e-01 2.621603e-02
<GCONST> 8.681076e+01
<STATE> 4
<MEAN> 39
 5.150396e+00 -2.710434e+01 2.657406e+00 -9.977818e+00 -2.258057e+01 -1.678566e+00 -1.668473e+01 3.594466e+00 5.150784e+00 -1.387106e+01 1.704412e+00 -2.708646e+00 6.543865e+01 -3.515755e-01 9.209166e-01 7.213475e-01 2.411547e-01 -1.066855e+00 -4.167540e-01 5.379419e-01 -6.220553e-01 -6.031480e-01 3.214126e-01 3.470680e-01 2.189377e-01 -6.136235e-01 -5.892747e-02 1.568554e-01 -3.627767e-02 -7.454394e-03 1.766610e-01 1.018933e-01 -1.145890e-01 -2.057726e-01 -1.114785e-01 5.771124e-02 9.625984e-03 -7.486553e-02 -5.408903e-02
<VARIANCE> 39
 7.710835e+00 2.338168e+01 2.006256e+01 1.570720e+01 3.715048e+01 3.398761e+01 2.499435e+01 2.921221e+01 5.149393e+01 3.223154e+01 4.751318e+01 3.968295e+01 8.752610e+00 2.659851e-01 1.091653e+00 5.564709e-01 8.603177e-01 1.129575e+00 1.497364e+00 1.789590e+00 2.632525e+00 1.748469e+00 1.539363e+00 1.802919e+00 1.123444e+00 2.697929e-01 5.409462e-02 1.347938e-01 1.243787e-01 1.436459e-01 1.590629e-01 1.766305e-01 2.259932e-01 4.108409e-01 3.505574e-01 3.244068e-01 2.903916e-01 2.432711e-01 2.963427e-02
<GCONST> 9.073499e+01
<STATE> 5
<MEAN> 39
 -5.282116e-01 -1.351402e+01 4.509294e+00 -4.939065e+00 -2.200402e+01 -5.624943e+00 -1.671367e+01 -7.662105e+00 -2.681172e+00 -1.255857e+01 -9.973940e-01 -2.471475e+00 5.696529e+01 -1.243820e+00 1.206267e+00 -5.361477e-01 6.092211e-01 1.258070e+00 -1.738697e-01 3.554617e-01 -4.426842e-01 -3.335510e-01 2.419201e-01 -4.504279e-01 2.196732e-01 -9.468492e-01 -1.531534e-01 -1.815941e-01 -1.669583e-01 -6.543259e-02 1.598947e-01 7.985992e-02 1.759105e-01 2.688235e-01 1.547117e-01 1.115012e-01 -1.606095e-02 -1.249362e-02 2.382166e-02
<VARIANCE> 39
 1.406318e+01 3.737646e+01 2.587375e+01 2.289383e+01 5.976544e+01 5.905376e+01 3.741234e+01 4.279334e+01 2.938365e+01 2.250365e+01 3.778484e+01 2.740183e+01 1.035607e+01 8.826939e-01 1.034631e+00 1.581884e+00 8.105918e-01 1.516012e+00 1.730069e+00 2.529331e+00 3.421683e+00 2.338200e+00 2.343721e+00 1.877554e+00 2.495106e+00 2.078239e-01 1.052877e-01 1.241150e-01 2.379882e-01 1.775894e-01 2.650194e-01 2.332120e-01 4.669404e-01 6.028638e-01 3.305232e-01 4.380418e-01 3.315357e-01 3.861598e-01 2.492947e-02
<GCONST> 1.013694e+02
<TRANSP> 6
 0.000000e+00 1.000000e+00 0.000000e+00 0.000000e+00 0.000000e+00 0.000000e+00
 0.000000e+00 8.673915e-01 1.326085e-01 0.000000e+00 0.000000e+00 0.000000e+00
 0.000000e+00 0.000000e+00 9.201484e-01 7.985163e-02 0.000000e+00 0.000000e+00
 0.000000e+00 0.000000e+00 0.000000e+00 8.990661e-01 1.009339e-01 0.000000e+00
 0.000000e+00 0.000000e+00 0.000000e+00 0.000000e+00 8.795320e-01 1.204680e-01
 0.000000e+00 0.000000e+00 0.000000e+00 0.000000e+00 0.000000e+00 0.000000e+00
<ENDHMM>
