~o
<STREAMINFO> 1 39
<VECSIZE> 39<NULLD><MFCC_D_A_0><DIAGC>
~h "sil"
<BEGINHMM>
<NUMSTATES> 6
<STATE> 2
<MEAN> 39
 -9.074328e+00 -1.617516e+01 -2.503167e+00 -5.443325e+00 -1.482291e+01 -4.851146e-01 -1.006970e+01 -4.459625e+00 -2.876131e-02 -7.149359e+00 2.550018e-01 -1.087728e+00 5.382535e+01 -5.081430e-01 3.249851e-01 -2.513275e-01 7.327825e-02 4.877160e-01 -2.408759e-02 3.098446e-01 1.347584e-01 9.785150e-03 2.503916e-01 -1.477269e-02 1.154841e-01 -3.162188e-01 -1.547137e-02 1.487735e-02 3.392941e-02 -6.380840e-03 1.655528e-04 2.225298e-02 1.408737e-02 2.913761e-02 -2.730553e-03 1.135756e-02 3.416396e-02 -6.987183e-03 -3.670320e-03
<VARIANCE> 39
 2.854167e+01 4.155785e+01 3.754967e+01 2.311444e+01 5.130167e+01 4.792574e+01 4.068103e+01 3.939931e+01 3.240392e+01 3.385765e+01 3.327628e+01 2.467132e+01 1.246526e+01 1.471104e+00 1.752007e+00 1.632061e+00 1.350516e+00 2.810024e+00 2.226602e+00 2.829993e+00 2.546346e+00 2.327540e+00 2.502808e+00 2.175628e+00 1.967085e+00 5.352938e-01 1.915523e-01 2.809244e-01 2.596844e-01 2.479980e-01 4.454271e-01 3.954323e-01 5.141582e-01 4.562691e-01 4.197641e-01 4.782103e-01 4.092337e-01 3.702289e-01 8.123964e-02
<GCONST> 1.102249e+02
<STATE> 3
<MEAN> 39
 -1.770310e+01 -7.805258e+00 -4.001538e+00 -3.063561e+00 -5.410079e+00 3.865144e-01 -3.595500e+00 -1.297395e+00 1.495706e-01 -1.924298e+00 3.699051e-01 1.310752e-01 4.745774e+01 -7.769363e-01 4.002872e-01 -2.452052e-01 6.796954e-02 4.075973e-01 -1.115272e-02 3.925664e-01 1.529344e-01 -1.266340e-01 2.541392e-01 -3.202305e-02 -1.749783e-02 -3.847784e-01 1.635409e-01 -9.781498e-02 3.762835e-02 -3.278262e-02 -1.420450e-01 -2.892445e-02 -1.482342e-01 -8.435513e-02 -1.864183e-02 -1.020854e-01 -2.564971e-02 -3.207969e-02 9.760969e-02
<VARIANCE> 39
 2.256351e+01 1.292635e+01 1.767393e+01 1.209856e+01 1.563599e+01 2.420769e+01 1.649925e+01 1.849802e+01 2.166623e+01 1.929067e+01 1.757496e+01 1.474753e+01 1.388422e+01 1.666196e+00 9.215214e-01 1.238399e+00 1.112898e+00 1.722871e+00 1.886843e+00 1.907129e+00 2.074222e+00 2.064312e+00 1.974784e+00 1.725620e+00 1.447705e+00 5.545891e-01 2.395379e-01 1.419971e-01 1.897178e-01 1.801562e-01 2.678660e-01 2.922626e-01 3.285506e-01 3.558910e-01 3.558839e-01 3.406083e-01 3.114375e-01 2.555518e-01 7.394056e-02
<GCONST> 9.493761e+01
<STATE> 4
<MEAN> 39
 -2.291687e+01 -5.019027e+00 -7.112895e+00 -3.345349e+00 -4.242522e+00 -2.266946e+00 -2.810632e+00 -1.636570e+00 -1.857034e+00 -1.072930e+00 -1.210941e+00 -7.449123e-01 4.547725e+01 7.361911e-04 -4.296426e-04 -7.871495e-04 3.243968e-03 8.792293e-03 7.073422e-04 1.315016e-03 4.007997e-03 6.069275e-03 -2.504439e-02 -1.990189e-02 7.823803e-03 -7.632222e-04 2.430383e-02 -1.500582e-02 1.001487e-02 4.032245e-03 -7.398161e-03 6.406720e-03 -2.867169e-03 2.048299e-03 1.063580e-02 -1.662011e-03 9.013113e-03 8.384737e-03 1.073145e-02
<VARIANCE> 39
 1.013365e+00 2.276755e+00 4.131330e+00 6.182912e+00 8.145649e+00 1.017388e+01 1.182250e+01 1.312370e+01 1.377298e+01 1.403261e+01 1.322479e+01 1.181492e+01 1.908891e-01 1.145064e-01 2.501458e-01 4.523655e-01 6.847275e-01 9.105539e-01 1.130739e+00 1.257614e+00 1.428915e+00 1.509834e+00 1.521508e+00 1.429468e+00 1.245293e+00 2.130529e-02 3.147737e-02 5.461201e-02 9.334923e-02 1.387742e-01 1.832613e-01 2.254597e-01 2.470417e-01 2.872492e-01 2.995464e-01 3.003016e-01 2.812994e-01 2.439070e-01 6.481491e-03
<GCONST> 6.065397e+01
<STATE> 5
<MEAN> 39
 -1.144276e+01 -1.532286e+01 -1.634149e+00 -4.913046e+00 -1.185992e+01 2.023965e+00 -8.669472e+00 -2.285219e+00 1.706931e+00 -6.133783e+00 1.304888e+00 -5.474327e-01 5.285206e+01 1.103187e+00 -7.737778e-01 4.211697e-01 -2.777795e-01 -8.545579e-01 1.359319e-01 -5.748092e-01 -1.280694e-01 1.914047e-01 -3.689186e-01 1.905436e-01 -2.162807e-02 7.364618e-01 1.324919e-01 -5.099850e-02 3.391504e-02 -7.395732e-02 -9.663112e-02 -4.174932e-02 -8.132909e-02 -9.356411e-03 -1.157251e-02 -2.768245e-02 1.340821e-02 -2.012275e-02 9.480766e-02
<VARIANCE> 39
 4.907254e+01 5.279769e+01 2.896171e+01 2.240641e+01 5.569341e+01 3.571724e+01 4.098022e+01 3.134082e+01 2.670723e+01 3.246449e+01 2.270207e+01 2.039880e+01 3.043084e+01 3.234101e+00 2.099360e+00 1.690569e+00 2.050153e+00 3.161001e+00 2.553094e+00 3.232089e+00 2.473449e+00 2.288929e+00 2.370395e+00 2.133336e+00 1.890172e+00 1.376901e+00 4.364822e-01 3.220519e-01 2.802308e-01 3.201121e-01 4.985501e-01 4.394106e-01 5.608050e-01 4.619468e-01 4.383676e-01 4.279997e-01 4.108951e-01 3.745621e-01 1.759646e-01
<GCONST> 1.152903e+02
<TRANSP> 6
 0.000000e+00 4.713803e-01 5.286197e-01 0.000000e+00 0.000000e+00 0.000000e+00
 0.000000e+00 9.451366e-01 5.486342e-02 0.000000e+00 0.000000e+00 0.000000e+00
 0.000000e+00 0.000000e+00 8.083851e-01 1.882009e-01 3.413978e-03 0.000000e+00
 0.000000e+00 0.000000e+00 0.000000e+00 9.521599e-01 2.316879e-02 2.467131e-02
 0.000000e+00 0.000000e+00 0.000000e+00 0.000000e+00 9.493008e-01 5.069925e-02
 0.000000e+00 0.000000e+00 0.000000e+00 0.000000e+00 0.000000e+00 0.000000e+00
<ENDHMM>
