~o
<STREAMINFO> 1 39
<VECSIZE> 39<NULLD><MFCC_D_A_0><DIAGC>
~h "two"
<BEGINHMM>
<NUMSTATES> 6
<STATE> 2
<MEAN> 39
 2.374196e+00 -2.564153e+01 1.089490e+01 -5.806018e+00 -2.504844e+01 -2.470152e+00 -1.794766e+01 -5.823327e+00 2.783599e-01 -1.123863e+01 3.829880e+00 -1.915483e+00 6.541144e+01 1.675014e+00 1.786286e-01 1.113022e+00 -4.062702e-01 -7.952747e-01 -1.407488e+00 -1.673735e+00 -5.450691e-01 -8.700141e-01 -4.689787e-01 1.827591e-01 -6.213481e-01 1.209383e+00 -2.208591e-01 1.468652e-01 -2.292979e-01 -5.260095e-02 2.159104e-01 1.237106e-01 1.386192e-01 9.065496e-02 3.558670e-02 1.640842e-01 5.036454e-02 -1.118053e-01 -1.478288e-01
<VARIANCE> 39
 3.444082e+01 2.008811e+01 2.581735e+01 2.722596e+01 3.209624e+01 5.472047e+01 6.337285e+01 4.334031e+01 2.559207e+01 5.231289e+01 2.667019e+01 4.782233e+01 1.191352e+01 1.738132e+00 2.544969e+00 2.174450e+00 2.513140e+00 2.003030e+00 2.936120e+00 4.080534e+00 3.862232e+00 2.877230e+00 2.709472e+00 2.678581e+00 2.987579e+00 8.318262e-01 4.484706e-01 4.659000e-01 3.227003e-01 3.566082e-01 4.069065e-01 5.957932e-01 6.891329e-01 6.808721e-01 5.389251e-01 5.071519e-01 4.921965e-01 5.360228e-01 1.979776e-01
<GCONST> 1.185020e+02
<STATE> 3
<MEAN> 39
 8.779608e+00 -2.411946e+01 1.039257e+01 -6.710398e+00 -2.485117e+01 -7.841964e+00 -2.595090e+01 -8.315557e+00 -3.389920e+00 -1.199529e+01 6.632411e+00 -4.398372e+00 6.879372e+01 1.443951e-01 9.698752e-02 -5.205941e-01 -1.915484e-01 4.648591e-01 2.627102e-01 -3.291817e-01 -3.659568e-01 -1.258832e-01 2.462822e-01 2.566017e-01 -1.950744e-02 -1.573354e-01 -2.925860e-02 2.935717e-02 -4.481265e-02 -4.037085e-03 4.502868e-02 7.152245e-02 1.264606e-02 -5.932196e-02 1.481595e-02 -1.727835e-02 -2.041819e-02 8.725333e-02 -8.631096e-02
<VARIANCE> 39
 7.190739e+00 8.717731e+00 1.291231e+01 1.584981e+01 3.398206e+01 3.943282e+01 6.105470e+01 5.456456e+01 1.775796e+01 3.496837e+01 2.542966e+01 3.960630e+01 3.542769e+00 2.402879e-01 4.733196e-01 5.043734e-01 5.597753e-01 6.403543e-01 1.206835e+00 1.497986e+00 1.971879e+00 1.100987e+00 1.278799e+00 9.767863e-01 1.799904e+00 1.314722e-01 6.465355e-02 8.795412e-02 1.146305e-01 1.147391e-01 1.036190e-01 2.035556e-01 2.426841e-01 2.818458e-01 1.543778e-01 2.436436e-01 1.761830e-01 2.774259e-01 2.859547e-02
<GCONST> 8.142822e+01
<STATE> 4
<MEAN> 39
 1.011658e+01 -2.140758e+01 4.816570e+00 -1.282393e+01 -2.017676e+01 -1.347740e+00 -2.851755e+01 -1.130017e+01 -4.848933e+00 -1.075977e+01 9.225265e+00 -4.104548e+00 6.557427e+01 -7.512052e-02 5.217439e-01 -2.860450e-01 -4.348705e-01 2.952159e-01 7.707024e-01 1.724985e-01 -3.233919e-02 -6.284077e-01 -4.291260e-01 6.323081e-02 -4.431292e-02 -6.266332e-01 -1.365094e-01 8.590937e-02 1.737858e-02 1.864817e-01 -3.685855e-02 -1.614449e-02 2.899274e-01 1.623991e-01 7.430229e-02 1.470996e-02 -1.293527e-01 -2.382514e-02 -8.113059e-02
<VARIANCE> 39
 4.142394e+00 1.727396e+01 2.325630e+01 2.064039e+01 1.655341e+01 2.376998e+01 2.268624e+01 4.175220e+01 6.641248e+01 3.313808e+01 3.611720e+01 1.745940e+01 9.245917e+00 2.685581e-01 5.765218e-01 1.041145e+00 8.120952e-01 8.978171e-01 1.351086e+00 1.903737e+00 2.241835e+00 2.337101e+00 1.160179e+00 2.327918e+00 1.614697e+00 2.256066e-01 7.404204e-02 1.238149e-01 1.734215e-01 1.398396e-01 1.674584e-01 2.411909e-01 2.631635e-01 3.744007e-01 3.430774e-01 1.999122e-01 3.551123e-01 3.177479e-01 2.577414e-02
<GCONST> 8.930322e+01
<STATE> 5
<MEAN> 39
 3.529078e+00 -1.315590e+01 2.763845e+00 -9.973883e+00 -1.725660e+01 2.251830e+00 -1.849606e+01 -9.313725e+00 -7.288796e+00 -1.251305e+01 3.608493e+00 -3.840246e+00 5.807817e+01 -1.895513e+00 9.757345e-01 -9.055361e-01 7.140450e-01 8.594670e-01 -1.787317e-01 1.896230e+00 7.061128e-01 7.568852e-01 8.208278e-01 -8.427080e-01 4.396269e-01 -9.952552e-01 -1.964845e-01 -8.350804e-02 -1.015370e-01 3.819494e-02 1.740824e-01 -1.442954e-01 -4.396211e-02 -4.803844e-03 1.186213e-01 7.584168e-02 -1.781662e-02 9.175463e-02 1.403226e-02
<VARIANCE> 39
 2.637511e+01 3.263318e+01 3.277231e+01 3.119423e+01 3.430115e+01 2.331827e+01 4.976558e+01 3.441121e+01 2.699621e+01 3.549879e+01 4.168368e+01 2.767978e+01 1.044880e+01 1.460823e+00 8.892546e-01 1.552880e+00 1.476633e+00 1.663437e+00 1.723472e+00 2.648370e+00 2.285238e+00 1.525993e+00 2.408194e+00 2.510677e+00 1.493368e+00 2.912662e-01 2.040029e-01 1.339173e-01 2.723976e-01 2.582199e-01 2.337870e-01 3.852839e-01 5.585564e-01 3.747717e-01 2.901806e-01 4.454252e-01 4.457687e-01 2.413850e-01 3.150809e-02
<GCONST> 1.031338e+02
<TRANSP> 6
 0.000000e+00 1.000000e+00 0.000000e+00 0.000000e+00 0.000000e+00 0.000000e+00
 0.000000e+00 8.595455e-01 1.404545e-01 0.000000e+00 0.000000e+00 0.000000e+00
 0.000000e+00 0.000000e+00 9.068879e-01 9.311205e-02 0.000000e+00 0.000000e+00
 0.000000e+00 0.000000e+00 0.000000e+00 8.780808e-01 1.219192e-01 0.000000e+00
 0.000000e+00 0.000000e+00 0.000000e+00 0.000000e+00 8.640363e-01 1.359638e-01
 0.000000e+00 0.000000e+00 0.000000e+00 0.000000e+00 0.000000e+00 0.000000e+00
<ENDHMM>
