~o
<STREAMINFO> 1 39
<VECSIZE> 39<NULLD><MFCC_D_A_0><DIAGC>
~h "two"
<BEGINHMM>
<NUMSTATES> 6
<STATE> 2
<MEAN> 39
 2.427501e+00 -2.561336e+01 1.092937e+01 -5.749488e+00 -2.516548e+01 -2.678351e+00 -1.791041e+01 -5.811828e+00 2.304407e-01 -1.123665e+01 3.927644e+00 -1.815289e+00 6.551763e+01 1.639403e+00 1.559812e-01 1.098670e+00 -4.106544e-01 -8.063827e-01 -1.370041e+00 -1.616300e+00 -5.247098e-01 -8.509474e-01 -4.777563e-01 1.683263e-01 -6.005856e-01 1.196002e+00 -2.222838e-01 1.453031e-01 -2.312028e-01 -5.342781e-02 2.135984e-01 1.414881e-01 1.440249e-01 8.491827e-02 3.861538e-02 1.622871e-01 3.629332e-02 -1.079845e-01 -1.526364e-01
<VARIANCE> 39
 3.390591e+01 1.983448e+01 2.566328e+01 2.735771e+01 3.243277e+01 5.633904e+01 6.262304e+01 4.399083e+01 2.528667e+01 5.272353e+01 2.725990e+01 4.730453e+01 1.229326e+01 1.778640e+00 2.532889e+00 2.147737e+00 2.481956e+00 1.982992e+00 2.964532e+00 4.215427e+00 3.829452e+00 2.847826e+00 2.660483e+00 2.643501e+00 2.959593e+00 8.280380e-01 4.410928e-01 4.584499e-01 3.189628e-01 3.499745e-01 4.034017e-01 6.024951e-01 6.795383e-01 6.902600e-01 5.300468e-01 4.985750e-01 5.073791e-01 5.266355e-01 1.957307e-01
<GCONST> 1.184213e+02
<STATE> 3
<MEAN> 39
 8.911062e+00 -2.414018e+01 1.040467e+01 -6.903428e+00 -2.482001e+01 -7.628446e+00 -2.601307e+01 -8.419483e+00 -3.513665e+00 -1.207715e+01 6.699562e+00 -4.466150e+00 6.876867e+01 1.581915e-01 1.074353e-01 -5.545622e-01 -1.806144e-01 4.910430e-01 2.100714e-01 -3.400439e-01 -3.145884e-01 -1.328191e-01 2.562570e-01 2.970940e-01 -2.893802e-02 -1.532168e-01 -3.449528e-02 3.893058e-02 -4.292461e-02 4.151411e-03 4.673631e-02 5.623671e-02 6.777820e-03 -4.484759e-02 3.440492e-02 -1.466265e-02 -2.079580e-02 9.082820e-02 -7.764234e-02
<VARIANCE> 39
 7.816178e+00 8.795289e+00 1.257292e+01 1.661718e+01 3.359727e+01 4.064079e+01 5.998273e+01 5.557332e+01 1.813834e+01 3.457310e+01 2.490041e+01 3.944471e+01 3.516056e+00 2.414827e-01 4.593084e-01 4.992469e-01 5.432199e-01 5.939991e-01 1.209075e+00 1.464267e+00 2.119748e+00 1.096422e+00 1.286877e+00 9.823759e-01 1.791615e+00 1.243354e-01 6.668907e-02 9.322280e-02 1.126067e-01 1.136471e-01 1.017154e-01 1.918842e-01 2.419656e-01 2.732914e-01 1.404056e-01 2.459309e-01 1.619879e-01 2.833586e-01 2.777162e-02
<GCONST> 8.116882e+01
<STATE> 4
<MEAN> 39
 9.952889e+00 -2.148112e+01 4.852797e+00 -1.260735e+01 -2.024221e+01 -1.708393e+00 -2.857003e+01 -1.128691e+01 -4.478559e+00 -1.048161e+01 9.132899e+00 -4.045671e+00 6.573409e+01 -3.056942e-02 4.875859e-01 -2.256577e-01 -5.152670e-01 2.813250e-01 8.073404e-01 2.408881e-02 -1.665205e-01 -6.450992e-01 -4.578827e-01 6.433739e-02 -2.016099e-02 -6.261578e-01 -9.729421e-02 6.137044e-02 3.816323e-02 1.529945e-01 -6.138552e-02 7.021748e-03 2.561304e-01 1.490508e-01 3.498093e-02 -1.526318e-02 -1.111363e-01 -3.094414e-02 -8.520778e-02
<VARIANCE> 39
 3.680641e+00 1.731471e+01 2.263735e+01 2.201056e+01 1.585477e+01 2.470592e+01 2.364602e+01 4.186378e+01 6.854208e+01 3.259771e+01 3.778558e+01 1.604428e+01 9.046969e+00 2.225589e-01 5.662718e-01 1.026084e+00 7.536514e-01 9.329112e-01 1.290412e+00 1.680177e+00 2.089841e+00 2.457102e+00 1.147771e+00 2.330246e+00 1.661548e+00 2.191148e-01 6.031684e-02 1.201825e-01 1.759077e-01 1.423603e-01 1.565628e-01 2.288543e-01 2.505267e-01 3.988386e-01 3.742946e-01 1.741323e-01 3.607982e-01 3.203916e-01 2.518225e-02
<GCONST> 8.840170e+01
<STATE> 5
<MEAN> 39
 3.968662e+00 -1.356901e+01 2.815236e+00 -1.014798e+01 -1.731593e+01 2.181863e+00 -1.913130e+01 -9.349829e+00 -7.350938e+00 -1.258941e+01 3.899503e+00 -3.958106e+00 5.838051e+01 -1.838807e+00 9.858615e-01 -8.962167e-01 7.170973e-01 8.351839e-01 -9.443912e-02 1.920005e+00 7.073653e-01 6.945662e-01 7.817520e-01 -8.279693e-01 3.897732e-01 -9.875431e-01 -2.196813e-01 -6.251206e-02 -1.127626e-01 7.025051e-02 1.827243e-01 -1.557670e-01 9.766396e-03 1.124931e-03 1.249990e-01 9.676746e-02 -2.993131e-02 8.705007e-02 5.995933e-03
<VARIANCE> 39
 2.785238e+01 3.396588e+01 3.253670e+01 3.058181e+01 3.338911e+01 2.270331e+01 5.355466e+01 3.330175e+01 2.649206e+01 3.496983e+01 4.214000e+01 2.857811e+01 1.152683e+01 1.424107e+00 8.511894e-01 1.505400e+00 1.411824e+00 1.592120e+00 1.798702e+00 2.541379e+00 2.237700e+00 1.529328e+00 2.345261e+00 2.445836e+00 1.520000e+00 2.806011e-01 2.036188e-01 1.360990e-01 2.608402e-01 2.615745e-01 2.338084e-01 3.852459e-01 5.786363e-01 3.550571e-01 2.832011e-01 4.528012e-01 4.396493e-01 2.394987e-01 3.235631e-02
<GCONST> 1.029788e+02
<TRANSP> 6
 0.000000e+00 1.000000e+00 0.000000e+00 0.000000e+00 0.000000e+00 0.000000e+00
 0.000000e+00 8.620690e-01 1.379310e-01 0.000000e+00 0.000000e+00 0.000000e+00
 0.000000e+00 0.000000e+00 9.055118e-01 9.448820e-02 0.000000e+00 0.000000e+00
 0.000000e+00 0.000000e+00 0.000000e+00 8.709677e-01 1.290323e-01 0.000000e+00
 0.000000e+00 0.000000e+00 0.000000e+00 0.000000e+00 8.723404e-01 1.276596e-01
 0.000000e+00 0.000000e+00 0.000000e+00 0.000000e+00 0.000000e+00 0.000000e+00
<ENDHMM>
