~o
<STREAMINFO> 1 39
<VECSIZE> 39<NULLD><MFCC_D_A_0><DIAGC>
~h "zero"
<BEGINHMM>
<NUMSTATES> 6
<STATE> 2
<MEAN> 39
 2.249680e+00 -1.936240e+01 1.240941e+01 -5.596156e+00 -2.507139e+01 -5.803840e+00 -2.118773e+01 -7.708156e+00 -1.581964e+00 -1.026820e+01 3.841864e+00 -2.555696e+00 6.348999e+01 1.071691e+00 -7.970636e-01 4.812519e-01 -6.414804e-02 -7.443432e-01 -9.088916e-01 -3.552698e-01 1.408243e-01 -5.190359e-01 8.154429e-02 6.400658e-01 -2.143024e-01 1.058703e+00 -2.144075e-01 2.732567e-03 -3.275956e-01 -4.897739e-02 3.256082e-01 1.590060e-01 1.965870e-01 2.273925e-01 9.396182e-02 5.880657e-02 -7.623453e-03 2.335652e-02 -1.572432e-01
<VARIANCE> 39
 2.557285e+01 5.905782e+01 3.223669e+01 2.189267e+01 5.137453e+01 4.316841e+01 5.736585e+01 3.660587e+01 4.365610e+01 5.674632e+01 4.039051e+01 3.148707e+01 3.588482e+01 2.647968e+00 1.443985e+00 2.386250e+00 1.067200e+00 2.583981e+00 3.921053e+00 7.211040e+00 4.384106e+00 2.707526e+00 3.243662e+00 3.260224e+00 1.740879e+00 8.611829e-01 4.646538e-01 1.730761e-01 2.911291e-01 2.088443e-01 4.094357e-01 6.046715e-01 1.069891e+00 6.738349e-01 5.243762e-01 5.156357e-01 5.576956e-01 3.372186e-01 1.134550e-01
<GCONST> 1.190595e+02
<STATE> 3
<MEAN> 39
 9.243816e+00 -2.601186e+01 6.079233e+00 -9.058438e+00 -2.086061e+01 -7.405382e+00 -2.546591e+01 -1.370376e+00 7.630863e-01 -9.141156e+00 8.281308e+00 -3.522879e+00 6.917366e+01 2.212293e-01 -2.362239e-01 -9.904529e-01 -6.957109e-01 1.157296e+00 7.856652e-01 -6.697281e-01 4.536497e-01 9.051853e-01 2.372564e-01 -2.267368e-02 -3.562225e-01 8.451618e-02 -4.247883e-02 1.016903e-01 5.364708e-02 -1.793370e-02 -1.085513e-01 7.635193e-02 1.540434e-01 -6.076028e-02 2.865271e-02 3.807953e-02 -1.362973e-01 -8.144758e-02 -1.244804e-02
<VARIANCE> 39
 5.558259e+00 1.844060e+01 2.881974e+01 1.985136e+01 2.554959e+01 4.847548e+01 5.153507e+01 2.883646e+01 4.745181e+01 4.328080e+01 2.401521e+01 1.899479e+01 6.661053e+00 4.544480e-01 8.572652e-01 2.333912e+00 1.077134e+00 1.428471e+00 2.961330e+00 3.642517e+00 2.782494e+00 2.635858e+00 2.383916e+00 2.185750e+00 2.142979e+00 3.259780e-01 7.388902e-02 1.622028e-01 3.517098e-01 1.627116e-01 2.468070e-01 5.224012e-01 7.997648e-01 6.501420e-01 5.223427e-01 4.936214e-01 4.272178e-01 4.085621e-01 6.887100e-02
<GCONST> 1.029633e+02
<STATE> 4
<MEAN> 39
 9.545016e+00 -2.598028e+01 -1.469687e+00 -1.616588e+01 -1.801009e+01 3.019100e+00 -2.124036e+01 -1.414633e+00 4.164240e+00 -6.986378e+00 7.018268e+00 -5.916879e+00 6.843779e+01 -8.091083e-02 2.932424e-01 -2.190944e-01 -2.137572e-01 -2.695786e-01 3.460430e-01 3.541224e-01 -3.235114e-01 -2.691607e-01 -1.008283e-01 9.328334e-03 1.874280e-01 -3.813302e-01 -5.384735e-02 6.597089e-02 2.317119e-02 8.727664e-02 -1.435412e-03 -4.816737e-02 6.992621e-04 -1.273552e-01 -1.184885e-01 -2.622144e-02 5.839114e-03 7.879880e-02 -6.525385e-02
<VARIANCE> 39
 1.010987e+01 2.974155e+01 3.196860e+01 1.874515e+01 2.053194e+01 4.628348e+01 5.367313e+01 5.980703e+01 4.381057e+01 2.416969e+01 3.589999e+01 3.477555e+01 1.180743e+01 2.955831e-01 7.459402e-01 9.683554e-01 7.329823e-01 1.009028e+00 1.577864e+00 1.995403e+00 2.365753e+00 1.799624e+00 1.558262e+00 1.647196e+00 1.650826e+00 3.224303e-01 5.039258e-02 1.224890e-01 1.327047e-01 1.444301e-01 1.785569e-01 2.722595e-01 3.291742e-01 2.755911e-01 2.638983e-01 2.304674e-01 3.027713e-01 2.427912e-01 2.839546e-02
<GCONST> 9.289728e+01
<STATE> 5
<MEAN> 39
 1.127585e+00 -1.511469e+01 -8.635663e-01 -1.022140e+01 -1.611807e+01 4.540399e+00 -1.307548e+01 -7.461162e+00 -3.662005e+00 -9.256911e+00 3.150308e+00 -4.056993e+00 5.743475e+01 -1.505070e+00 8.276250e-01 -3.691295e-01 9.932209e-01 9.249116e-01 -1.456679e-01 1.400701e+00 -1.378502e-01 -2.931536e-01 3.315817e-01 -7.351658e-01 1.577616e-01 -9.943433e-01 -7.151140e-02 -8.678777e-02 -2.554368e-02 1.134871e-02 9.947147e-02 -4.527936e-03 6.185132e-02 1.675811e-01 9.573206e-02 5.770807e-02 -2.773272e-02 2.557919e-03 2.017605e-02
<VARIANCE> 39
 5.581175e+01 2.985163e+01 6.025216e+01 5.194985e+01 2.694556e+01 2.892507e+01 3.499218e+01 4.328870e+01 3.015617e+01 5.031004e+01 4.906838e+01 2.450474e+01 1.477902e+01 9.140694e-01 1.325432e+00 1.873428e+00 1.759834e+00 1.469584e+00 1.389776e+00 1.852381e+00 2.009177e+00 2.228463e+00 2.397793e+00 2.492616e+00 1.796433e+00 4.391180e-01 1.378623e-01 1.966495e-01 3.074859e-01 2.333092e-01 2.750157e-01 2.141620e-01 3.153112e-01 2.683369e-01 3.597913e-01 3.873706e-01 3.990614e-01 3.052301e-01 4.732085e-02
<GCONST> 1.053299e+02
<TRANSP> 6
 0.000000e+00 1.000000e+00 0.000000e+00 0.000000e+00 0.000000e+00 0.000000e+00
 0.000000e+00 9.007092e-01 9.929077e-02 0.000000e+00 0.000000e+00 0.000000e+00
 0.000000e+00 0.000000e+00 9.000000e-01 9.999999e-02 0.000000e+00 0.000000e+00
 0.000000e+00 0.000000e+00 0.000000e+00 9.414226e-01 5.857741e-02 0.000000e+00
 0.000000e+00 0.000000e+00 0.000000e+00 0.000000e+00 8.970588e-01 1.029412e-01
 0.000000e+00 0.000000e+00 0.000000e+00 0.000000e+00 0.000000e+00 0.000000e+00
<ENDHMM>
