~o
<STREAMINFO> 1 39
<VECSIZE> 39<NULLD><MFCC_D_A_0><DIAGC>
~h "six"
<BEGINHMM>
<NUMSTATES> 6
<STATE> 2
<MEAN> 39
 5.731919e-01 -2.200877e+01 2.888674e+00 -5.188985e+00 -2.399788e+01 -3.213664e+00 -1.193225e+01 -7.741493e+00 7.097153e-01 -7.981065e+00 9.207392e-01 8.175336e-01 6.151179e+01 2.118090e+00 -5.506421e-01 6.738177e-02 -4.244856e-01 -1.732877e+00 -1.705153e+00 -1.864824e-01 -5.202215e-01 5.655131e-02 3.717468e-01 -1.734323e-01 4.148341e-01 1.609299e+00 -4.512269e-01 -2.758495e-02 -1.096989e-01 1.462592e-01 9.948328e-02 1.767262e-01 4.620406e-01 1.410553e-01 7.148044e-02 1.912162e-01 3.005549e-02 -4.368412e-02 -1.090069e-01
<VARIANCE> 39
 8.723697e+01 7.605949e+01 2.965083e+01 2.971910e+01 7.075866e+01 8.506220e+01 4.144513e+01 4.795627e+01 3.297792e+01 4.334117e+01 2.730743e+01 3.038696e+01 4.609751e+01 4.423840e+00 1.336833e+00 2.389518e+00 2.766060e+00 2.161004e+00 6.561967e+00 4.642182e+00 3.737379e+00 4.269699e+00 5.042625e+00 2.651255e+00 2.744009e+00 1.220937e+00 8.983805e-01 2.123143e-01 2.716332e-01 4.113423e-01 4.362612e-01 1.019809e+00 8.199921e-01 7.688931e-01 6.046810e-01 4.644763e-01 5.073339e-01 4.925396e-01 1.627160e-01
<GCONST> 1.262056e+02
<STATE> 3
<MEAN> 39
 6.588922e+00 -2.847638e+01 4.731058e+00 -9.063122e+00 -3.265769e+01 -6.263429e+00 -8.051164e+00 -2.712745e+00 3.118801e+00 -5.216509e+00 3.299125e+00 -5.823750e-01 7.086727e+01 -5.427584e-01 -7.475094e-02 5.956656e-01 -3.143729e-01 -2.266707e-01 3.506770e-01 4.518492e-01 7.021762e-01 -2.435084e-01 -2.118364e-01 4.524414e-01 -5.904338e-01 5.912831e-02 -2.188071e-01 1.511115e-01 1.817605e-01 5.350684e-02 2.370147e-01 2.051796e-01 -3.166705e-01 -9.256694e-02 -2.100789e-01 -3.592816e-01 2.136433e-03 -8.229213e-03 -3.717358e-01
<VARIANCE> 39
 1.283884e+01 1.138863e+01 4.037449e+01 6.354440e+01 2.545928e+01 1.517779e+02 4.650628e+01 7.790344e+01 3.870538e+01 9.792318e+01 3.595105e+01 3.786433e+01 4.722002e+00 4.618514e-01 5.678251e-01 1.934334e+00 1.638008e+00 1.174580e+00 2.252573e+00 4.633033e+00 4.100593e+00 2.076070e+00 5.286798e+00 2.843569e+00 2.749664e+00 5.382658e-01 1.430786e-01 8.526113e-02 3.391942e-01 3.337183e-01 3.078244e-01 5.425868e-01 5.965821e-01 6.775078e-01 2.904660e-01 1.038399e+00 4.442388e-01 6.343981e-01 6.276204e-02
<GCONST> 1.110263e+02
<STATE> 4
<MEAN> 39
 1.568016e+00 -2.658842e+01 8.602901e+00 -8.012489e+00 -3.141967e+01 -5.319171e+00 -1.095297e+01 -2.764212e+00 -2.550747e-01 -8.553383e+00 4.328226e+00 -1.602366e+00 6.504604e+01 -1.460722e+00 7.452664e-01 -1.988408e-01 9.243625e-01 1.008658e+00 6.602288e-01 1.074055e-01 7.274796e-02 -3.515453e-01 -3.298292e-01 -3.688920e-01 2.983293e-02 -2.020452e+00 -3.025391e-01 2.789732e-01 -5.471553e-01 1.164483e-01 4.043675e-01 -1.509648e-02 2.992361e-01 2.002069e-01 3.566725e-01 3.716750e-01 -9.030527e-02 1.235429e-01 -1.918695e-01
<VARIANCE> 39
 1.580266e+01 1.001040e+01 1.503078e+01 4.617194e+01 3.253844e+01 1.057712e+02 6.194091e+01 6.512600e+01 8.280997e+01 3.907711e+01 4.014242e+01 2.054829e+01 1.393357e+01 8.450928e-01 6.544051e-01 1.636656e+00 9.932248e-01 2.292140e+00 2.431861e+00 2.659591e+00 1.993781e+00 2.914523e+00 3.783976e+00 1.999620e+00 2.145749e+00 2.690740e-01 1.572803e-01 2.417814e-01 2.377847e-01 3.680644e-01 4.459110e-01 4.180819e-01 5.680919e-01 4.144058e-01 5.714261e-01 5.878426e-01 4.567026e-01 5.238148e-01 1.012429e-01
<GCONST> 1.093424e+02
<STATE> 5
<MEAN> 39
 -6.815491e+00 -2.086237e+01 1.961541e+00 -3.231738e+00 -2.285467e+01 -4.686105e+00 -8.983150e+00 -1.114944e+00 3.647142e-01 -8.082158e+00 3.092715e+00 2.176643e-01 5.662343e+01 -2.101088e+00 1.729646e+00 -1.668403e+00 3.992017e-01 2.294760e+00 -1.137373e-01 3.786313e-01 4.666935e-01 5.955719e-01 6.770921e-01 -2.903016e-01 7.302982e-01 -1.576817e+00 2.086036e-01 -1.651530e-01 -8.701025e-02 -1.106637e-01 2.463289e-02 -1.243070e-01 -1.290020e-01 -1.484780e-01 -1.373368e-02 1.005283e-01 -1.166531e-02 7.386580e-02 2.299643e-01
<VARIANCE> 39
 1.656053e+01 4.055801e+01 2.534173e+01 2.795665e+01 5.202559e+01 7.716283e+01 5.946867e+01 3.885649e+01 6.654398e+01 4.391693e+01 2.827787e+01 2.832681e+01 1.044240e+01 2.521865e+00 5.283199e+00 2.569230e+00 2.871148e+00 6.537876e+00 3.582483e+00 3.353538e+00 3.428424e+00 4.535043e+00 3.979063e+00 2.542018e+00 2.464382e+00 1.956811e+00 4.294905e-01 9.996192e-01 3.526266e-01 3.704755e-01 1.364459e+00 7.065520e-01 6.953582e-01 3.805552e-01 7.906453e-01 8.684995e-01 3.285834e-01 4.391184e-01 2.783314e-01
<GCONST> 1.255500e+02
<TRANSP> 6
 0.000000e+00 1.000000e+00 0.000000e+00 0.000000e+00 0.000000e+00 0.000000e+00
 0.000000e+00 8.241758e-01 1.758242e-01 0.000000e+00 0.000000e+00 0.000000e+00
 0.000000e+00 0.000000e+00 8.532110e-01 1.467890e-01 0.000000e+00 0.000000e+00
 0.000000e+00 0.000000e+00 0.000000e+00 7.808219e-01 2.191781e-01 0.000000e+00
 0.000000e+00 0.000000e+00 0.000000e+00 0.000000e+00 7.419355e-01 2.580645e-01
 0.000000e+00 0.000000e+00 0.000000e+00 0.000000e+00 0.000000e+00 0.000000e+00
<ENDHMM>
