~o
<STREAMINFO> 1 39
<VECSIZE> 39<NULLD><MFCC_D_A_0><DIAGC>
~h "one"
<BEGINHMM>
<NUMSTATES> 6
<STATE> 2
<MEAN> 39
 6.564456e+00 -1.530776e+01 2.227716e+00 -1.866373e+01 -2.725142e+01 -1.184545e+00 -1.630207e+01 -6.522714e-01 1.325178e+00 -1.088346e+01 3.554620e+00 -3.621566e+00 6.143516e+01 1.513571e+00 -1.397889e+00 -2.567952e-01 -1.578106e+00 -6.219605e-01 1.052882e+00 3.004118e-01 8.099173e-01 2.293725e-01 -3.469828e-01 5.351974e-01 -1.719586e-02 1.503255e+00 -4.919585e-01 -1.417609e-01 -2.485468e-01 3.342390e-01 6.547140e-01 3.807507e-01 3.501340e-01 -1.065835e-01 -5.265743e-02 1.011066e-01 5.968030e-03 1.486216e-01 -9.225747e-02
<VARIANCE> 39
 1.876952e+01 3.759660e+01 4.418830e+01 4.322348e+01 2.688214e+01 2.897581e+01 6.567216e+01 4.062931e+01 2.824358e+01 2.386215e+01 2.978109e+01 2.019166e+01 2.403402e+01 3.548446e+00 1.519283e+00 3.614959e+00 2.751659e+00 5.442634e+00 3.219489e+00 6.025588e+00 3.028567e+00 2.944492e+00 2.612971e+00 2.747277e+00 2.292553e+00 4.152537e-01 4.105420e-01 2.495855e-01 3.471388e-01 5.889701e-01 4.374449e-01 3.640788e-01 7.801872e-01 8.186417e-01 5.684251e-01 4.280869e-01 4.323316e-01 4.505574e-01 6.933549e-02
<GCONST> 1.173124e+02
<STATE> 3
<MEAN> 39
 7.869500e+00 -2.862375e+01 -5.026561e+00 -1.865895e+01 -1.477767e+01 1.349541e+01 -1.290134e+01 -1.840015e+00 2.503459e+00 -1.116246e+01 4.060899e+00 -3.271591e+00 7.022550e+01 -1.215690e-01 -5.996860e-01 -3.820321e-01 6.785418e-01 7.909453e-01 1.807510e-01 -3.740373e-01 -4.197175e-01 2.269744e-01 -5.037752e-02 -3.361991e-01 1.336608e-02 8.201282e-02 -1.407535e-02 1.441917e-01 1.350474e-01 5.471853e-02 -2.288828e-01 -3.358463e-01 -1.093043e-01 1.069221e-01 7.303701e-02 -1.797982e-02 -7.723103e-02 -1.238539e-02 -1.177138e-01
<VARIANCE> 39
 3.908131e+00 1.479789e+01 3.957122e+01 5.421165e+01 5.864680e+01 3.059257e+01 3.959891e+01 4.564293e+01 2.293854e+01 3.241810e+01 3.141782e+01 3.007907e+01 1.111991e+01 1.842593e-01 6.733851e-01 1.233281e+00 1.486784e+00 2.061869e+00 3.554141e+00 2.637258e+00 2.698262e+00 1.668270e+00 2.822431e+00 2.205256e+00 2.285818e+00 2.352789e-01 3.438446e-02 8.960079e-02 2.209889e-01 2.482268e-01 1.725437e-01 2.768665e-01 3.492211e-01 4.072254e-01 2.817906e-01 5.061172e-01 3.285703e-01 4.048505e-01 3.001788e-02
<GCONST> 9.731451e+01
<STATE> 4
<MEAN> 39
 6.761466e+00 -2.892432e+01 -2.778264e+00 -1.314540e+01 -1.919461e+01 3.078185e+00 -1.785334e+01 -1.357503e+00 3.341672e+00 -1.347950e+01 1.565544e+00 -2.250026e+00 6.671218e+01 -5.554798e-01 9.992030e-01 1.410135e+00 9.242342e-01 -1.118107e+00 -1.406290e+00 -7.070329e-01 -4.032334e-01 -5.644563e-01 8.957502e-03 -9.639052e-02 -4.161435e-01 -1.033694e+00 -1.771000e-01 3.269724e-01 9.546169e-02 1.798973e-01 2.032814e-01 1.533728e-01 5.447210e-02 -3.676786e-01 -3.105490e-01 1.138988e-01 1.718112e-02 -1.458319e-01 -1.916695e-01
<VARIANCE> 39
 5.359107e+00 1.321626e+01 3.608138e+01 1.678856e+01 3.315244e+01 1.913449e+01 3.318694e+01 3.097754e+01 6.143948e+01 2.712894e+01 4.884506e+01 4.817520e+01 8.869089e+00 5.664397e-01 8.601755e-01 6.470283e-01 2.205783e+00 1.215851e+00 1.509329e+00 1.990801e+00 3.038582e+00 1.744850e+00 1.886434e+00 1.840664e+00 1.753520e+00 4.262668e-01 4.362112e-02 7.205047e-02 2.178486e-01 3.146923e-01 2.394373e-01 2.695224e-01 5.042478e-01 3.658100e-01 3.058156e-01 3.857641e-01 4.024594e-01 3.243003e-01 7.352117e-02
<GCONST> 9.699350e+01
<STATE> 5
<MEAN> 39
 1.013780e+00 -1.619777e+01 4.564990e+00 -5.135419e+00 -1.949232e+01 -2.796871e+00 -1.884791e+01 -7.972661e+00 -2.908294e+00 -1.282915e+01 -2.074008e+00 -5.221070e+00 5.775576e+01 -1.043828e+00 1.209369e+00 -4.910575e-02 5.285369e-01 7.134506e-01 -6.354868e-02 7.367331e-01 -3.754563e-01 -4.179126e-01 2.897317e-01 -4.467011e-01 3.540391e-02 -8.679720e-01 -3.162002e-02 -9.227733e-02 -2.151077e-01 -1.872007e-01 7.914238e-02 7.694319e-02 2.041526e-01 2.627710e-01 1.349100e-01 1.065823e-01 9.177563e-02 1.041768e-01 4.848929e-02
<VARIANCE> 39
 2.226204e+01 3.169532e+01 4.621998e+01 1.545576e+01 4.173263e+01 2.574217e+01 3.084799e+01 5.478721e+01 4.774942e+01 4.848851e+01 3.451674e+01 3.212918e+01 9.416133e+00 1.088037e+00 1.480122e+00 1.655186e+00 1.467420e+00 2.314211e+00 1.533215e+00 2.575981e+00 3.626006e+00 3.427607e+00 2.897807e+00 2.071571e+00 2.453393e+00 3.539706e-01 1.443233e-01 1.970315e-01 1.961640e-01 2.221039e-01 3.478225e-01 2.788212e-01 3.229487e-01 4.778109e-01 4.740728e-01 4.769300e-01 2.831419e-01 3.994220e-01 4.810077e-02
<GCONST> 1.063720e+02
<TRANSP> 6
 0.000000e+00 1.000000e+00 0.000000e+00 0.000000e+00 0.000000e+00 0.000000e+00
 0.000000e+00 8.640777e-01 1.262136e-01 9.708739e-03 0.000000e+00 0.000000e+00
 0.000000e+00 0.000000e+00 9.257143e-01 7.428572e-02 0.000000e+00 0.000000e+00
 0.000000e+00 0.000000e+00 0.000000e+00 8.333333e-01 1.666667e-01 0.000000e+00
 0.000000e+00 0.000000e+00 0.000000e+00 0.000000e+00 8.880000e-01 1.120000e-01
 0.000000e+00 0.000000e+00 0.000000e+00 0.000000e+00 0.000000e+00 0.000000e+00
<ENDHMM>
