~o
<STREAMINFO> 1 39
<VECSIZE> 39<NULLD><MFCC_D_A_0><DIAGC>
~h "three"
<BEGINHMM>
<NUMSTATES> 6
<STATE> 2
<MEAN> 39
 6.363228e-01 -2.425231e+01 7.402974e-01 -5.871994e+00 -1.902403e+01 -7.039581e-01 -1.920152e+01 -6.188966e+00 3.207309e+00 -1.009604e+01 3.476108e+00 1.335941e+00 6.152116e+01 2.273180e+00 -8.097351e-01 2.404771e-01 -3.792076e-02 -5.964679e-01 -1.249522e+00 -2.070415e+00 -7.030295e-01 -5.392181e-01 -7.820837e-01 3.779178e-01 4.370239e-02 1.358843e+00 -2.038883e-01 2.515181e-01 -1.486150e-01 1.647510e-02 2.882010e-01 -1.044924e-01 8.711261e-02 -6.054309e-03 -1.523388e-01 6.988316e-02 -2.011857e-02 -8.600205e-02 -1.100802e-01
<VARIANCE> 39
 7.436197e+01 2.611283e+01 3.656662e+01 3.285013e+01 4.313632e+01 7.258842e+01 6.870914e+01 5.350200e+01 6.359254e+01 4.089858e+01 3.618140e+01 3.176850e+01 2.113990e+01 2.868766e+00 4.029189e+00 4.562201e+00 3.153948e+00 5.610696e+00 7.063762e+00 5.922158e+00 4.160047e+00 5.419549e+00 3.078585e+00 3.892430e+00 3.498523e+00 1.323447e+00 5.879321e-01 6.303332e-01 9.336113e-01 6.020443e-01 9.168673e-01 1.486634e+00 1.243669e+00 8.182083e-01 9.378329e-01 5.645065e-01 6.390193e-01 6.658021e-01 2.173567e-01
<GCONST> 1.340057e+02
<STATE> 3
<MEAN> 39
 9.052639e+00 -2.710578e+01 2.499910e+00 -5.403484e+00 -1.946890e+01 -1.048990e+01 -2.822127e+01 -6.475993e+00 -2.030660e+00 -1.302370e+01 6.662039e+00 -5.897050e-01 6.925523e+01 -2.148239e-01 -1.954114e-01 9.329144e-01 9.257308e-02 -9.564000e-01 -3.053840e-01 6.658137e-01 1.173975e-01 -3.343118e-01 -1.997250e-01 6.759065e-02 1.476934e-01 3.347207e-01 -1.299031e-01 7.483098e-02 1.750398e-01 -1.971900e-02 -2.095190e-01 2.126715e-01 3.065915e-01 -1.357729e-01 -2.845209e-02 2.330976e-02 -6.953516e-02 7.592943e-02 -1.024581e-01
<VARIANCE> 39
 6.440260e+00 8.638893e+00 3.757767e+01 2.404342e+01 3.652715e+01 5.019898e+01 3.792834e+01 3.263916e+01 4.638048e+01 3.198813e+01 4.050325e+01 2.639824e+01 7.473749e+00 4.332339e-01 6.063189e-01 2.058800e+00 1.433337e+00 2.274152e+00 3.042547e+00 3.249407e+00 2.896142e+00 4.004920e+00 2.263435e+00 2.731936e+00 2.089570e+00 2.891454e-01 8.519332e-02 1.182027e-01 2.221444e-01 2.389266e-01 2.407728e-01 5.412811e-01 3.330666e-01 5.350322e-01 7.949687e-01 4.294740e-01 4.727984e-01 3.520499e-01 3.309503e-02
<GCONST> 1.024801e+02
<STATE> 4
<MEAN> 39
 4.518734e+00 -2.345683e+01 1.656961e+01 -6.996420e+00 -3.223246e+01 -4.822202e+00 -1.770421e+01 -1.462020e+01 -5.373057e+00 -1.224632e+01 5.239432e+00 8.301110e-02 6.813182e+01 -2.199525e-01 3.906212e-01 3.128308e-01 -8.134829e-02 -1.512811e-01 5.334831e-01 8.998843e-02 -4.475381e-01 1.506604e-02 1.419934e-01 -1.602866e-01 -1.929467e-01 -4.677127e-01 -2.708114e-02 1.908257e-02 -1.521926e-01 3.971905e-02 1.211838e-01 -4.206386e-02 -4.453666e-02 1.095679e-01 6.973975e-02 4.020052e-02 -2.228439e-02 -4.617992e-02 -6.444212e-02
<VARIANCE> 39
 1.070212e+01 1.062359e+01 1.626517e+01 1.530267e+01 1.598197e+01 4.288331e+01 3.638589e+01 5.030213e+01 4.437245e+01 3.758170e+01 3.859308e+01 3.267311e+01 1.142334e+01 3.795873e-01 5.355701e-01 1.055393e+00 8.413559e-01 1.138537e+00 1.855238e+00 2.424180e+00 2.888277e+00 1.902736e+00 1.860597e+00 1.652519e+00 1.898160e+00 3.276829e-01 7.598858e-02 8.111937e-02 1.262354e-01 1.500901e-01 2.056224e-01 2.323317e-01 4.304236e-01 3.917622e-01 3.548215e-01 3.603952e-01 2.650898e-01 3.298467e-01 2.443772e-02
<GCONST> 9.315637e+01
<STATE> 5
<MEAN> 39
 -3.934722e+00 -1.665709e+01 9.182683e+00 -5.387411e+00 -2.622289e+01 7.392700e-01 -1.237333e+01 -1.110654e+01 -2.443553e+00 -1.029712e+01 6.272456e-01 -9.018676e-01 5.742237e+01 -1.454226e+00 8.350492e-01 -1.522362e+00 1.371827e-01 1.493986e+00 1.867854e-01 1.169394e+00 9.325927e-01 2.223938e-01 5.575801e-01 -3.022763e-01 -3.321796e-02 -9.676141e-01 -1.482294e-02 -4.909649e-02 -1.088921e-01 -1.938145e-02 2.086854e-01 -1.131994e-01 -2.880673e-02 6.904119e-02 -1.579120e-02 3.198805e-02 8.321709e-02 8.977578e-02 5.639543e-02
<VARIANCE> 39
 3.050512e+01 3.489722e+01 5.613134e+01 1.373839e+01 6.486817e+01 4.010884e+01 8.005524e+01 7.758768e+01 5.131415e+01 3.634100e+01 3.383475e+01 2.689557e+01 1.232132e+01 9.491975e-01 9.289483e-01 1.711911e+00 1.106585e+00 2.990794e+00 2.357742e+00 3.225474e+00 2.816535e+00 2.483366e+00 2.131044e+00 1.674308e+00 2.040395e+00 2.817839e-01 1.670926e-01 1.225231e-01 2.672045e-01 1.869285e-01 4.399076e-01 3.891347e-01 6.204273e-01 5.109131e-01 4.135276e-01 3.538247e-01 3.330109e-01 3.683125e-01 3.353962e-02
<GCONST> 1.078354e+02
<TRANSP> 6
 0.000000e+00 1.000000e+00 0.000000e+00 0.000000e+00 0.000000e+00 0.000000e+00
 0.000000e+00 8.764706e-01 1.235294e-01 0.000000e+00 0.000000e+00 0.000000e+00
 0.000000e+00 0.000000e+00 9.078947e-01 9.210525e-02 0.000000e+00 0.000000e+00
 0.000000e+00 0.000000e+00 0.000000e+00 9.411765e-01 5.882353e-02 0.000000e+00
 0.000000e+00 0.000000e+00 0.000000e+00 0.000000e+00 8.839779e-01 1.160221e-01
 0.000000e+00 0.000000e+00 0.000000e+00 0.000000e+00 0.000000e+00 0.000000e+00
<ENDHMM>
