~o
<STREAMINFO> 1 39
<VECSIZE> 39<NULLD><MFCC_D_A_0><DIAGC>
~h "seven"
<BEGINHMM>
<NUMSTATES> 6
<STATE> 2
<MEAN> 39
 4.130190e+00 -2.368112e+01 -4.594073e+00 -9.080849e+00 -1.987888e+01 -5.302765e+00 -1.652997e+01 -8.309417e-01 4.526928e+00 -4.581074e+00 2.348039e+00 -6.166328e+00 6.289960e+01 1.947228e+00 -8.737771e-01 2.229085e-01 -1.223456e+00 -9.732085e-01 -4.676362e-01 -9.254428e-01 5.967303e-01 4.000532e-01 -3.177078e-02 -8.340275e-02 -1.078588e+00 1.422221e+00 -3.034763e-01 5.146687e-02 -1.359274e-01 6.814658e-02 2.210901e-01 2.056631e-01 4.058084e-01 1.399886e-01 -3.242391e-02 -4.401964e-02 -1.929998e-01 -1.068369e-01 -1.245931e-01
<VARIANCE> 39
 6.580774e+01 3.003063e+01 7.490727e+01 3.210181e+01 2.578716e+01 6.293509e+01 5.047172e+01 4.012377e+01 5.037300e+01 5.376392e+01 2.062083e+01 4.602660e+01 1.819069e+01 6.015552e+00 2.937909e+00 5.921379e+00 2.252245e+00 2.798358e+00 6.629714e+00 5.834566e+00 3.249857e+00 2.868424e+00 3.769598e+00 3.035702e+00 3.277869e+00 2.144261e+00 7.938811e-01 2.809073e-01 9.265005e-01 4.303518e-01 5.206153e-01 9.236235e-01 1.134426e+00 5.308846e-01 3.917191e-01 6.533477e-01 5.236109e-01 4.759763e-01 2.490327e-01
<GCONST> 1.286821e+02
<STATE> 3
<MEAN> 39
 7.177635e+00 -2.929311e+01 -2.683765e+00 -1.502693e+01 -2.086324e+01 4.156647e-01 -1.503559e+01 6.402174e+00 9.159746e+00 -6.870255e+00 -6.863337e-01 -1.075450e+01 6.909677e+01 -1.251830e-01 -4.248957e-02 6.401375e-02 2.014033e-01 1.350274e-01 7.589533e-02 -1.916768e-01 -2.249298e-01 2.185403e-02 6.242307e-02 1.147611e-02 -9.404616e-02 -9.151673e-02 -1.087827e-01 1.349177e-01 1.244087e-01 1.452241e-01 -5.136317e-02 -1.877453e-01 -2.593876e-01 -2.215781e-01 -1.339499e-01 -5.279401e-02 1.560104e-01 1.743908e-01 -1.978836e-01
<VARIANCE> 39
 9.849287e+00 3.149821e+01 1.798754e+01 1.443118e+01 7.754842e+00 2.846145e+01 3.313424e+01 4.215125e+01 7.134508e+01 3.179028e+01 4.558568e+01 1.845746e+01 5.993927e+00 2.457001e-01 7.194328e-01 1.239124e+00 5.970030e-01 9.375909e-01 1.631744e+00 3.047828e+00 3.332506e+00 1.969859e+00 2.162211e+00 3.379357e+00 8.325067e-01 6.580936e-01 9.898444e-02 1.333123e-01 2.027646e-01 1.636790e-01 1.390734e-01 2.161778e-01 3.774810e-01 6.196657e-01 4.659782e-01 3.873009e-01 4.829918e-01 2.029022e-01 1.301164e-01
<GCONST> 9.587393e+01
<STATE> 4
<MEAN> 39
 4.798560e+00 -2.583307e+01 -1.494585e+00 -1.052316e+01 -2.448369e+01 -3.633181e+00 -1.932687e+01 -2.847895e+00 7.556003e+00 -8.684052e+00 -1.871144e+00 -4.241188e+00 6.368819e+01 -4.270921e-01 5.357716e-01 -2.527363e-02 6.062480e-01 3.239770e-02 -1.976245e-01 1.100806e-01 -5.918064e-01 -5.221002e-01 -2.114152e-01 -2.359167e-01 1.634482e-01 -6.313233e-01 -7.996669e-02 1.558304e-01 -1.381947e-02 3.178873e-02 1.341951e-01 3.930252e-02 1.053681e-01 -2.839496e-02 -5.698426e-02 9.467013e-02 -9.346960e-04 -2.810934e-02 -4.573447e-02
<VARIANCE> 39
 1.747971e+01 1.369371e+01 2.783463e+01 2.632058e+01 1.372510e+01 2.340031e+01 3.558223e+01 3.868503e+01 6.263153e+01 4.274164e+01 3.011200e+01 3.615068e+01 1.100312e+01 1.260767e+00 1.033374e+00 1.291032e+00 1.177926e+00 1.219828e+00 1.351349e+00 2.472042e+00 3.059719e+00 2.442268e+00 1.959821e+00 2.032629e+00 2.026418e+00 8.284312e-01 1.828177e-01 1.472672e-01 2.042329e-01 1.983589e-01 2.116688e-01 2.306395e-01 4.135866e-01 4.990991e-01 4.990426e-01 4.284433e-01 3.867243e-01 3.611400e-01 1.164864e-01
<GCONST> 1.029548e+02
<STATE> 5
<MEAN> 39
 -1.851529e+00 -1.327298e+01 5.645100e-01 -5.560293e+00 -1.930668e+01 -5.940011e+00 -1.656805e+01 -7.885364e+00 -2.293597e+00 -9.583336e+00 -2.919123e+00 -6.239378e+00 5.601181e+01 -1.280946e+00 1.079635e+00 -1.617609e-01 4.658958e-01 9.152431e-01 -1.777688e-01 8.904926e-01 -4.716652e-02 -3.321448e-01 2.505530e-01 -2.739518e-01 3.950691e-01 -8.523004e-01 -3.774450e-02 -1.520098e-01 -1.181019e-01 -1.260379e-01 2.459501e-02 1.125839e-01 1.497704e-01 2.421023e-01 1.231183e-01 -9.605437e-03 -1.049953e-02 5.452598e-02 4.231967e-02
<VARIANCE> 39
 3.515792e+01 3.512146e+01 2.380013e+01 1.969709e+01 2.818044e+01 2.499452e+01 4.098238e+01 1.614797e+01 3.082590e+01 3.112217e+01 2.896146e+01 2.210800e+01 7.807057e+00 1.435826e+00 1.653817e+00 9.600977e-01 1.409656e+00 2.195896e+00 1.833352e+00 3.032188e+00 2.093918e+00 1.623009e+00 1.855428e+00 2.645022e+00 2.105439e+00 3.385524e-01 2.810076e-01 2.448168e-01 2.059850e-01 2.461848e-01 4.277538e-01 3.439094e-01 5.838296e-01 3.334239e-01 2.976735e-01 3.895758e-01 5.948519e-01 3.811060e-01 7.081760e-02
<GCONST> 1.040290e+02
<TRANSP> 6
 0.000000e+00 1.000000e+00 0.000000e+00 0.000000e+00 0.000000e+00 0.000000e+00
 0.000000e+00 8.701299e-01 1.038961e-01 2.597403e-02 0.000000e+00 0.000000e+00
 0.000000e+00 0.000000e+00 9.111111e-01 8.888888e-02 0.000000e+00 0.000000e+00
 0.000000e+00 0.000000e+00 0.000000e+00 9.065421e-01 9.345794e-02 0.000000e+00
 0.000000e+00 0.000000e+00 0.000000e+00 0.000000e+00 8.958333e-01 1.041667e-01
 0.000000e+00 0.000000e+00 0.000000e+00 0.000000e+00 0.000000e+00 0.000000e+00
<ENDHMM>
