~o
<STREAMINFO> 1 39
<VECSIZE> 39<NULLD><MFCC_D_A_0><DIAGC>
~h "five"
<BEGINHMM>
<NUMSTATES> 6
<STATE> 2
<MEAN> 39
 6.307332e+00 -2.701552e+01 -5.974177e+00 -1.745524e+01 -1.684650e+01 1.009157e+01 -1.092791e+01 -8.106973e-01 3.160121e+00 -4.652988e+00 7.214344e+00 -5.883152e+00 6.657789e+01 2.246851e+00 -1.439791e+00 -3.527937e-01 -1.994112e+00 -1.704567e-01 1.783632e+00 -1.098354e-01 3.797802e-01 -1.730520e-01 -6.867015e-01 2.807816e-01 -9.855085e-01 2.476563e+00 -9.008146e-01 3.043922e-01 2.419247e-01 7.057543e-01 6.342733e-01 -2.881909e-02 2.603697e-01 8.898600e-02 -1.015820e-01 -2.208459e-01 -5.339292e-01 1.561207e-01 -6.225469e-01
<VARIANCE> 39
 1.863978e+01 3.021302e+01 3.125280e+01 6.270335e+01 2.627151e+01 2.962529e+01 3.933258e+01 3.130823e+01 2.255054e+01 2.632105e+01 2.709472e+01 3.216170e+01 1.965616e+01 5.039420e+00 1.761678e+00 3.033247e+00 5.392142e+00 4.156655e+00 2.642645e+00 4.313649e+00 3.000507e+00 2.279440e+00 2.295882e+00 3.937270e+00 2.117042e+00 1.941178e+00 5.684527e-01 2.394833e-01 5.698227e-01 7.214329e-01 4.523490e-01 4.562060e-01 9.246440e-01 6.273021e-01 5.221298e-01 3.819377e-01 4.378017e-01 3.425100e-01 1.780862e-01
<GCONST> 1.196319e+02
<STATE> 3
<MEAN> 39
 7.350000e+00 -3.074952e+01 -6.166202e+00 -1.835000e+01 -1.084515e+01 1.662818e+01 -1.209057e+01 -3.735564e-01 1.754925e+00 -1.028968e+01 3.638390e+00 -8.379426e+00 7.005623e+01 -1.701187e-01 -1.589987e-01 -1.190587e-02 1.841383e-01 2.031022e-01 -2.208228e-02 -9.791012e-02 1.618469e-01 8.149873e-02 -1.912312e-01 -4.145359e-01 -3.185548e-01 -7.951746e-02 -1.521832e-02 6.349987e-02 -9.029314e-03 1.063481e-02 -1.459559e-01 -1.848573e-01 5.120020e-03 5.010250e-02 6.710847e-02 9.791020e-02 6.515515e-03 1.223860e-02 -6.804631e-02
<VARIANCE> 39
 3.787071e+00 9.951649e+00 2.550095e+01 2.928714e+01 1.939344e+01 1.196571e+01 2.688811e+01 1.324350e+01 2.695999e+01 2.445409e+01 1.852251e+01 2.771749e+01 8.072102e+00 1.717964e-01 3.673381e-01 6.814374e-01 6.715243e-01 1.154089e+00 1.040485e+00 1.777688e+00 1.630656e+00 1.268547e+00 1.510784e+00 1.290228e+00 1.217160e+00 1.303002e-01 4.499302e-02 8.298412e-02 1.322587e-01 1.187771e-01 1.678876e-01 2.193019e-01 3.013632e-01 3.486297e-01 2.230076e-01 3.054448e-01 2.676705e-01 2.218540e-01 3.113444e-02
<GCONST> 8.055322e+01
<STATE> 4
<MEAN> 39
 5.200236e+00 -3.013538e+01 -3.716124e+00 -1.574803e+01 -2.012963e+01 4.649525e+00 -1.344656e+01 6.059873e+00 7.787611e+00 -9.053116e+00 -3.980429e-01 -8.871075e+00 6.695035e+01 -2.271792e-01 6.004605e-01 5.226954e-01 2.974974e-01 -1.410391e+00 -1.860931e+00 -3.245939e-01 4.564348e-01 2.610867e-01 2.765419e-03 2.091155e-01 6.354198e-01 -6.173166e-01 -4.253476e-02 1.372666e-01 6.387540e-02 3.558959e-02 4.098436e-02 -1.383982e-02 -3.735805e-02 -1.562170e-01 -1.618341e-01 -4.015959e-02 1.006292e-01 6.919656e-02 -9.039748e-02
<VARIANCE> 39
 4.748384e+00 1.605739e+01 3.936068e+01 2.112177e+01 4.282412e+01 4.389171e+01 4.413495e+01 2.911522e+01 2.190714e+01 1.948400e+01 2.661064e+01 2.261400e+01 1.995582e+01 2.707281e-01 6.648190e-01 8.620133e-01 9.713587e-01 1.394895e+00 2.021948e+00 1.966343e+00 1.951102e+00 2.256726e+00 2.081238e+00 2.339577e+00 1.025960e+00 2.448075e-01 5.002514e-02 9.306226e-02 1.316308e-01 1.543055e-01 3.136480e-01 4.022098e-01 3.179786e-01 3.129591e-01 2.894954e-01 3.798592e-01 3.814017e-01 1.807902e-01 2.712494e-02
<GCONST> 9.225241e+01
<STATE> 5
<MEAN> 39
 9.184194e-02 -2.069336e+01 7.731778e-02 -1.120994e+01 -2.354492e+01 -6.242939e+00 -1.604763e+01 3.040437e+00 4.660522e+00 -9.394057e+00 1.992687e+00 -3.654259e+00 5.833874e+01 -1.475245e+00 1.401768e+00 -2.675999e-01 7.031574e-01 1.244123e+00 -5.215802e-02 3.801851e-01 -9.253634e-01 -5.328581e-01 2.668473e-01 -5.015130e-01 3.482997e-01 -1.406625e+00 -2.135870e-01 -4.068018e-02 -2.163585e-01 -3.602863e-02 3.537700e-01 3.388955e-01 3.132904e-01 2.785884e-02 1.048476e-02 1.459913e-01 -1.599299e-01 -2.342674e-02 -1.437415e-02
<VARIANCE> 39
 2.218859e+01 4.784810e+01 4.789963e+01 2.095693e+01 2.541507e+01 3.030152e+01 4.158776e+01 4.096337e+01 2.840689e+01 3.001785e+01 4.919351e+01 2.781627e+01 1.731789e+01 1.346254e+00 7.433214e-01 1.483205e+00 8.208196e-01 1.588380e+00 3.108114e+00 3.710961e+00 1.789360e+00 1.904898e+00 1.589403e+00 2.249161e+00 1.651923e+00 3.064626e-01 1.811459e-01 1.044619e-01 1.912939e-01 2.031335e-01 3.454821e-01 4.757070e-01 6.100018e-01 3.940133e-01 4.532729e-01 2.552770e-01 3.983362e-01 2.632519e-01 5.243761e-02
<GCONST> 1.035834e+02
<TRANSP> 6
 0.000000e+00 1.000000e+00 0.000000e+00 0.000000e+00 0.000000e+00 0.000000e+00
 0.000000e+00 7.843137e-01 2.156863e-01 0.000000e+00 0.000000e+00 0.000000e+00
 0.000000e+00 0.000000e+00 9.276316e-01 7.236843e-02 0.000000e+00 0.000000e+00
 0.000000e+00 0.000000e+00 0.000000e+00 8.990826e-01 1.009174e-01 0.000000e+00
 0.000000e+00 0.000000e+00 0.000000e+00 0.000000e+00 8.552632e-01 1.447368e-01
 0.000000e+00 0.000000e+00 0.000000e+00 0.000000e+00 0.000000e+00 0.000000e+00
<ENDHMM>
