~o
<STREAMINFO> 1 39
<VECSIZE> 39<NULLD><MFCC_D_A_0><DIAGC>
~h "nine"
<BEGINHMM>
<NUMSTATES> 6
<STATE> 2
<MEAN> 39
 6.107085e+00 -2.237300e+01 2.379230e+00 -6.746319e+00 -2.068303e+01 -1.798910e+00 -1.841328e+01 -5.105987e+00 1.005607e-01 -1.261175e+01 -8.675297e-01 -3.956457e+00 6.323640e+01 1.475142e+00 -2.225903e+00 -4.920391e-01 -1.023785e+00 1.834578e-01 7.504687e-01 -6.386132e-01 1.167672e+00 7.965573e-01 -3.282084e-01 1.093817e-05 -8.821805e-01 1.698966e+00 -4.257767e-01 1.874180e-01 -1.992077e-01 -7.748897e-03 5.439558e-01 1.985789e-01 1.392030e-01 3.591686e-02 9.737533e-02 2.371116e-01 3.559074e-02 -4.567770e-02 -1.997156e-01
<VARIANCE> 39
 2.781327e+01 6.505212e+01 4.598212e+01 3.382091e+01 3.012204e+01 3.855918e+01 4.580192e+01 8.284266e+01 4.691637e+01 2.645692e+01 4.489738e+01 3.373156e+01 2.700416e+01 2.873272e+00 2.101291e+00 4.159808e+00 1.667067e+00 3.953405e+00 4.291332e+00 4.616240e+00 6.831211e+00 2.741190e+00 1.927149e+00 2.881616e+00 2.092849e+00 9.395747e-01 2.774550e-01 3.374965e-01 7.048619e-01 3.368899e-01 4.588764e-01 7.242037e-01 7.461605e-01 1.290066e+00 5.123289e-01 3.742108e-01 5.213359e-01 4.595713e-01 1.310937e-01
<GCONST> 1.229262e+02
<STATE> 3
<MEAN> 39
 7.289901e+00 -3.144934e+01 -3.433208e+00 -1.313023e+01 -1.194843e+01 6.522661e+00 -2.079906e+01 6.704106e-01 5.292661e+00 -1.108546e+01 3.531340e-01 -9.122840e+00 6.909529e+01 -1.177743e-01 8.233644e-02 1.460490e-01 1.281071e-01 1.614761e-02 -1.925012e-01 -1.415139e-01 2.380271e-01 1.944286e-01 -1.931052e-01 -5.862237e-02 1.348391e-01 -1.126586e-01 -1.620670e-02 9.904996e-02 7.952384e-02 1.207004e-01 -2.844431e-01 -2.556323e-01 1.453882e-01 2.840246e-02 -6.460789e-02 -8.712681e-02 -1.429836e-02 1.827998e-01 -9.508726e-02
<VARIANCE> 39
 6.674873e+00 1.185435e+01 1.823406e+01 1.963440e+01 1.128505e+01 3.878269e+01 2.463773e+01 5.142460e+01 3.255230e+01 2.959362e+01 3.538926e+01 1.870132e+01 4.645988e+00 2.172457e-01 5.757527e-01 8.409494e-01 8.921290e-01 2.071354e+00 1.960766e+00 1.811582e+00 1.883203e+00 1.732571e+00 1.728364e+00 1.413469e+00 2.003153e+00 1.567113e-01 4.107984e-02 1.460229e-01 1.123704e-01 1.228742e-01 2.292483e-01 1.450786e-01 2.869137e-01 3.070413e-01 3.385581e-01 2.540665e-01 2.586958e-01 3.040570e-01 2.642457e-02
<GCONST> 8.674195e+01
<STATE> 4
<MEAN> 39
 5.139218e+00 -2.718597e+01 2.605041e+00 -1.013971e+01 -2.251923e+01 -1.322074e+00 -1.668351e+01 3.444170e+00 5.299531e+00 -1.388848e+01 1.731146e+00 -2.515914e+00 6.550921e+01 -3.420662e-01 9.061530e-01 7.246820e-01 2.335995e-01 -1.099271e+00 -3.973277e-01 5.826202e-01 -6.141707e-01 -6.202966e-01 3.135493e-01 3.307974e-01 2.154518e-01 -6.112234e-01 -5.233004e-02 1.523336e-01 -2.447930e-02 -2.988026e-03 1.748558e-01 8.486871e-02 -1.198589e-01 -1.845400e-01 -1.187856e-01 6.275787e-02 1.850792e-02 -9.618132e-02 -5.598738e-02
<VARIANCE> 39
 7.785206e+00 2.365772e+01 2.046296e+01 1.507238e+01 3.771363e+01 2.725273e+01 2.512174e+01 2.907586e+01 5.070723e+01 3.301554e+01 4.789417e+01 3.776504e+01 8.646150e+00 2.631500e-01 1.092286e+00 5.572805e-01 8.643214e-01 1.120041e+00 1.500671e+00 1.755147e+00 2.704819e+00 1.736322e+00 1.554765e+00 1.805779e+00 1.129139e+00 2.718549e-01 5.417693e-02 1.360914e-01 1.223382e-01 1.452516e-01 1.607513e-01 1.598602e-01 2.312499e-01 4.066231e-01 3.518840e-01 3.343975e-01 2.944356e-01 2.225211e-01 2.968125e-02
<GCONST> 9.038839e+01
<STATE> 5
<MEAN> 39
 -4.021296e-01 -1.370639e+01 4.488219e+00 -4.857442e+00 -2.205069e+01 -5.969142e+00 -1.673626e+01 -7.270423e+00 -2.720127e+00 -1.260803e+01 -1.033882e+00 -2.730510e+00 5.705217e+01 -1.239037e+00 1.219184e+00 -5.207535e-01 6.139361e-01 1.243674e+00 -2.128350e-01 3.124510e-01 -4.366848e-01 -3.196832e-01 2.437809e-01 -4.205742e-01 2.314632e-01 -9.412155e-01 -1.579759e-01 -1.690004e-01 -1.754830e-01 -6.814003e-02 1.616434e-01 1.012885e-01 1.800065e-01 2.376208e-01 1.572286e-01 1.085104e-01 -2.388031e-02 8.754167e-03 2.444433e-02
<VARIANCE> 39
 1.471647e+01 3.867622e+01 2.546602e+01 2.218775e+01 5.864056e+01 6.287420e+01 3.700296e+01 4.885128e+01 2.881668e+01 2.200940e+01 3.722759e+01 2.981321e+01 1.058254e+01 8.677686e-01 1.026703e+00 1.570239e+00 7.961167e-01 1.496347e+00 1.747093e+00 2.525995e+00 3.354884e+00 2.321481e+00 2.309632e+00 1.901335e+00 2.467881e+00 2.076400e-01 1.037329e-01 1.282378e-01 2.364079e-01 1.745048e-01 2.608541e-01 2.510853e-01 4.536079e-01 6.273361e-01 3.248332e-01 4.262709e-01 3.239390e-01 4.030295e-01 2.458990e-02
<GCONST> 1.015444e+02
<TRANSP> 6
 0.000000e+00 1.000000e+00 0.000000e+00 0.000000e+00 0.000000e+00 0.000000e+00
 0.000000e+00 8.674699e-01 1.325301e-01 0.000000e+00 0.000000e+00 0.000000e+00
 0.000000e+00 0.000000e+00 9.197080e-01 8.029197e-02 0.000000e+00 0.000000e+00
 0.000000e+00 0.000000e+00 0.000000e+00 8.981481e-01 1.018519e-01 0.000000e+00
 0.000000e+00 0.000000e+00 0.000000e+00 0.000000e+00 8.817204e-01 1.182796e-01
 0.000000e+00 0.000000e+00 0.000000e+00 0.000000e+00 0.000000e+00 0.000000e+00
<ENDHMM>
