~o
<STREAMINFO> 1 39
<VECSIZE> 39<NULLD><MFCC_D_A_0><DIAGC>
~h "four"
<BEGINHMM>
<NUMSTATES> 6
<STATE> 2
<MEAN> 39
 8.007239e+00 -1.890334e+01 -2.150564e+00 -1.935886e+01 -2.669918e+01 1.007077e+00 -1.310666e+01 -3.435335e+00 -9.741303e-01 -1.074267e+01 4.887259e+00 -2.728396e-02 6.439037e+01 2.540850e+00 -9.228962e-01 9.597396e-01 -2.157243e+00 -2.405373e+00 2.171780e-01 -4.121016e-01 7.512685e-01 4.007215e-01 -9.879074e-01 5.802881e-01 1.471728e-01 1.725643e+00 -9.547240e-01 1.584990e-01 -3.464428e-03 6.744680e-01 7.255033e-01 5.695324e-02 2.365028e-01 7.119524e-02 1.358113e-01 2.810345e-01 -9.863702e-02 -6.938709e-02 -5.090259e-01
<VARIANCE> 39
 2.323182e+01 4.289989e+01 2.382902e+01 4.410299e+01 3.220040e+01 2.475421e+01 1.700974e+01 1.735632e+01 1.141481e+01 2.788246e+01 3.724643e+01 1.640712e+01 1.748165e+01 5.515448e+00 2.204143e+00 2.080539e+00 4.616004e+00 4.301483e+00 3.262017e+00 2.208034e+00 2.032381e+00 1.658414e+00 3.070494e+00 3.828970e+00 2.261478e+00 2.123819e+00 6.194518e-01 3.901243e-01 3.567673e-01 6.386005e-01 5.266112e-01 5.536849e-01 4.579528e-01 3.751061e-01 2.442317e-01 5.539480e-01 6.145563e-01 5.135098e-01 2.612492e-01
<GCONST> 1.160000e+02
<STATE> 3
<MEAN> 39
 9.979244e+00 -1.810362e+01 2.113880e+00 -2.325884e+01 -3.054823e+01 1.839096e-01 -1.571199e+01 9.628548e-01 9.863449e-01 -1.213906e+01 6.410787e+00 -1.902866e+00 6.474136e+01 -6.174042e-02 -1.190239e-01 -3.044888e-01 -8.657108e-02 4.630173e-01 2.687047e-01 1.115067e-02 3.394653e-02 -3.533085e-01 2.519671e-02 3.661661e-01 -2.874371e-02 -3.742964e-02 -2.203604e-02 4.062944e-03 -1.470469e-01 8.024111e-02 1.854474e-01 -1.619898e-03 -1.783844e-02 -8.220294e-02 -7.424530e-02 6.001880e-02 3.879799e-02 -2.421188e-03 -2.014183e-02
<VARIANCE> 39
 2.722157e+00 2.292891e+01 1.797703e+01 1.423895e+01 1.279122e+01 2.580314e+01 2.415427e+01 1.691452e+01 2.041121e+01 1.308126e+01 2.342174e+01 2.118190e+01 7.620446e+00 1.853603e-01 7.445222e-01 1.245605e+00 7.191491e-01 1.294400e+00 1.312325e+00 1.679790e+00 1.305743e+00 1.654701e+00 8.445768e-01 1.555753e+00 1.572511e+00 2.642196e-01 4.030066e-02 1.080471e-01 1.162759e-01 1.281020e-01 1.685364e-01 1.687063e-01 2.444458e-01 1.986563e-01 3.071733e-01 1.605418e-01 2.287048e-01 2.792160e-01 3.395285e-02
<GCONST> 8.074416e+01
<STATE> 4
<MEAN> 39
 8.597273e+00 -2.349204e+01 -7.427079e+00 -1.942321e+01 -1.812021e+01 3.521918e+00 -1.756743e+01 -1.412118e-01 1.335057e+00 -8.044910e+00 9.061737e+00 -4.367376e+00 6.505992e+01 -1.641310e-01 -2.119723e-01 -1.424456e-01 7.963666e-01 5.379709e-01 -5.810847e-01 -8.923475e-01 -3.197358e-02 6.318541e-01 2.280141e-01 -4.661302e-01 -4.791283e-01 -2.010411e-01 -6.875616e-02 4.212829e-02 1.225285e-01 6.334068e-02 -1.138262e-01 -6.361421e-02 1.683874e-02 4.533553e-03 8.027210e-03 -7.302167e-02 -1.590071e-01 -2.465863e-02 -6.094977e-02
<VARIANCE> 39
 6.192357e+00 1.673908e+01 1.845202e+01 2.632153e+01 2.228133e+01 3.581787e+01 5.964836e+01 3.261663e+01 4.448012e+01 3.086349e+01 4.998476e+01 4.181617e+01 7.991114e+00 3.142377e-01 5.426508e-01 1.264177e+00 1.228078e+00 1.786551e+00 1.105747e+00 2.346308e+00 1.522052e+00 1.790165e+00 1.592729e+00 1.626441e+00 1.401391e+00 2.090384e-01 7.029735e-02 1.078947e-01 1.563234e-01 2.043575e-01 2.297960e-01 2.119482e-01 3.811752e-01 2.990175e-01 3.620880e-01 2.670832e-01 3.338149e-01 2.452431e-01 2.797611e-02
<GCONST> 9.270415e+01
<STATE> 5
<MEAN> 39
 1.172137e+00 -2.076746e+01 -5.193192e+00 -8.073781e+00 -1.304396e+01 -1.186322e+00 -2.067731e+01 -2.802275e+00 3.431211e+00 -8.277407e+00 1.588708e+00 -5.811510e+00 5.956100e+01 -1.992926e+00 1.071077e+00 -2.050589e-01 1.376705e+00 1.139417e+00 -1.285564e-01 1.296318e+00 -3.169535e-01 -7.165051e-02 5.442819e-01 -8.511726e-01 1.673229e-01 -1.180312e+00 -1.797764e-01 1.264100e-01 -1.207695e-01 -8.652502e-02 9.157796e-02 5.965427e-02 2.485949e-01 2.590164e-02 -8.769471e-04 1.730908e-01 6.622484e-02 1.726840e-01 -7.822085e-02
<VARIANCE> 39
 3.295618e+01 3.246021e+01 2.257671e+01 2.913150e+01 3.651787e+01 5.265566e+01 6.163339e+01 2.840413e+01 2.833974e+01 4.589440e+01 3.379340e+01 1.737468e+01 1.064329e+01 1.121678e+00 9.954709e-01 1.060396e+00 8.919418e-01 1.582218e+00 1.644589e+00 2.497670e+00 1.737792e+00 1.982282e+00 1.950420e+00 2.292297e+00 1.963254e+00 3.154384e-01 1.863301e-01 1.433261e-01 2.049688e-01 1.960241e-01 3.038115e-01 3.145072e-01 4.987500e-01 3.054253e-01 3.443699e-01 3.324122e-01 4.583385e-01 3.339455e-01 4.442607e-02
<GCONST> 1.020374e+02
<TRANSP> 6
 0.000000e+00 1.000000e+00 0.000000e+00 0.000000e+00 0.000000e+00 0.000000e+00
 0.000000e+00 7.910448e-01 1.940299e-01 1.492537e-02 0.000000e+00 0.000000e+00
 0.000000e+00 0.000000e+00 9.273743e-01 7.262569e-02 0.000000e+00 0.000000e+00
 0.000000e+00 0.000000e+00 0.000000e+00 9.176471e-01 8.235294e-02 0.000000e+00
 0.000000e+00 0.000000e+00 0.000000e+00 0.000000e+00 8.600000e-01 1.400000e-01
 0.000000e+00 0.000000e+00 0.000000e+00 0.000000e+00 0.000000e+00 0.000000e+00
<ENDHMM>
