~o
<STREAMINFO> 1 39
<VECSIZE> 39<NULLD><MFCC_D_A_0><DIAGC>
~h "sil"
<BEGINHMM>
<NUMSTATES> 6
<STATE> 2
<MEAN> 39
 -9.039560e+00 -1.630064e+01 -2.470210e+00 -5.453535e+00 -1.492870e+01 -4.601516e-01 -1.013295e+01 -4.470781e+00 -1.427791e-02 -7.205111e+00 2.673251e-01 -1.096158e+00 5.388239e+01 -4.719722e-01 3.172677e-01 -2.464815e-01 6.645557e-02 4.644414e-01 -2.981272e-02 2.848123e-01 1.176572e-01 9.979780e-03 2.416715e-01 -1.522085e-02 1.078651e-01 -2.996537e-01 -1.533775e-02 1.815999e-02 3.357206e-02 -6.592866e-03 3.686472e-03 2.135650e-02 1.848438e-02 3.176871e-02 -3.523566e-04 1.337075e-02 3.412225e-02 -6.451074e-03 -4.719393e-03
<VARIANCE> 39
 2.873656e+01 4.096350e+01 3.766213e+01 2.321862e+01 5.113621e+01 4.818420e+01 4.064509e+01 3.963303e+01 3.238853e+01 3.395052e+01 3.330819e+01 2.473479e+01 1.233388e+01 1.378343e+00 1.747333e+00 1.615469e+00 1.327241e+00 2.754287e+00 2.201200e+00 2.761771e+00 2.515993e+00 2.312266e+00 2.494207e+00 2.156521e+00 1.961825e+00 5.182886e-01 1.922858e-01 2.822478e-01 2.597851e-01 2.474427e-01 4.459084e-01 3.957799e-01 5.143980e-01 4.573514e-01 4.224256e-01 4.817658e-01 4.105441e-01 3.701633e-01 8.198736e-02
<GCONST> 1.100474e+02
<STATE> 3
<MEAN> 39
 -1.741245e+01 -7.954797e+00 -4.012709e+00 -3.140622e+00 -5.533984e+00 4.079029e-01 -3.682468e+00 -1.368754e+00 1.991176e-01 -2.022854e+00 2.829003e-01 9.683833e-02 4.756959e+01 -8.796406e-01 4.337566e-01 -2.705377e-01 8.354294e-02 4.748801e-01 -6.374422e-03 4.535235e-01 1.915327e-01 -1.361825e-01 2.843888e-01 -3.052093e-02 -7.656979e-04 -4.356863e-01 1.540146e-01 -9.989038e-02 3.608375e-02 -3.112407e-02 -1.466568e-01 -2.790388e-02 -1.516700e-01 -8.642456e-02 -2.446271e-02 -1.005424e-01 -2.141603e-02 -2.941271e-02 9.561896e-02
<VARIANCE> 39
 2.329242e+01 1.324995e+01 1.775270e+01 1.256465e+01 1.632267e+01 2.495002e+01 1.726374e+01 1.917940e+01 2.226620e+01 1.947186e+01 1.788073e+01 1.502934e+01 1.449100e+01 1.800550e+00 9.782529e-01 1.296459e+00 1.178574e+00 1.886210e+00 1.978282e+00 2.059737e+00 2.171497e+00 2.157006e+00 2.030068e+00 1.790601e+00 1.488213e+00 5.923917e-01 2.432503e-01 1.454275e-01 1.918683e-01 1.822356e-01 2.740213e-01 2.956341e-01 3.299283e-01 3.582904e-01 3.613935e-01 3.365917e-01 3.084181e-01 2.561935e-01 7.536254e-02
<GCONST> 9.613223e+01
<STATE> 4
<MEAN> 39
 -2.291821e+01 -5.021240e+00 -7.112712e+00 -3.344471e+00 -4.244738e+00 -2.274606e+00 -2.806224e+00 -1.627157e+00 -1.855588e+00 -1.061428e+00 -1.201983e+00 -7.381822e-01 4.547687e+01 5.293555e-04 -1.223505e-03 -4.856634e-04 4.621004e-03 9.512483e-03 2.211131e-03 3.314441e-03 2.701966e-03 6.013451e-03 -2.429800e-02 -1.938332e-02 7.888035e-03 -7.641020e-04 3.090311e-02 -1.784285e-02 1.204979e-02 2.758180e-03 -1.024001e-02 7.233595e-03 -6.608736e-03 -1.478467e-04 1.167175e-02 -4.109054e-03 8.980237e-03 7.861992e-03 1.406829e-02
<VARIANCE> 39
 1.016494e+00 2.277545e+00 4.137053e+00 6.161199e+00 8.119173e+00 1.019772e+01 1.180053e+01 1.314290e+01 1.378061e+01 1.409948e+01 1.321075e+01 1.180690e+01 1.911675e-01 1.162467e-01 2.509359e-01 4.530756e-01 6.853018e-01 9.078652e-01 1.130749e+00 1.255367e+00 1.427658e+00 1.507168e+00 1.523047e+00 1.428620e+00 1.245087e+00 2.143988e-02 3.596350e-02 5.627553e-02 9.454895e-02 1.393517e-01 1.839864e-01 2.265655e-01 2.504053e-01 2.895284e-01 2.996553e-01 3.019465e-01 2.831405e-01 2.447660e-01 1.000000e-02
<GCONST> 6.133871e+01
<STATE> 5
<MEAN> 39
 -1.135985e+01 -1.531821e+01 -1.550391e+00 -4.888902e+00 -1.185530e+01 2.069304e+00 -8.685117e+00 -2.291578e+00 1.718533e+00 -6.150550e+00 1.362821e+00 -5.277478e-01 5.288378e+01 1.104862e+00 -7.709686e-01 4.216182e-01 -2.805533e-01 -8.568433e-01 1.345140e-01 -5.778441e-01 -1.261576e-01 1.940359e-01 -3.699959e-01 1.886702e-01 -2.272476e-02 7.371789e-01 1.247704e-01 -4.757196e-02 3.142411e-02 -7.254951e-02 -9.315388e-02 -4.355277e-02 -7.735381e-02 -6.863056e-03 -1.344839e-02 -2.639157e-02 1.110534e-02 -2.168055e-02 9.070992e-02
<VARIANCE> 39
 4.775760e+01 5.272852e+01 2.872134e+01 2.254687e+01 5.566423e+01 3.537820e+01 4.074362e+01 3.124216e+01 2.662259e+01 3.212364e+01 2.275593e+01 2.046001e+01 3.001187e+01 3.231216e+00 2.098970e+00 1.697219e+00 2.047492e+00 3.156307e+00 2.553253e+00 3.232521e+00 2.474380e+00 2.276829e+00 2.361902e+00 2.132911e+00 1.888346e+00 1.374885e+00 4.325582e-01 3.197564e-01 2.802638e-01 3.205221e-01 4.981451e-01 4.380613e-01 5.575570e-01 4.579694e-01 4.351408e-01 4.267674e-01 4.096760e-01 3.742895e-01 1.749912e-01
<GCONST> 1.151550e+02
<TRANSP> 6
 0.000000e+00 4.531835e-01 5.468165e-01 0.000000e+00 0.000000e+00 0.000000e+00
 0.000000e+00 9.464127e-01 5.358724e-02 0.000000e+00 0.000000e+00 0.000000e+00
 0.000000e+00 0.000000e+00 8.025148e-01 1.952663e-01 2.218935e-03 0.000000e+00
 0.000000e+00 0.000000e+00 0.000000e+00 9.524838e-01 2.303816e-02 2.447804e-02
 0.000000e+00 0.000000e+00 0.000000e+00 0.000000e+00 9.496541e-01 5.034588e-02
 0.000000e+00 0.000000e+00 0.000000e+00 0.000000e+00 0.000000e+00 0.000000e+00
<ENDHMM>
