~o
<STREAMINFO> 1 39
<VECSIZE> 39<NULLD><MFCC_D_A_0><DIAGC>
~h "eight"
<BEGINHMM>
<NUMSTATES> 6
<STATE> 2
<MEAN> 39
 3.045648e+00 -2.629180e+01 6.064718e+00 -1.254014e+01 -3.044869e+01 -7.017328e-01 -1.328914e+01 -1.035936e+00 5.136436e+00 -7.633560e+00 4.752434e+00 -1.799717e+00 6.602225e+01 2.197074e+00 -7.777756e-01 1.368011e+00 -1.435248e+00 -2.288522e+00 -5.580267e-01 -8.986234e-01 -1.129745e+00 -1.522415e-01 -2.129059e-01 1.526376e-01 -1.762082e-01 1.939641e+00 -4.621318e-01 4.089196e-01 -1.569075e-01 3.176402e-01 4.993817e-01 -1.023669e-01 1.504280e-01 -2.510765e-01 -2.618945e-01 2.583123e-03 -1.547295e-01 4.955889e-02 -3.248459e-01
<VARIANCE> 39
 3.207477e+01 2.086444e+01 1.869484e+01 2.305961e+01 3.997707e+01 3.950655e+01 3.597719e+01 7.079907e+01 3.499570e+01 4.273953e+01 3.902524e+01 3.361820e+01 2.192564e+01 3.022959e+00 2.415954e+00 1.368257e+00 2.529608e+00 2.825335e+00 1.565363e+00 2.813976e+00 3.791411e+00 2.728681e+00 2.430757e+00 2.772346e+00 2.750248e+00 1.685322e+00 3.826421e-01 3.811994e-01 2.756532e-01 3.724023e-01 4.871123e-01 2.511848e-01 5.580004e-01 4.704108e-01 4.634687e-01 4.558780e-01 5.004890e-01 4.958746e-01 2.865198e-01
<GCONST> 1.167259e+02
<STATE> 3
<MEAN> 39
 6.997783e+00 -2.239386e+01 1.307306e+01 -1.400255e+01 -3.508788e+01 -1.566882e+00 -1.879199e+01 -1.294651e+01 1.042346e+00 -9.405785e+00 3.042101e+00 6.938100e-01 6.771362e+01 -1.199356e-01 4.615845e-01 4.392948e-01 3.756191e-01 2.012593e-01 5.974034e-03 -4.821264e-01 -5.899870e-01 -5.046426e-01 -1.728856e-01 3.557812e-02 2.931078e-02 -4.631772e-01 -1.149983e-01 3.914888e-03 -1.098745e-01 8.312863e-02 1.493246e-01 7.614479e-02 6.404047e-02 1.151410e-01 2.294011e-02 7.889019e-03 -5.896269e-04 1.125458e-02 -1.343518e-01
<VARIANCE> 39
 7.414492e+00 1.559162e+01 1.792083e+01 1.964443e+01 1.528589e+01 3.660994e+01 3.022924e+01 3.894255e+01 6.074919e+01 2.245204e+01 3.625724e+01 3.405049e+01 8.337379e+00 3.113686e-01 6.113920e-01 6.890361e-01 9.394210e-01 1.075198e+00 1.092677e+00 1.509212e+00 1.767342e+00 1.764933e+00 1.526401e+00 1.526163e+00 2.122107e+00 2.932628e-01 9.564284e-02 1.023912e-01 1.289933e-01 1.841114e-01 1.948254e-01 2.697898e-01 2.846095e-01 2.833354e-01 3.026178e-01 2.848207e-01 2.861236e-01 3.154624e-01 3.091959e-02
<GCONST> 8.997218e+01
<STATE> 4
<MEAN> 39
 -8.487267e+00 -1.496290e+01 4.398479e+00 -3.965073e+00 -1.361190e+01 4.948211e+00 -7.572260e+00 -2.805533e+00 4.140769e+00 -3.300595e+00 5.229589e+00 1.275281e+00 5.567106e+01 3.065742e-01 2.472162e-02 -4.881073e-01 -1.625106e-01 4.746177e-01 1.236329e-01 -3.867734e-01 5.316598e-01 -1.110569e-01 -7.621477e-01 -1.074228e-01 -1.276406e-01 1.076054e-02 2.242558e-03 -1.070282e-02 7.775544e-02 1.171603e-02 -1.121823e-01 4.234869e-02 4.489121e-02 -1.292380e-01 -6.497374e-02 5.934761e-02 -8.129824e-02 -8.737508e-02 2.356345e-02
<VARIANCE> 39
 7.851981e+01 6.251804e+01 5.090436e+01 3.002596e+01 1.311405e+02 2.945969e+01 1.304061e+02 1.187815e+02 3.447051e+01 1.295991e+02 1.542425e+01 1.174215e+01 4.814679e+01 2.759444e+00 3.962824e+00 2.022019e+00 1.814410e+00 1.025742e+01 3.095365e+00 7.165005e+00 5.928418e+00 3.273715e+00 6.056475e+00 2.226779e+00 1.342664e+00 2.132469e+00 3.213601e-01 6.200994e-01 3.155372e-01 3.595112e-01 1.814861e+00 5.720801e-01 1.210302e+00 1.082060e+00 5.042351e-01 1.008161e+00 4.849109e-01 2.009805e-01 2.123756e-01
<GCONST> 1.305949e+02
<STATE> 5
<MEAN> 39
 -2.715860e+00 -1.748829e+01 3.280421e+00 -6.344187e+00 -2.202883e+01 -6.433824e-01 -1.456881e+01 -9.175348e+00 -2.204819e+00 -1.105766e+01 2.927620e-01 -1.043977e+00 5.768531e+01 -1.159625e+00 3.734265e-01 -1.151026e+00 4.354743e-01 1.053031e+00 -3.551877e-02 1.062823e+00 7.167676e-01 1.072796e-01 2.958906e-01 -2.527772e-01 1.672598e-01 -6.965451e-01 -1.515684e-02 -7.239584e-03 -9.741098e-02 -6.103478e-02 5.014914e-02 -6.581821e-02 1.102983e-03 5.315914e-02 5.469524e-02 2.814846e-02 -5.468860e-03 1.863775e-02 4.651565e-02
<VARIANCE> 39
 3.701843e+01 2.823848e+01 5.090472e+01 2.209118e+01 5.410477e+01 2.714577e+01 4.569760e+01 3.740551e+01 3.114767e+01 2.460753e+01 2.500269e+01 1.661330e+01 9.136995e+00 3.262487e+00 2.033609e+00 2.750729e+00 2.001060e+00 3.693771e+00 1.822079e+00 3.350770e+00 2.436394e+00 3.020688e+00 2.141777e+00 1.525925e+00 1.826148e+00 8.037819e-01 4.811649e-01 2.671470e-01 3.893626e-01 3.400245e-01 4.359900e-01 3.101025e-01 6.168930e-01 3.727111e-01 5.714814e-01 3.940118e-01 2.526892e-01 3.613512e-01 7.053267e-02
<GCONST> 1.114709e+02
<TRANSP> 6
 0.000000e+00 1.000000e+00 0.000000e+00 0.000000e+00 0.000000e+00 0.000000e+00
 0.000000e+00 8.281250e-01 1.718750e-01 0.000000e+00 0.000000e+00 0.000000e+00
 0.000000e+00 0.000000e+00 9.320987e-01 6.172839e-03 6.172839e-02 0.000000e+00
 0.000000e+00 0.000000e+00 0.000000e+00 9.743590e-01 2.564103e-02 0.000000e+00
 0.000000e+00 0.000000e+00 0.000000e+00 0.000000e+00 9.185185e-01 8.148148e-02
 0.000000e+00 0.000000e+00 0.000000e+00 0.000000e+00 0.000000e+00 0.000000e+00
<ENDHMM>
