~o
<STREAMINFO> 1 39
<VECSIZE> 39<NULLD><MFCC_D_A_0><DIAGC>
~h "four"
<BEGINHMM>
<NUMSTATES> 6
<STATE> 2
<MEAN> 39
 8.010035e+00 -1.882199e+01 -2.165607e+00 -1.939598e+01 -2.672954e+01 1.018168e+00 -1.308312e+01 -3.472093e+00 -1.007653e+00 -1.072884e+01 4.851550e+00 -6.476890e-02 6.433710e+01 2.558942e+00 -9.256410e-01 9.532863e-01 -2.162185e+00 -2.407456e+00 2.053489e-01 -4.105046e-01 7.591026e-01 3.999386e-01 -9.807720e-01 5.881765e-01 1.388361e-01 1.741555e+00 -9.629403e-01 1.575675e-01 -4.374958e-04 6.787749e-01 7.312346e-01 5.896902e-02 2.336004e-01 7.223324e-02 1.395608e-01 2.832569e-01 -9.276448e-02 -6.330212e-02 -5.110713e-01
<VARIANCE> 39
 2.338354e+01 4.214939e+01 2.393604e+01 4.427682e+01 3.223513e+01 2.490654e+01 1.706422e+01 1.726516e+01 1.133833e+01 2.803658e+01 3.729161e+01 1.628517e+01 1.718773e+01 5.502149e+00 2.217509e+00 2.085189e+00 4.634098e+00 4.330649e+00 3.264147e+00 2.220100e+00 2.039399e+00 1.663125e+00 3.082663e+00 3.849609e+00 2.265898e+00 2.099823e+00 6.132109e-01 3.923876e-01 3.581129e-01 6.401200e-01 5.246882e-01 5.566584e-01 4.602667e-01 3.774273e-01 2.439822e-01 5.570155e-01 6.130944e-01 5.111232e-01 2.620891e-01
<GCONST> 1.160222e+02
<STATE> 3
<MEAN> 39
 9.943970e+00 -1.830644e+01 2.067863e+00 -2.332090e+01 -3.031691e+01 3.067859e-01 -1.592086e+01 8.338619e-01 8.187110e-01 -1.220933e+01 6.735418e+00 -1.625083e+00 6.482835e+01 -6.562331e-02 -1.280437e-01 -3.002105e-01 -7.096120e-02 4.517843e-01 2.576259e-01 -3.244267e-02 -2.152683e-02 -3.480065e-01 2.626947e-02 3.546346e-01 -2.638009e-02 -4.386169e-02 -1.815101e-02 8.872402e-03 -1.420928e-01 9.090466e-02 1.731271e-01 -7.021126e-03 -1.487599e-02 -6.916106e-02 -5.579358e-02 5.561801e-02 1.595869e-02 -1.811307e-02 -2.173640e-02
<VARIANCE> 39
 2.726761e+00 2.356163e+01 1.753200e+01 1.426007e+01 1.379650e+01 2.585404e+01 2.672898e+01 1.735891e+01 2.159167e+01 1.294290e+01 2.575042e+01 2.267892e+01 7.659313e+00 1.828928e-01 7.226400e-01 1.223068e+00 7.251253e-01 1.275422e+00 1.315066e+00 1.703624e+00 1.374931e+00 1.605337e+00 8.348370e-01 1.529184e+00 1.602819e+00 2.581889e-01 4.017608e-02 1.066311e-01 1.142840e-01 1.275018e-01 1.714004e-01 1.661893e-01 2.412766e-01 2.055743e-01 3.125122e-01 1.583500e-01 2.405561e-01 2.885137e-01 3.300436e-02
<GCONST> 8.114798e+01
<STATE> 4
<MEAN> 39
 8.556310e+00 -2.354363e+01 -7.763821e+00 -1.912297e+01 -1.781455e+01 3.438226e+00 -1.753334e+01 -1.348389e-02 1.612400e+00 -7.817289e+00 8.732954e+00 -4.796779e+00 6.499402e+01 -1.754738e-01 -1.982277e-01 -1.308432e-01 8.056270e-01 5.388476e-01 -5.934557e-01 -8.722873e-01 2.574298e-02 6.547305e-01 2.194433e-01 -4.971514e-01 -4.867239e-01 -2.086494e-01 -7.484686e-02 4.268761e-02 1.255067e-01 5.373967e-02 -1.148321e-01 -5.477735e-02 2.740612e-02 -7.766960e-03 -1.478652e-02 -7.502094e-02 -1.424827e-01 -8.200589e-03 -6.315915e-02
<VARIANCE> 39
 6.358099e+00 1.708322e+01 1.584733e+01 2.571830e+01 2.148445e+01 3.699876e+01 6.012486e+01 3.261115e+01 4.373299e+01 3.077890e+01 5.031132e+01 3.907129e+01 8.066840e+00 3.318722e-01 5.609771e-01 1.295977e+00 1.244863e+00 1.836164e+00 1.100540e+00 2.413091e+00 1.443518e+00 1.821569e+00 1.641520e+00 1.642958e+00 1.353044e+00 2.177457e-01 7.064997e-02 1.108438e-01 1.593878e-01 2.063591e-01 2.311848e-01 2.207632e-01 4.043196e-01 2.928797e-01 3.580359e-01 2.746543e-01 3.340682e-01 2.336306e-01 2.923028e-02
<GCONST> 9.285397e+01
<STATE> 5
<MEAN> 39
 1.087367e+00 -2.066637e+01 -5.140010e+00 -7.984878e+00 -1.305992e+01 -1.137658e+00 -2.051499e+01 -2.882462e+00 3.352628e+00 -8.265214e+00 1.598669e+00 -5.766582e+00 5.947484e+01 -2.003032e+00 1.077714e+00 -2.129374e-01 1.392857e+00 1.162218e+00 -1.275309e-01 1.317819e+00 -3.199376e-01 -6.283930e-02 5.655895e-01 -8.423999e-01 1.628427e-01 -1.184605e+00 -1.803433e-01 1.215398e-01 -1.227476e-01 -9.431174e-02 9.874648e-02 5.184386e-02 2.343448e-01 2.791812e-02 6.204161e-03 1.794610e-01 6.769615e-02 1.719826e-01 -7.525223e-02
<VARIANCE> 39
 3.297932e+01 3.228211e+01 2.299812e+01 2.890497e+01 3.720518e+01 5.300327e+01 6.048240e+01 2.855519e+01 2.859482e+01 4.539753e+01 3.365782e+01 1.717529e+01 1.030825e+01 1.134233e+00 1.008469e+00 1.062714e+00 8.883614e-01 1.562099e+00 1.653027e+00 2.450270e+00 1.751134e+00 2.002745e+00 1.947299e+00 2.314968e+00 1.987823e+00 3.186689e-01 1.893591e-01 1.430064e-01 2.076156e-01 1.949191e-01 3.058377e-01 3.113164e-01 4.845711e-01 3.115712e-01 3.475334e-01 3.297952e-01 4.596763e-01 3.393374e-01 4.430010e-02
<GCONST> 1.020757e+02
<TRANSP> 6
 0.000000e+00 1.000000e+00 0.000000e+00 0.000000e+00 0.000000e+00 0.000000e+00
 0.000000e+00 7.896585e-01 1.953157e-01 1.502582e-02 0.000000e+00 0.000000e+00
 0.000000e+00 0.000000e+00 9.300668e-01 6.993326e-02 0.000000e+00 0.000000e+00
 0.000000e+00 0.000000e+00 0.000000e+00 9.152156e-01 8.478440e-02 0.000000e+00
 0.000000e+00 0.000000e+00 0.000000e+00 0.000000e+00 8.577632e-01 1.422368e-01
 0.000000e+00 0.000000e+00 0.000000e+00 0.000000e+00 0.000000e+00 0.000000e+00
<ENDHMM>
