~o
<STREAMINFO> 1 39
<VECSIZE> 39<NULLD><MFCC_D_A_0><DIAGC>
~h "zero"
<BEGINHMM>
<NUMSTATES> 6
<STATE> 2
<MEAN> 39
 6.711535e-01 -1.703747e+01 1.077021e+01 -5.025161e+00 -2.208763e+01 -4.993646e+00 -2.305494e+01 -6.974292e+00 -7.527825e-01 -1.255796e+01 2.312358e+00 -1.809635e+00 6.036080e+01 1.432192e+00 -1.026692e+00 1.237972e+00 3.342429e-02 -1.328718e+00 -1.174017e+00 -8.967097e-01 -4.065123e-01 -6.799157e-01 -1.195544e-01 7.016675e-01 -1.276390e-01 1.342999e+00 -2.958143e-01 1.827002e-02 -2.663073e-01 -1.549372e-02 2.005934e-01 1.179013e-01 5.048149e-01 3.064603e-02 -8.344667e-02 2.304200e-01 -2.886524e-02 5.737253e-03 -5.353620e-02
<VARIANCE> 39
 2.416605e+01 7.206092e+01 3.240886e+01 1.604194e+01 4.543371e+01 4.604322e+01 5.775445e+01 3.856823e+01 3.518034e+01 3.313279e+01 3.746777e+01 3.032432e+01 2.472998e+01 3.367049e+00 1.727228e+00 1.394389e+00 1.089832e+00 2.362171e+00 5.068109e+00 7.949799e+00 2.868129e+00 2.635234e+00 2.875902e+00 3.125191e+00 1.929389e+00 7.688184e-01 5.814211e-01 1.989594e-01 3.111990e-01 1.949754e-01 4.379973e-01 7.074971e-01 9.848767e-01 5.446220e-01 4.163892e-01 4.054560e-01 4.016703e-01 3.592090e-01 1.227694e-01
<GCONST> 1.168338e+02
<STATE> 3
<MEAN> 39
 7.499589e+00 -2.445893e+01 1.086163e+01 -8.072124e+00 -2.609770e+01 -8.714447e+00 -2.178701e+01 -3.677952e+00 -2.085547e+00 -8.699674e+00 8.030359e+00 -3.458777e+00 6.909200e+01 3.261550e-01 -3.453343e-01 -1.071970e+00 -5.617016e-01 9.024711e-01 2.145885e-01 -5.264978e-01 6.976724e-01 6.397150e-01 2.676606e-01 1.800250e-01 -2.891333e-01 2.106141e-01 -5.534638e-02 5.284873e-02 -1.698365e-01 -6.678711e-02 2.252662e-01 2.853552e-01 -7.120420e-02 1.255023e-02 2.039274e-01 9.726026e-03 -1.059807e-01 -3.267879e-02 -1.379787e-01
<VARIANCE> 39
 1.256580e+01 1.498737e+01 3.175811e+01 3.134898e+01 2.952416e+01 3.972952e+01 6.299734e+01 4.839433e+01 5.543675e+01 5.891965e+01 3.090908e+01 2.492658e+01 6.573758e+00 5.891002e-01 9.635633e-01 2.337274e+00 1.307789e+00 1.861633e+00 3.260022e+00 5.050194e+00 4.054394e+00 3.329082e+00 3.087245e+00 2.821468e+00 1.851986e+00 5.903222e-01 1.358419e-01 1.961546e-01 4.173259e-01 2.103215e-01 3.134122e-01 5.679445e-01 9.794477e-01 8.830786e-01 6.390037e-01 6.098891e-01 6.229181e-01 3.876829e-01 9.841704e-02
<GCONST> 1.117489e+02
<STATE> 4
<MEAN> 39
 9.614544e+00 -2.649858e+01 -7.579439e-01 -1.488031e+01 -1.767990e+01 1.646343e+00 -2.247857e+01 -1.542665e+00 4.308899e+00 -7.058465e+00 7.063699e+00 -5.559896e+00 6.878977e+01 -3.301544e-02 1.936588e-01 -3.105341e-01 -3.113107e-01 -2.525125e-02 5.056571e-01 3.159039e-01 -1.531901e-01 -1.053046e-01 -1.100618e-02 2.314982e-02 4.069293e-02 -2.622464e-01 -4.667659e-02 7.240648e-02 5.375164e-02 7.043679e-02 -7.051226e-02 -9.347057e-02 4.319679e-02 -3.787004e-02 -1.144883e-01 -5.619052e-02 8.096395e-04 5.254736e-02 -5.501458e-02
<VARIANCE> 39
 8.917626e+00 2.554448e+01 3.245741e+01 2.309584e+01 1.823142e+01 5.311524e+01 5.566499e+01 5.298912e+01 3.838752e+01 2.677354e+01 3.217022e+01 3.203996e+01 9.878407e+00 2.946946e-01 6.648135e-01 1.037070e+00 7.006800e-01 1.192021e+00 1.615740e+00 1.936440e+00 2.488305e+00 1.900871e+00 1.658561e+00 1.680021e+00 1.824657e+00 3.160075e-01 4.827136e-02 1.096820e-01 1.430752e-01 1.383405e-01 1.952981e-01 2.482145e-01 3.539159e-01 3.254041e-01 2.743943e-01 2.472892e-01 3.069851e-01 2.729447e-01 2.999213e-02
<GCONST> 9.312058e+01
<STATE> 5
<MEAN> 39
 1.537401e+00 -1.529052e+01 -7.723088e-01 -1.051331e+01 -1.634313e+01 4.561777e+00 -1.341085e+01 -7.362147e+00 -3.482556e+00 -9.153937e+00 3.407640e+00 -4.165205e+00 5.766789e+01 -1.452480e+00 8.572469e-01 -3.671528e-01 9.758149e-01 8.723987e-01 -1.495770e-01 1.359304e+00 -1.842234e-01 -3.152869e-01 3.039278e-01 -7.403156e-01 1.777870e-01 -9.910753e-01 -7.585319e-02 -7.647835e-02 -3.187971e-02 2.333505e-02 1.057287e-01 -1.265977e-02 6.273496e-02 1.553060e-01 1.023700e-01 6.184937e-02 -4.015651e-02 -2.477166e-04 1.796729e-02
<VARIANCE> 39
 5.679797e+01 3.019188e+01 5.941306e+01 5.192802e+01 2.691708e+01 2.908485e+01 3.611996e+01 4.271149e+01 3.062599e+01 4.864225e+01 4.993331e+01 2.416686e+01 1.521684e+01 9.345968e-01 1.299817e+00 1.855060e+00 1.712287e+00 1.496934e+00 1.338712e+00 1.837163e+00 2.022579e+00 2.197870e+00 2.345549e+00 2.466253e+00 1.770617e+00 4.198171e-01 1.360852e-01 1.938860e-01 2.951136e-01 2.283188e-01 2.677576e-01 2.094795e-01 3.105452e-01 2.607833e-01 3.515803e-01 3.778105e-01 3.983164e-01 2.961807e-01 4.563507e-02
<GCONST> 1.049218e+02
<TRANSP> 6
 0.000000e+00 1.000000e+00 0.000000e+00 0.000000e+00 0.000000e+00 0.000000e+00
 0.000000e+00 8.470387e-01 1.529613e-01 0.000000e+00 0.000000e+00 0.000000e+00
 0.000000e+00 0.000000e+00 8.967953e-01 1.032047e-01 0.000000e+00 0.000000e+00
 0.000000e+00 0.000000e+00 0.000000e+00 9.510027e-01 4.899732e-02 0.000000e+00
 0.000000e+00 0.000000e+00 0.000000e+00 0.000000e+00 9.021604e-01 9.783957e-02
 0.000000e+00 0.000000e+00 0.000000e+00 0.000000e+00 0.000000e+00 0.000000e+00
<ENDHMM>
