~o
<STREAMINFO> 1 39
<VECSIZE> 39<NULLD><MFCC_D_A_0><DIAGC>
~h "eight"
<BEGINHMM>
<NUMSTATES> 6
<STATE> 2
<MEAN> 39
 2.837969e+00 -2.615039e+01 5.925588e+00 -1.246028e+01 -3.026753e+01 -5.007295e-01 -1.335089e+01 -1.236032e+00 5.333880e+00 -7.465746e+00 4.550429e+00 -1.754968e+00 6.581187e+01 2.303106e+00 -8.280149e-01 1.376082e+00 -1.523661e+00 -2.326607e+00 -5.158986e-01 -9.354658e-01 -1.053117e+00 -1.424792e-01 -2.602870e-01 2.171512e-01 -1.639181e-01 2.013489e+00 -4.824818e-01 4.234106e-01 -1.641942e-01 3.065923e-01 5.032189e-01 -1.040693e-01 1.760954e-01 -2.525652e-01 -2.612221e-01 -2.240024e-03 -1.545394e-01 6.108727e-02 -3.223605e-01
<VARIANCE> 39
 3.243853e+01 2.125197e+01 1.900845e+01 2.356869e+01 4.107441e+01 3.902971e+01 3.409961e+01 7.199002e+01 3.417080e+01 4.251374e+01 3.953050e+01 3.365040e+01 2.193877e+01 2.913161e+00 2.458019e+00 1.393624e+00 2.469998e+00 2.913486e+00 1.522544e+00 2.803018e+00 3.792555e+00 2.835760e+00 2.479313e+00 2.766455e+00 2.782817e+00 1.633604e+00 3.852196e-01 3.928019e-01 2.840190e-01 3.834310e-01 5.088309e-01 2.518346e-01 5.263628e-01 4.889720e-01 4.770346e-01 4.511505e-01 5.197304e-01 5.098938e-01 2.987158e-01
<GCONST> 1.170163e+02
<STATE> 3
<MEAN> 39
 7.015463e+00 -2.250007e+01 1.299759e+01 -1.403315e+01 -3.507655e+01 -1.614035e+00 -1.868075e+01 -1.265633e+01 1.030788e+00 -9.444887e+00 3.157880e+00 6.455021e-01 6.774384e+01 -1.247313e-01 4.570572e-01 4.527203e-01 3.761635e-01 1.751888e-01 -1.334065e-02 -4.686923e-01 -6.266578e-01 -5.011857e-01 -1.502647e-01 2.008586e-02 2.509175e-02 -4.527673e-01 -1.196237e-01 4.531288e-03 -1.098537e-01 9.565406e-02 1.559138e-01 7.331427e-02 5.946878e-02 1.092588e-01 2.033045e-02 1.054646e-02 -4.425795e-03 8.772785e-03 -1.389952e-01
<VARIANCE> 39
 7.368448e+00 1.616307e+01 1.790095e+01 1.920842e+01 1.502942e+01 3.656295e+01 3.178130e+01 4.297442e+01 6.011044e+01 2.266132e+01 3.643628e+01 3.406797e+01 8.408446e+00 3.189444e-01 6.072000e-01 6.932076e-01 9.135352e-01 1.109116e+00 1.151508e+00 1.536366e+00 1.830297e+00 1.738714e+00 1.510877e+00 1.531597e+00 2.128733e+00 3.109726e-01 1.051951e-01 1.016352e-01 1.288433e-01 1.885327e-01 1.920685e-01 2.689067e-01 3.035525e-01 2.790207e-01 3.041975e-01 2.894910e-01 2.821871e-01 3.123001e-01 3.182802e-02
<GCONST> 9.046155e+01
<STATE> 4
<MEAN> 39
 -8.484572e+00 -1.496387e+01 4.399127e+00 -3.966344e+00 -1.361349e+01 4.947533e+00 -7.575191e+00 -2.806159e+00 4.139415e+00 -3.303274e+00 5.229033e+00 1.274266e+00 5.567284e+01 3.061569e-01 2.461658e-02 -4.876547e-01 -1.620157e-01 4.740711e-01 1.238055e-01 -3.862272e-01 5.308744e-01 -1.112416e-01 -7.616895e-01 -1.078444e-01 -1.278586e-01 1.050486e-02 2.261903e-03 -1.069217e-02 7.756524e-02 1.171893e-02 -1.120584e-01 4.221774e-02 4.480658e-02 -1.290640e-01 -6.483549e-02 5.926592e-02 -8.119608e-02 -8.719567e-02 2.349842e-02
<VARIANCE> 39
 7.855170e+01 6.251358e+01 5.090195e+01 3.003103e+01 1.311362e+02 2.945811e+01 1.304373e+02 1.187686e+02 3.447592e+01 1.296306e+02 1.542549e+01 1.174739e+01 4.815802e+01 2.760040e+00 3.962235e+00 2.022991e+00 1.815595e+00 1.025779e+01 3.095083e+00 7.165746e+00 5.931339e+00 3.273463e+00 6.056764e+00 2.227673e+00 1.342906e+00 2.132514e+00 3.213094e-01 6.199981e-01 3.157040e-01 3.594586e-01 1.814663e+00 5.721400e-01 1.210172e+00 1.082065e+00 5.042676e-01 1.008045e+00 4.849124e-01 2.012092e-01 2.123661e-01
<GCONST> 1.305998e+02
<STATE> 5
<MEAN> 39
 -2.768240e+00 -1.748617e+01 3.245215e+00 -6.279905e+00 -2.197199e+01 -6.546451e-01 -1.454121e+01 -9.168678e+00 -2.205159e+00 -1.105384e+01 2.682435e-01 -1.065547e+00 5.766625e+01 -1.155951e+00 3.747083e-01 -1.157719e+00 4.359434e-01 1.052200e+00 -4.330929e-02 1.060184e+00 7.209096e-01 1.087443e-01 2.905327e-01 -2.615450e-01 1.630454e-01 -6.918521e-01 -7.329987e-03 -5.872285e-03 -9.504461e-02 -6.694427e-02 4.744092e-02 -6.595956e-02 -3.298596e-03 5.285923e-02 5.153496e-02 2.706118e-02 -4.214722e-03 1.726243e-02 4.773125e-02
<VARIANCE> 39
 3.649972e+01 2.840847e+01 5.079683e+01 2.166738e+01 5.350214e+01 2.730923e+01 4.561201e+01 3.770519e+01 3.128702e+01 2.469991e+01 2.480677e+01 1.666511e+01 9.085543e+00 3.273333e+00 2.040133e+00 2.757666e+00 2.020261e+00 3.710854e+00 1.808806e+00 3.364410e+00 2.439964e+00 3.029541e+00 2.163297e+00 1.534979e+00 1.819817e+00 8.009961e-01 4.704090e-01 2.676539e-01 3.895962e-01 3.359230e-01 4.376854e-01 3.110617e-01 6.124825e-01 3.763192e-01 5.700553e-01 3.945659e-01 2.538137e-01 3.624807e-01 7.043888e-02
<GCONST> 1.114556e+02
<TRANSP> 6
 0.000000e+00 1.000000e+00 0.000000e+00 0.000000e+00 0.000000e+00 0.000000e+00
 0.000000e+00 8.199449e-01 1.800551e-01 0.000000e+00 0.000000e+00 0.000000e+00
 0.000000e+00 0.000000e+00 9.335149e-01 6.044069e-03 6.044102e-02 0.000000e+00
 0.000000e+00 0.000000e+00 0.000000e+00 9.743631e-01 2.563692e-02 0.000000e+00
 0.000000e+00 0.000000e+00 0.000000e+00 0.000000e+00 9.181852e-01 8.181480e-02
 0.000000e+00 0.000000e+00 0.000000e+00 0.000000e+00 0.000000e+00 0.000000e+00
<ENDHMM>
