~o
<STREAMINFO> 1 39
<VECSIZE> 39<NULLD><MFCC_D_A_0><DIAGC>
~h "sil"
<BEGINHMM>
<NUMSTATES> 6
<STATE> 2
<MEAN> 39
 -9.073970e+00 -1.617599e+01 -2.502862e+00 -5.443468e+00 -1.482374e+01 -4.848788e-01 -1.007012e+01 -4.459704e+00 -2.862209e-02 -7.149691e+00 2.552488e-01 -1.087750e+00 5.382574e+01 -5.079167e-01 3.249205e-01 -2.513112e-01 7.324371e-02 4.875813e-01 -2.414750e-02 3.096654e-01 1.346599e-01 9.795646e-03 2.502996e-01 -1.479522e-02 1.154189e-01 -3.161087e-01 -1.547152e-02 1.489541e-02 3.393038e-02 -6.370692e-03 1.880783e-04 2.223699e-02 1.411154e-02 2.914228e-02 -2.721809e-03 1.136380e-02 3.414548e-02 -6.986519e-03 -3.677489e-03
<VARIANCE> 39
 2.854241e+01 4.155524e+01 3.755019e+01 2.311482e+01 5.129944e+01 4.792743e+01 4.068144e+01 3.940100e+01 3.240430e+01 3.385878e+01 3.327587e+01 2.467165e+01 1.246414e+01 1.470593e+00 1.752042e+00 1.632002e+00 1.350398e+00 2.809796e+00 2.226419e+00 2.829639e+00 2.546170e+00 2.327502e+00 2.502737e+00 2.175492e+00 1.967053e+00 5.351980e-01 1.915599e-01 2.809446e-01 2.596937e-01 2.479958e-01 4.454362e-01 3.954327e-01 5.141652e-01 4.562734e-01 4.197799e-01 4.782381e-01 4.092390e-01 3.702291e-01 8.124804e-02
<GCONST> 1.102242e+02
<STATE> 3
<MEAN> 39
 -1.770192e+01 -7.805518e+00 -4.001591e+00 -3.063818e+00 -5.410763e+00 3.857877e-01 -3.596247e+00 -1.298035e+00 1.493098e-01 -1.924921e+00 3.693839e-01 1.308999e-01 4.745828e+01 -7.773146e-01 4.004020e-01 -2.452583e-01 6.802669e-02 4.078787e-01 -1.104689e-02 3.928653e-01 1.531026e-01 -1.266359e-01 2.543225e-01 -3.196565e-02 -1.736046e-02 -3.849750e-01 1.634974e-01 -9.782267e-02 3.762282e-02 -3.279430e-02 -1.420576e-01 -2.888674e-02 -1.482369e-01 -8.433791e-02 -1.865150e-02 -1.020660e-01 -2.560239e-02 -3.207450e-02 9.760009e-02
<VARIANCE> 39
 2.256717e+01 1.292696e+01 1.767562e+01 1.209992e+01 1.563846e+01 2.421097e+01 1.650215e+01 1.850089e+01 2.166787e+01 1.929179e+01 1.757862e+01 1.474918e+01 1.388432e+01 1.666898e+00 9.217140e-01 1.238643e+00 1.113169e+00 1.723579e+00 1.887233e+00 1.907889e+00 2.074604e+00 2.064493e+00 1.975048e+00 1.725972e+00 1.447891e+00 5.547548e-01 2.395325e-01 1.420029e-01 1.897273e-01 1.801718e-01 2.678930e-01 2.922843e-01 3.285701e-01 3.558969e-01 3.558797e-01 3.405945e-01 3.114538e-01 2.555742e-01 7.393441e-02
<GCONST> 9.494263e+01
<STATE> 4
<MEAN> 39
 -2.291688e+01 -5.019030e+00 -7.112900e+00 -3.345353e+00 -4.242522e+00 -2.266936e+00 -2.810619e+00 -1.636559e+00 -1.857022e+00 -1.072910e+00 -1.210919e+00 -7.448905e-01 4.547725e+01 7.358459e-04 -4.294079e-04 -7.867158e-04 3.244412e-03 8.790316e-03 7.050860e-04 1.315405e-03 4.007633e-03 6.069885e-03 -2.504657e-02 -1.990449e-02 7.822511e-03 -7.633243e-04 2.431068e-02 -1.500868e-02 1.001703e-02 4.031858e-03 -7.401496e-03 6.405725e-03 -2.871785e-03 2.045305e-03 1.063532e-02 -1.665690e-03 9.011586e-03 8.383373e-03 1.073449e-02
<VARIANCE> 39
 1.013371e+00 2.276742e+00 4.131345e+00 6.182908e+00 8.145595e+00 1.017387e+01 1.182247e+01 1.312364e+01 1.377302e+01 1.403271e+01 1.322474e+01 1.181488e+01 1.908892e-01 1.145075e-01 2.501460e-01 4.523667e-01 6.847298e-01 9.105488e-01 1.130729e+00 1.257608e+00 1.428909e+00 1.509835e+00 1.521511e+00 1.429464e+00 1.245291e+00 2.130547e-02 3.148103e-02 5.461372e-02 9.335081e-02 1.387755e-01 1.832614e-01 2.254591e-01 2.470439e-01 2.872509e-01 2.995467e-01 3.003045e-01 2.813000e-01 2.439054e-01 6.482218e-03
<GCONST> 6.065428e+01
<STATE> 5
<MEAN> 39
 -1.144253e+01 -1.532305e+01 -1.634078e+00 -4.913091e+00 -1.185999e+01 2.024097e+00 -8.669614e+00 -2.285223e+00 1.706960e+00 -6.133910e+00 1.304908e+00 -5.474967e-01 5.285223e+01 1.103181e+00 -7.737737e-01 4.211648e-01 -2.777757e-01 -8.545505e-01 1.359318e-01 -5.748031e-01 -1.280674e-01 1.914074e-01 -3.689176e-01 1.905362e-01 -2.162701e-02 7.364579e-01 1.324868e-01 -5.099533e-02 3.391277e-02 -7.395501e-02 -9.662719e-02 -4.174991e-02 -8.132457e-02 -9.355836e-03 -1.157459e-02 -2.768084e-02 1.340702e-02 -2.012227e-02 9.480504e-02
<VARIANCE> 39
 4.907330e+01 5.279797e+01 2.896161e+01 2.240639e+01 5.569288e+01 3.571781e+01 4.098046e+01 3.134084e+01 2.670688e+01 3.246476e+01 2.270198e+01 2.039885e+01 3.043021e+01 3.234078e+00 2.099351e+00 1.690575e+00 2.050145e+00 3.161001e+00 2.553103e+00 3.232086e+00 2.473464e+00 2.288916e+00 2.370414e+00 2.133337e+00 1.890175e+00 1.376874e+00 4.364782e-01 3.220487e-01 2.802314e-01 3.201113e-01 4.985512e-01 4.394141e-01 5.608035e-01 4.619506e-01 4.383672e-01 4.280033e-01 4.108953e-01 3.745634e-01 1.759614e-01
<GCONST> 1.152903e+02
<TRANSP> 6
 0.000000e+00 4.712573e-01 5.287427e-01 0.000000e+00 0.000000e+00 0.000000e+00
 0.000000e+00 9.451434e-01 5.485660e-02 0.000000e+00 0.000000e+00 0.000000e+00
 0.000000e+00 0.000000e+00 8.084072e-01 1.881800e-01 3.412838e-03 0.000000e+00
 0.000000e+00 0.000000e+00 0.000000e+00 9.521601e-01 2.316887e-02 2.467100e-02
 0.000000e+00 0.000000e+00 0.000000e+00 0.000000e+00 9.493018e-01 5.069825e-02
 0.000000e+00 0.000000e+00 0.000000e+00 0.000000e+00 0.000000e+00 0.000000e+00
<ENDHMM>
