~o
<STREAMINFO> 1 39
<VECSIZE> 39<NULLD><MFCC_D_A_0><DIAGC>
~h "five"
<BEGINHMM>
<NUMSTATES> 6
<STATE> 2
<MEAN> 39
 6.275928e+00 -2.702590e+01 -5.897476e+00 -1.749694e+01 -1.683539e+01 1.003134e+01 -1.116341e+01 -8.317913e-01 3.166005e+00 -4.636050e+00 7.236774e+00 -5.946792e+00 6.649822e+01 2.293918e+00 -1.453522e+00 -3.361850e-01 -2.040841e+00 -2.059619e-01 1.787972e+00 -1.026224e-01 4.144715e-01 -1.691500e-01 -6.912958e-01 3.128943e-01 -9.919427e-01 2.500988e+00 -9.121300e-01 3.134265e-01 2.344493e-01 7.183073e-01 6.450858e-01 -2.641955e-02 2.977778e-01 1.050402e-01 -1.095425e-01 -2.190481e-01 -5.350868e-01 1.542554e-01 -6.255581e-01
<VARIANCE> 39
 1.883842e+01 3.064474e+01 3.131623e+01 6.348819e+01 2.664475e+01 2.979866e+01 3.602052e+01 3.172622e+01 2.287104e+01 2.668428e+01 2.745014e+01 3.234518e+01 1.949395e+01 4.955873e+00 1.773956e+00 3.057955e+00 5.316185e+00 4.128136e+00 2.679591e+00 4.372498e+00 2.961497e+00 2.311337e+00 2.327719e+00 3.921645e+00 2.144757e+00 1.927155e+00 5.676800e-01 2.372791e-01 5.745704e-01 7.207434e-01 4.506866e-01 4.624125e-01 8.403059e-01 6.181365e-01 5.252047e-01 3.874841e-01 4.442307e-01 3.472367e-01 1.800299e-01
<GCONST> 1.196314e+02
<STATE> 3
<MEAN> 39
 7.365185e+00 -3.074012e+01 -6.171446e+00 -1.832386e+01 -1.087156e+01 1.661328e+01 -1.201295e+01 -3.616764e-01 1.764301e+00 -1.028688e+01 3.616330e+00 -8.342280e+00 7.006663e+01 -1.783546e-01 -1.615921e-01 -1.719418e-02 1.829638e-01 2.019701e-01 -1.715099e-02 -9.539755e-02 1.549457e-01 8.147440e-02 -1.949694e-01 -4.287713e-01 -3.174115e-01 -7.755374e-02 -1.669711e-02 6.476147e-02 -4.965292e-03 1.182507e-02 -1.464105e-01 -1.866411e-01 -7.942287e-03 4.547001e-02 6.927619e-02 9.545883e-02 6.830281e-03 1.233275e-02 -6.900208e-02
<VARIANCE> 39
 3.766196e+00 1.004964e+01 2.561278e+01 2.933659e+01 1.954490e+01 1.192650e+01 2.813639e+01 1.319191e+01 2.678555e+01 2.442726e+01 1.880699e+01 2.768924e+01 8.085696e+00 1.780684e-01 3.655166e-01 6.836362e-01 6.754761e-01 1.199707e+00 1.042244e+00 1.772038e+00 1.656025e+00 1.272111e+00 1.492367e+00 1.288306e+00 1.212123e+00 1.331611e-01 4.467025e-02 8.459422e-02 1.341597e-01 1.189161e-01 1.669501e-01 2.194569e-01 3.247676e-01 3.517776e-01 2.220118e-01 3.037492e-01 2.692304e-01 2.198710e-01 3.153653e-02
<GCONST> 8.082310e+01
<STATE> 4
<MEAN> 39
 5.177832e+00 -3.011296e+01 -3.725867e+00 -1.575318e+01 -2.015115e+01 4.642712e+00 -1.344165e+01 6.063191e+00 7.808802e+00 -9.017837e+00 -3.572416e-01 -8.878997e+00 6.694114e+01 -2.206955e-01 6.034939e-01 5.229825e-01 3.058997e-01 -1.397070e+00 -1.863088e+00 -3.348464e-01 4.544937e-01 2.616702e-01 1.066657e-02 2.231125e-01 6.356258e-01 -6.150655e-01 -4.160845e-02 1.320006e-01 6.249099e-02 3.235624e-02 4.199431e-02 -1.198884e-02 -3.654302e-02 -1.569698e-01 -1.643415e-01 -4.160807e-02 9.646493e-02 7.005499e-02 -9.114866e-02
<VARIANCE> 39
 4.700922e+00 1.608280e+01 3.937955e+01 2.097729e+01 4.227563e+01 4.335337e+01 4.428041e+01 2.916195e+01 2.201818e+01 1.938657e+01 2.652670e+01 2.279260e+01 1.992541e+01 2.657056e-01 6.624390e-01 8.721476e-01 9.666752e-01 1.401283e+00 2.028986e+00 1.958513e+00 1.937236e+00 2.239360e+00 2.097548e+00 2.348062e+00 1.031356e+00 2.470180e-01 5.049318e-02 9.150643e-02 1.323951e-01 1.536854e-01 3.140137e-01 4.004568e-01 3.200769e-01 3.130507e-01 2.912072e-01 3.807676e-01 3.797366e-01 1.826221e-01 2.710206e-02
<GCONST> 9.223090e+01
<STATE> 5
<MEAN> 39
 1.011010e-01 -2.071117e+01 5.891243e-02 -1.121340e+01 -2.356190e+01 -6.264799e+00 -1.604747e+01 3.053394e+00 4.651565e+00 -9.401503e+00 1.977519e+00 -3.660655e+00 5.834778e+01 -1.474745e+00 1.401839e+00 -2.682943e-01 7.037002e-01 1.237022e+00 -5.491664e-02 3.830297e-01 -9.265839e-01 -5.368720e-01 2.619422e-01 -5.038816e-01 3.481066e-01 -1.406967e+00 -2.127930e-01 -3.883485e-02 -2.145734e-01 -3.529083e-02 3.539496e-01 3.400405e-01 3.155020e-01 2.688526e-02 1.214462e-02 1.479411e-01 -1.582744e-01 -2.187514e-02 -1.485995e-02
<VARIANCE> 39
 2.221340e+01 4.788588e+01 4.796570e+01 2.094156e+01 2.554456e+01 3.017618e+01 4.159073e+01 4.100504e+01 2.820345e+01 3.002438e+01 4.911395e+01 2.779934e+01 1.736190e+01 1.345240e+00 7.424740e-01 1.479447e+00 8.216455e-01 1.607552e+00 3.116201e+00 3.707982e+00 1.786036e+00 1.912098e+00 1.591865e+00 2.231618e+00 1.645784e+00 3.056536e-01 1.809510e-01 1.055043e-01 1.913347e-01 2.032491e-01 3.449466e-01 4.741781e-01 6.066467e-01 3.947184e-01 4.510004e-01 2.559721e-01 3.990200e-01 2.629059e-01 5.244141e-02
<GCONST> 1.035802e+02
<TRANSP> 6
 0.000000e+00 1.000000e+00 0.000000e+00 0.000000e+00 0.000000e+00 0.000000e+00
 0.000000e+00 7.812078e-01 2.187923e-01 0.000000e+00 0.000000e+00 0.000000e+00
 0.000000e+00 0.000000e+00 9.281299e-01 7.187012e-02 0.000000e+00 0.000000e+00
 0.000000e+00 0.000000e+00 0.000000e+00 8.986884e-01 1.013116e-01 0.000000e+00
 0.000000e+00 0.000000e+00 0.000000e+00 0.000000e+00 8.554424e-01 1.445576e-01
 0.000000e+00 0.000000e+00 0.000000e+00 0.000000e+00 0.000000e+00 0.000000e+00
<ENDHMM>
