~o
<STREAMINFO> 1 39
<VECSIZE> 39<NULLD><MFCC_D_A_0><DIAGC>
~h "three"
<BEGINHMM>
<NUMSTATES> 6
<STATE> 2
<MEAN> 39
 4.392122e-01 -2.423038e+01 8.591580e-01 -5.906779e+00 -1.907147e+01 -5.180908e-01 -1.904179e+01 -6.113910e+00 3.299628e+00 -1.005959e+01 3.466278e+00 1.323931e+00 6.142560e+01 2.304021e+00 -8.241122e-01 2.601713e-01 -2.999466e-02 -6.206003e-01 -1.283970e+00 -2.112388e+00 -6.877744e-01 -5.221410e-01 -7.856894e-01 3.810847e-01 2.411965e-02 1.374061e+00 -1.934645e-01 2.624161e-01 -1.623044e-01 2.245270e-02 2.933292e-01 -1.238662e-01 8.309591e-02 -1.368756e-02 -1.658281e-01 6.945350e-02 -2.062768e-02 -8.468806e-02 -1.097721e-01
<VARIANCE> 39
 7.396424e+01 2.636055e+01 3.628531e+01 3.336662e+01 4.375298e+01 7.176170e+01 6.902491e+01 5.359997e+01 6.395481e+01 4.076334e+01 3.605819e+01 3.138407e+01 2.116161e+01 2.892189e+00 4.098236e+00 4.567656e+00 3.168818e+00 5.700683e+00 7.133464e+00 5.974778e+00 4.223611e+00 5.468004e+00 3.126102e+00 3.776837e+00 3.506355e+00 1.339179e+00 5.935066e-01 6.381701e-01 9.210063e-01 6.103073e-01 9.247648e-01 1.488491e+00 1.270290e+00 8.255766e-01 9.332573e-01 5.668907e-01 6.444771e-01 6.697316e-01 2.200639e-01
<GCONST> 1.341914e+02
<STATE> 3
<MEAN> 39
 9.077762e+00 -2.708833e+01 2.268440e+00 -5.400889e+00 -1.927844e+01 -1.045490e+01 -2.831785e+01 -6.474234e+00 -1.931880e+00 -1.293346e+01 6.601396e+00 -6.045326e-01 6.917830e+01 -1.835539e-01 -2.192121e-01 8.820431e-01 1.008306e-01 -9.213989e-01 -3.413122e-01 6.341980e-01 1.344452e-01 -3.436251e-01 -2.087682e-01 7.889801e-02 1.583938e-01 3.481784e-01 -1.404096e-01 6.844927e-02 1.845055e-01 -2.273237e-02 -2.146065e-01 2.241147e-01 3.181726e-01 -1.326572e-01 -3.230099e-02 2.303583e-02 -6.295861e-02 7.946358e-02 -1.041223e-01
<VARIANCE> 39
 6.607172e+00 8.844737e+00 3.764903e+01 2.401846e+01 3.548388e+01 5.040020e+01 3.594598e+01 3.312242e+01 4.533252e+01 3.200864e+01 4.091795e+01 2.690607e+01 7.711873e+00 4.442334e-01 5.850645e-01 2.109806e+00 1.435990e+00 2.296643e+00 2.938968e+00 3.209230e+00 2.838453e+00 4.022716e+00 2.268141e+00 2.846134e+00 2.128016e+00 2.874984e-01 9.052386e-02 1.187329e-01 2.387098e-01 2.386132e-01 2.417295e-01 5.529314e-01 3.198956e-01 5.388902e-01 7.854666e-01 4.263944e-01 4.736297e-01 3.529931e-01 3.397299e-02
<GCONST> 1.026621e+02
<STATE> 4
<MEAN> 39
 4.539911e+00 -2.348049e+01 1.647670e+01 -6.946964e+00 -3.217907e+01 -4.898710e+00 -1.771939e+01 -1.457074e+01 -5.389184e+00 -1.225803e+01 5.262774e+00 1.202857e-01 6.813121e+01 -2.267355e-01 3.982332e-01 3.304341e-01 -8.829395e-02 -1.734774e-01 5.467014e-01 1.134345e-01 -4.639493e-01 1.100239e-02 1.457447e-01 -1.608067e-01 -1.875224e-01 -4.652548e-01 -2.752645e-02 2.060820e-02 -1.514102e-01 3.759106e-02 1.224545e-01 -4.141651e-02 -4.538930e-02 1.118776e-01 7.413587e-02 3.911367e-02 -2.664971e-02 -5.148291e-02 -6.348265e-02
<VARIANCE> 39
 1.082631e+01 1.083857e+01 1.701248e+01 1.535059e+01 1.610790e+01 4.295746e+01 3.693875e+01 5.030960e+01 4.479166e+01 3.772235e+01 3.846369e+01 3.260684e+01 1.156403e+01 3.810317e-01 5.353023e-01 1.097838e+00 8.549455e-01 1.148711e+00 1.884801e+00 2.456671e+00 2.910770e+00 1.915200e+00 1.858902e+00 1.661864e+00 1.883921e+00 3.309741e-01 7.655633e-02 8.155761e-02 1.261676e-01 1.516527e-01 2.054765e-01 2.324985e-01 4.331447e-01 3.884155e-01 3.662613e-01 3.630541e-01 2.673371e-01 3.283331e-01 2.481907e-02
<GCONST> 9.347783e+01
<STATE> 5
<MEAN> 39
 -3.945538e+00 -1.664186e+01 9.161389e+00 -5.424989e+00 -2.620093e+01 7.859426e-01 -1.238656e+01 -1.107049e+01 -2.418315e+00 -1.036650e+01 6.082075e-01 -9.240833e-01 5.741799e+01 -1.460467e+00 8.386015e-01 -1.520888e+00 1.355066e-01 1.513667e+00 1.965284e-01 1.159972e+00 9.313732e-01 2.152378e-01 5.464177e-01 -3.072216e-01 -3.336939e-02 -9.656340e-01 -1.411052e-02 -4.937238e-02 -1.091821e-01 -1.764278e-02 2.114833e-01 -1.125049e-01 -3.474516e-02 6.454375e-02 -1.261443e-02 3.550463e-02 8.461946e-02 9.464057e-02 5.581975e-02
<VARIANCE> 39
 3.063166e+01 3.464508e+01 5.614684e+01 1.379537e+01 6.500727e+01 4.016084e+01 8.033942e+01 7.723914e+01 5.108239e+01 3.661792e+01 3.377460e+01 2.667900e+01 1.234390e+01 9.482293e-01 9.311634e-01 1.736467e+00 1.110413e+00 2.965822e+00 2.364726e+00 3.243865e+00 2.808365e+00 2.490448e+00 2.126909e+00 1.662203e+00 2.048770e+00 2.807301e-01 1.666202e-01 1.230388e-01 2.683207e-01 1.865361e-01 4.424949e-01 3.906160e-01 6.165447e-01 5.160752e-01 4.150149e-01 3.546722e-01 3.314245e-01 3.716992e-01 3.348835e-02
<GCONST> 1.078704e+02
<TRANSP> 6
 0.000000e+00 1.000000e+00 0.000000e+00 0.000000e+00 0.000000e+00 0.000000e+00
 0.000000e+00 8.735833e-01 1.264167e-01 0.000000e+00 0.000000e+00 0.000000e+00
 0.000000e+00 0.000000e+00 9.078172e-01 9.218280e-02 0.000000e+00 0.000000e+00
 0.000000e+00 0.000000e+00 0.000000e+00 9.419740e-01 5.802599e-02 0.000000e+00
 0.000000e+00 0.000000e+00 0.000000e+00 0.000000e+00 8.834469e-01 1.165531e-01
 0.000000e+00 0.000000e+00 0.000000e+00 0.000000e+00 0.000000e+00 0.000000e+00
<ENDHMM>
