~o
<STREAMINFO> 1 39
<VECSIZE> 39<NULLD><MFCC_D_A_0><DIAGC>
~h "two"
<BEGINHMM>
<NUMSTATES> 6
<STATE> 2
<MEAN> 39
 2.372925e+00 -2.564162e+01 1.089391e+01 -5.806448e+00 -2.504700e+01 -2.467714e+00 -1.794675e+01 -5.822535e+00 2.788269e-01 -1.123792e+01 3.829015e+00 -1.916041e+00 6.541007e+01 1.675488e+00 1.788303e-01 1.113245e+00 -4.061379e-01 -7.951946e-01 -1.408180e+00 -1.674390e+00 -5.450516e-01 -8.703403e-01 -4.691200e-01 1.829391e-01 -6.215134e-01 1.209624e+00 -2.208077e-01 1.468772e-01 -2.291727e-01 -5.266529e-02 2.158438e-01 1.235131e-01 1.384857e-01 9.069148e-02 3.555436e-02 1.640551e-01 5.048710e-02 -1.119166e-01 -1.477611e-01
<VARIANCE> 39
 3.444029e+01 2.009251e+01 2.581855e+01 2.722274e+01 3.209396e+01 5.469947e+01 6.336958e+01 4.333637e+01 2.559694e+01 5.231144e+01 2.666983e+01 4.782880e+01 1.190897e+01 1.737784e+00 2.545354e+00 2.174805e+00 2.513688e+00 2.003241e+00 2.935092e+00 4.079562e+00 3.862599e+00 2.877593e+00 2.709599e+00 2.679158e+00 2.987810e+00 8.318106e-01 4.485715e-01 4.660073e-01 3.226961e-01 3.566539e-01 4.069499e-01 5.957461e-01 6.892350e-01 6.808544e-01 5.390611e-01 5.072679e-01 4.921525e-01 5.361084e-01 1.980134e-01
<GCONST> 1.185033e+02
<STATE> 3
<MEAN> 39
 8.776630e+00 -2.412166e+01 1.039828e+01 -6.708596e+00 -2.485614e+01 -7.848142e+00 -2.594463e+01 -8.304894e+00 -3.389308e+00 -1.199377e+01 6.635214e+00 -4.399648e+00 6.879601e+01 1.444710e-01 9.661064e-02 -5.208000e-01 -1.907921e-01 4.644664e-01 2.617799e-01 -3.292691e-01 -3.657966e-01 -1.246525e-01 2.471662e-01 2.560955e-01 -1.922905e-02 -1.571355e-01 -2.930388e-02 2.932941e-02 -4.522983e-02 -3.758942e-03 4.536510e-02 7.177831e-02 1.268363e-02 -5.960551e-02 1.560608e-02 -1.719202e-02 -2.093079e-02 8.783993e-02 -8.637749e-02
<VARIANCE> 39
 7.190545e+00 8.727143e+00 1.290912e+01 1.586385e+01 3.401154e+01 3.943794e+01 6.110346e+01 5.454231e+01 1.776445e+01 3.499345e+01 2.544376e+01 3.963154e+01 3.544325e+00 2.403942e-01 4.733515e-01 5.043967e-01 5.594063e-01 6.414306e-01 1.206254e+00 1.500334e+00 1.973073e+00 1.100760e+00 1.279233e+00 9.770321e-01 1.800304e+00 1.314880e-01 6.469655e-02 8.799700e-02 1.147324e-01 1.147439e-01 1.036949e-01 2.037763e-01 2.428993e-01 2.818921e-01 1.538400e-01 2.438354e-01 1.764032e-01 2.773469e-01 2.862551e-02
<GCONST> 8.144230e+01
<STATE> 4
<MEAN> 39
 1.011922e+01 -2.141654e+01 4.815777e+00 -1.281801e+01 -2.018260e+01 -1.357081e+00 -2.851651e+01 -1.131194e+01 -4.842648e+00 -1.075381e+01 9.224198e+00 -4.097419e+00 6.558447e+01 -7.263270e-02 5.204367e-01 -2.868077e-01 -4.393374e-01 2.953355e-01 7.708676e-01 1.674063e-01 -3.565725e-02 -6.313852e-01 -4.303972e-01 6.742455e-02 -4.281163e-02 -6.257223e-01 -1.356483e-01 8.571857e-02 1.819496e-02 1.849433e-01 -3.831989e-02 -1.591101e-02 2.882104e-01 1.625305e-01 7.332021e-02 1.396506e-02 -1.286169e-01 -2.490367e-02 -8.113752e-02
<VARIANCE> 39
 4.148433e+00 1.722617e+01 2.319355e+01 2.067988e+01 1.649054e+01 2.374863e+01 2.269302e+01 4.178462e+01 6.642879e+01 3.305360e+01 3.612897e+01 1.745932e+01 9.224494e+00 2.666519e-01 5.770403e-01 1.038864e+00 8.066044e-01 8.968390e-01 1.349332e+00 1.891862e+00 2.235521e+00 2.336125e+00 1.158603e+00 2.322987e+00 1.612510e+00 2.260316e-01 7.374243e-02 1.238679e-01 1.733601e-01 1.397565e-01 1.664596e-01 2.392590e-01 2.620607e-01 3.748700e-01 3.439699e-01 1.992274e-01 3.551528e-01 3.176517e-01 2.579062e-02
<GCONST> 8.924120e+01
<STATE> 5
<MEAN> 39
 3.545643e+00 -1.317002e+01 2.772686e+00 -9.979279e+00 -1.726037e+01 2.249048e+00 -1.852772e+01 -9.316555e+00 -7.287166e+00 -1.252000e+01 3.616150e+00 -3.846353e+00 5.808982e+01 -1.893122e+00 9.755996e-01 -9.028893e-01 7.150435e-01 8.582606e-01 -1.756455e-01 1.896774e+00 7.069106e-01 7.556322e-01 8.187022e-01 -8.440541e-01 4.362727e-01 -9.946048e-01 -1.971249e-01 -8.287853e-02 -1.017860e-01 3.961418e-02 1.748927e-01 -1.442222e-01 -4.153452e-02 -4.473696e-03 1.183729e-01 7.639538e-02 -1.809784e-02 9.203181e-02 1.378957e-02
<VARIANCE> 39
 2.640779e+01 3.266051e+01 3.280244e+01 3.115270e+01 3.429554e+01 2.332727e+01 5.001804e+01 3.437202e+01 2.698335e+01 3.553608e+01 4.165109e+01 2.765837e+01 1.047944e+01 1.459206e+00 8.872638e-01 1.555184e+00 1.474693e+00 1.661806e+00 1.727282e+00 2.645846e+00 2.287799e+00 1.524137e+00 2.406427e+00 2.508420e+00 1.498489e+00 2.908165e-01 2.038698e-01 1.338279e-01 2.719012e-01 2.585175e-01 2.340515e-01 3.867956e-01 5.600837e-01 3.740788e-01 2.898869e-01 4.452251e-01 4.451326e-01 2.414424e-01 3.147696e-02
<GCONST> 1.031391e+02
<TRANSP> 6
 0.000000e+00 1.000000e+00 0.000000e+00 0.000000e+00 0.000000e+00 0.000000e+00
 0.000000e+00 8.595068e-01 1.404933e-01 0.000000e+00 0.000000e+00 0.000000e+00
 0.000000e+00 0.000000e+00 9.067939e-01 9.320612e-02 0.000000e+00 0.000000e+00
 0.000000e+00 0.000000e+00 0.000000e+00 8.779764e-01 1.220236e-01 0.000000e+00
 0.000000e+00 0.000000e+00 0.000000e+00 0.000000e+00 8.644049e-01 1.355951e-01
 0.000000e+00 0.000000e+00 0.000000e+00 0.000000e+00 0.000000e+00 0.000000e+00
<ENDHMM>
