~o
<STREAMINFO> 1 39
<VECSIZE> 39<NULLD><MFCC_D_A_0><DIAGC>
~h "seven"
<BEGINHMM>
<NUMSTATES> 6
<STATE> 2
<MEAN> 39
 4.135885e+00 -2.365958e+01 -4.664254e+00 -9.119627e+00 -1.985007e+01 -5.239323e+00 -1.653600e+01 -9.124280e-01 4.393639e+00 -4.564616e+00 2.409152e+00 -6.242466e+00 6.288362e+01 1.932057e+00 -8.662072e-01 2.079282e-01 -1.219605e+00 -9.642050e-01 -4.458960e-01 -9.054752e-01 5.836181e-01 3.911825e-01 -1.868993e-02 -9.001137e-02 -1.080639e+00 1.425031e+00 -2.961620e-01 4.441190e-02 -1.337531e-01 7.375358e-02 2.174738e-01 1.960074e-01 4.091025e-01 1.436603e-01 -2.575746e-02 -4.770980e-02 -2.027004e-01 -1.020271e-01 -1.196114e-01
<VARIANCE> 39
 6.559301e+01 2.975178e+01 7.428093e+01 3.233973e+01 2.550745e+01 6.335535e+01 5.011578e+01 4.000777e+01 5.210704e+01 5.321171e+01 2.082183e+01 4.603104e+01 1.806041e+01 6.015120e+00 2.932148e+00 5.935465e+00 2.248459e+00 2.799124e+00 6.639590e+00 5.850139e+00 3.259982e+00 2.844091e+00 3.797856e+00 3.031691e+00 3.252630e+00 2.138318e+00 7.896978e-01 2.841093e-01 9.226066e-01 4.347346e-01 5.173135e-01 9.299222e-01 1.132185e+00 5.289747e-01 3.989043e-01 6.474738e-01 5.212790e-01 4.771449e-01 2.482790e-01
<GCONST> 1.286847e+02
<STATE> 3
<MEAN> 39
 7.184921e+00 -2.935900e+01 -2.645039e+00 -1.501785e+01 -2.088674e+01 3.694895e-01 -1.501312e+01 6.521498e+00 9.291890e+00 -6.900786e+00 -7.585778e-01 -1.072192e+01 6.913335e+01 -1.290232e-01 -3.777467e-02 7.712637e-02 2.078740e-01 1.315326e-01 6.071200e-02 -2.017549e-01 -2.212732e-01 1.558358e-02 4.463916e-02 1.054155e-02 -8.925294e-02 -1.066096e-01 -1.126186e-01 1.419944e-01 1.246590e-01 1.408240e-01 -4.845551e-02 -1.794157e-01 -2.643130e-01 -2.276780e-01 -1.428702e-01 -5.085005e-02 1.667656e-01 1.726740e-01 -2.017534e-01
<VARIANCE> 39
 9.844427e+00 3.098517e+01 1.801936e+01 1.450019e+01 7.875764e+00 2.856400e+01 3.315788e+01 4.062146e+01 6.880395e+01 3.211073e+01 4.513442e+01 1.872388e+01 5.752039e+00 2.491921e-01 7.216220e-01 1.218668e+00 6.064532e-01 9.405710e-01 1.617111e+00 3.037379e+00 3.356206e+00 1.988424e+00 2.140646e+00 3.372432e+00 8.406280e-01 6.454244e-01 1.016310e-01 1.284178e-01 2.041659e-01 1.597321e-01 1.425561e-01 2.158378e-01 3.719848e-01 6.197225e-01 4.607984e-01 3.927462e-01 4.807059e-01 2.028033e-01 1.294183e-01
<GCONST> 9.575716e+01
<STATE> 4
<MEAN> 39
 4.711231e+00 -2.576844e+01 -1.467320e+00 -1.039276e+01 -2.441039e+01 -3.688625e+00 -1.941932e+01 -2.922151e+00 7.485768e+00 -8.641530e+00 -1.867850e+00 -4.359298e+00 6.361951e+01 -4.142322e-01 5.668097e-01 -5.546501e-02 6.034844e-01 2.574983e-02 -2.329467e-01 9.576257e-02 -6.231342e-01 -5.266497e-01 -1.849297e-01 -2.193974e-01 1.533479e-01 -6.300194e-01 -8.425932e-02 1.490927e-01 -1.544264e-02 2.213641e-02 1.325224e-01 2.869318e-02 1.147764e-01 -1.259188e-02 -6.072963e-02 9.103028e-02 -8.598220e-03 -3.647347e-02 -3.962147e-02
<VARIANCE> 39
 1.761954e+01 1.381284e+01 2.747193e+01 2.700277e+01 1.389650e+01 2.333495e+01 3.550049e+01 3.820375e+01 6.188430e+01 4.220097e+01 2.980197e+01 3.677910e+01 1.107067e+01 1.263842e+00 1.112218e+00 1.305964e+00 1.169268e+00 1.206068e+00 1.408059e+00 2.450433e+00 3.084701e+00 2.446997e+00 1.953927e+00 2.021678e+00 1.995873e+00 8.246700e-01 1.825402e-01 1.482244e-01 2.017221e-01 2.003993e-01 2.112047e-01 2.350900e-01 4.122266e-01 5.027545e-01 4.921109e-01 4.217121e-01 3.829013e-01 3.631476e-01 1.179269e-01
<GCONST> 1.030518e+02
<STATE> 5
<MEAN> 39
 -1.879119e+00 -1.308071e+01 5.982378e-01 -5.611245e+00 -1.929752e+01 -5.911137e+00 -1.642174e+01 -7.920896e+00 -2.401413e+00 -9.640568e+00 -2.933100e+00 -6.122526e+00 5.594198e+01 -1.301877e+00 1.045802e+00 -1.301472e-01 4.612531e-01 9.387694e-01 -1.384161e-01 9.171277e-01 4.175349e-03 -3.111577e-01 2.351740e-01 -2.871607e-01 4.111027e-01 -8.503259e-01 -3.377135e-02 -1.507638e-01 -1.194659e-01 -1.180645e-01 2.385898e-02 1.250635e-01 1.398107e-01 2.307216e-01 1.335771e-01 -6.225134e-03 -3.110694e-03 6.423741e-02 3.631704e-02
<VARIANCE> 39
 3.579658e+01 3.373224e+01 2.410259e+01 1.964108e+01 2.864327e+01 2.535140e+01 4.057914e+01 1.633315e+01 3.071696e+01 3.147333e+01 2.930926e+01 2.156214e+01 7.685514e+00 1.438345e+00 1.628579e+00 9.413024e-01 1.419592e+00 2.206462e+00 1.780811e+00 3.050932e+00 1.981382e+00 1.612201e+00 1.875384e+00 2.680854e+00 2.135232e+00 3.423635e-01 2.840299e-01 2.486233e-01 2.089698e-01 2.475437e-01 4.323179e-01 3.381870e-01 5.893124e-01 3.317016e-01 2.961801e-01 3.960659e-01 6.007110e-01 3.772474e-01 6.988008e-02
<GCONST> 1.040121e+02
<TRANSP> 6
 0.000000e+00 1.000000e+00 0.000000e+00 0.000000e+00 0.000000e+00 0.000000e+00
 0.000000e+00 8.705903e-01 1.035362e-01 2.587357e-02 0.000000e+00 0.000000e+00
 0.000000e+00 0.000000e+00 9.108341e-01 8.916590e-02 0.000000e+00 0.000000e+00
 0.000000e+00 0.000000e+00 0.000000e+00 9.080715e-01 9.192849e-02 0.000000e+00
 0.000000e+00 0.000000e+00 0.000000e+00 0.000000e+00 8.938636e-01 1.061364e-01
 0.000000e+00 0.000000e+00 0.000000e+00 0.000000e+00 0.000000e+00 0.000000e+00
<ENDHMM>
