~o
<STREAMINFO> 1 39
<VECSIZE> 39<NULLD><MFCC_D_A_0><DIAGC>
~h "one"
<BEGINHMM>
<NUMSTATES> 6
<STATE> 2
<MEAN> 39
 6.520035e+00 -1.519595e+01 2.396597e+00 -1.850727e+01 -2.728845e+01 -1.377082e+00 -1.654119e+01 -7.763527e-01 1.294238e+00 -1.081829e+01 3.683809e+00 -3.642077e+00 6.135401e+01 1.538424e+00 -1.397051e+00 -2.520602e-01 -1.595464e+00 -6.742601e-01 1.006702e+00 2.903911e-01 8.407367e-01 2.791804e-01 -2.943090e-01 5.281537e-01 -5.269223e-02 1.507656e+00 -4.949174e-01 -1.464276e-01 -2.571924e-01 3.279881e-01 6.676181e-01 4.004791e-01 3.798054e-01 -8.864979e-02 -5.751572e-02 9.325093e-02 -4.152678e-03 1.497766e-01 -8.691999e-02
<VARIANCE> 39
 1.903312e+01 3.767812e+01 4.339321e+01 4.111035e+01 2.696171e+01 2.741103e+01 6.232039e+01 3.958274e+01 2.802493e+01 2.347276e+01 2.951189e+01 2.042485e+01 2.421263e+01 3.585990e+00 1.547990e+00 3.661963e+00 2.796107e+00 5.406917e+00 3.162365e+00 6.094871e+00 3.015047e+00 2.800727e+00 2.521161e+00 2.785876e+00 2.282406e+00 4.227620e-01 4.181530e-01 2.531431e-01 3.490444e-01 5.988298e-01 4.356622e-01 3.522754e-01 7.477109e-01 8.151335e-01 5.772985e-01 4.355126e-01 4.301046e-01 4.530234e-01 6.910470e-02
<GCONST> 1.170974e+02
<STATE> 3
<MEAN> 39
 7.893354e+00 -2.856651e+01 -5.137517e+00 -1.865620e+01 -1.484963e+01 1.334141e+01 -1.284713e+01 -1.820075e+00 2.516917e+00 -1.124449e+01 3.901228e+00 -3.173825e+00 7.013193e+01 -1.163266e-01 -5.993763e-01 -3.708495e-01 6.551936e-01 7.901160e-01 2.014695e-01 -3.610111e-01 -3.960424e-01 2.030390e-01 -1.057577e-01 -3.209779e-01 4.358385e-02 9.082770e-02 -1.975382e-02 1.457420e-01 1.399272e-01 5.566879e-02 -2.326744e-01 -3.315608e-01 -1.188326e-01 9.213750e-02 6.960909e-02 -4.531460e-03 -6.242225e-02 -1.664546e-02 -1.192190e-01
<VARIANCE> 39
 3.904250e+00 1.527486e+01 3.989504e+01 5.546261e+01 5.941054e+01 3.139426e+01 4.143015e+01 4.665661e+01 2.317976e+01 3.249030e+01 3.194288e+01 3.046982e+01 1.129520e+01 1.863239e-01 6.824451e-01 1.232969e+00 1.483274e+00 2.059792e+00 3.623207e+00 2.626194e+00 2.722509e+00 1.749882e+00 2.896850e+00 2.178143e+00 2.274862e+00 2.491320e-01 3.559780e-02 8.936302e-02 2.209726e-01 2.497018e-01 1.776746e-01 2.781190e-01 3.605274e-01 4.158517e-01 2.784569e-01 5.069784e-01 3.334883e-01 4.020346e-01 3.042706e-02
<GCONST> 9.783442e+01
<STATE> 4
<MEAN> 39
 6.703659e+00 -2.887205e+01 -2.510536e+00 -1.320844e+01 -1.940539e+01 3.038481e+00 -1.786693e+01 -1.192826e+00 3.346592e+00 -1.343439e+01 1.681010e+00 -2.404915e+00 6.672431e+01 -5.639265e-01 1.015463e+00 1.427801e+00 9.448485e-01 -1.140146e+00 -1.413750e+00 -7.161174e-01 -4.595162e-01 -5.896005e-01 5.832784e-02 -9.209380e-02 -4.454350e-01 -1.049659e+00 -1.771047e-01 3.270687e-01 8.611084e-02 1.979489e-01 2.298878e-01 1.500414e-01 5.311519e-02 -3.748369e-01 -3.114673e-01 9.911971e-02 2.595963e-03 -1.378285e-01 -1.974697e-01
<VARIANCE> 39
 5.224267e+00 1.336378e+01 3.353796e+01 1.694118e+01 3.120393e+01 1.880376e+01 3.226818e+01 2.985956e+01 6.241005e+01 2.743185e+01 4.935447e+01 4.757821e+01 8.908151e+00 5.657563e-01 8.523788e-01 6.513734e-01 2.232074e+00 1.213456e+00 1.529432e+00 2.024423e+00 2.951158e+00 1.739907e+00 1.832523e+00 1.898255e+00 1.744338e+00 4.235581e-01 4.409888e-02 7.148440e-02 2.129121e-01 3.110915e-01 2.112516e-01 2.704648e-01 5.064259e-01 3.705818e-01 3.128386e-01 3.752229e-01 4.018950e-01 3.294830e-01 7.362538e-02
<GCONST> 9.667068e+01
<STATE> 5
<MEAN> 39
 1.026189e+00 -1.621931e+01 4.551682e+00 -5.151943e+00 -1.949821e+01 -2.793418e+00 -1.885832e+01 -7.967055e+00 -2.897415e+00 -1.282855e+01 -2.066474e+00 -5.225571e+00 5.776532e+01 -1.045266e+00 1.210467e+00 -4.570971e-02 5.306212e-01 7.127133e-01 -6.592923e-02 7.344616e-01 -3.772229e-01 -4.207286e-01 2.898126e-01 -4.466916e-01 3.135887e-02 -8.692645e-01 -3.190405e-02 -9.152397e-02 -2.152400e-01 -1.878752e-01 7.860459e-02 7.698154e-02 2.046033e-01 2.614592e-01 1.349866e-01 1.074464e-01 9.101436e-02 1.040009e-01 4.879229e-02
<VARIANCE> 39
 2.230921e+01 3.185219e+01 4.620450e+01 1.552039e+01 4.169711e+01 2.575365e+01 3.084756e+01 5.465483e+01 4.772057e+01 4.841706e+01 3.449558e+01 3.210335e+01 9.444977e+00 1.087016e+00 1.478572e+00 1.656811e+00 1.467177e+00 2.310205e+00 1.533494e+00 2.575741e+00 3.630216e+00 3.426125e+00 2.893834e+00 2.065554e+00 2.455546e+00 3.541879e-01 1.440882e-01 1.969131e-01 1.959981e-01 2.219685e-01 3.478185e-01 2.786289e-01 3.224359e-01 4.774030e-01 4.733044e-01 4.770344e-01 2.845283e-01 3.991075e-01 4.816962e-02
<GCONST> 1.063720e+02
<TRANSP> 6
 0.000000e+00 1.000000e+00 0.000000e+00 0.000000e+00 0.000000e+00 0.000000e+00
 0.000000e+00 8.613300e-01 1.287650e-01 9.904986e-03 0.000000e+00 0.000000e+00
 0.000000e+00 0.000000e+00 9.274155e-01 7.258453e-02 0.000000e+00 0.000000e+00
 0.000000e+00 0.000000e+00 0.000000e+00 8.285678e-01 1.714322e-01 0.000000e+00
 0.000000e+00 0.000000e+00 0.000000e+00 0.000000e+00 8.882450e-01 1.117549e-01
 0.000000e+00 0.000000e+00 0.000000e+00 0.000000e+00 0.000000e+00 0.000000e+00
<ENDHMM>
