~o
<STREAMINFO> 1 39
<VECSIZE> 39<NULLD><MFCC_D_A_0><DIAGC>
~h "nine"
<BEGINHMM>
<NUMSTATES> 6
<STATE> 2
<MEAN> 39
 6.085541e+00 -2.237802e+01 2.381695e+00 -6.744298e+00 -2.068125e+01 -1.809782e+00 -1.841733e+01 -5.102667e+00 1.081307e-01 -1.258445e+01 -8.564196e-01 -3.956026e+00 6.323747e+01 1.475647e+00 -2.225967e+00 -4.892982e-01 -1.021864e+00 1.842760e-01 7.480214e-01 -6.409622e-01 1.172789e+00 8.007951e-01 -3.281412e-01 6.412269e-04 -8.871054e-01 1.700544e+00 -4.251961e-01 1.876461e-01 -1.999410e-01 -7.621662e-03 5.432073e-01 1.996150e-01 1.397573e-01 3.433300e-02 9.550186e-02 2.347213e-01 3.601889e-02 -4.357046e-02 -2.002743e-01
<VARIANCE> 39
 2.763357e+01 6.519254e+01 4.599032e+01 3.383413e+01 3.016160e+01 3.852279e+01 4.586087e+01 8.304433e+01 4.707623e+01 2.608346e+01 4.492802e+01 3.375982e+01 2.704959e+01 2.875602e+00 2.103688e+00 4.162438e+00 1.670475e+00 3.961456e+00 4.288194e+00 4.614313e+00 6.818868e+00 2.734901e+00 1.929006e+00 2.884585e+00 2.091010e+00 9.379402e-01 2.777470e-01 3.380446e-01 7.046477e-01 3.371539e-01 4.597251e-01 7.231964e-01 7.466268e-01 1.292079e+00 5.141523e-01 3.734031e-01 5.217276e-01 4.578822e-01 1.312419e-01
<GCONST> 1.229250e+02
<STATE> 3
<MEAN> 39
 7.298347e+00 -3.144792e+01 -3.434292e+00 -1.312314e+01 -1.198300e+01 6.483192e+00 -2.078904e+01 6.902881e-01 5.279534e+00 -1.114774e+01 3.162314e-01 -9.109560e+00 6.908388e+01 -1.189726e-01 8.647975e-02 1.446804e-01 1.288898e-01 3.595887e-03 -1.998941e-01 -1.330447e-01 2.432873e-01 1.872679e-01 -1.963978e-01 -5.928405e-02 1.430896e-01 -1.139348e-01 -1.615994e-02 1.000393e-01 8.116592e-02 1.208791e-01 -2.817807e-01 -2.534166e-01 1.459020e-01 2.955186e-02 -6.441667e-02 -8.223940e-02 -1.305309e-02 1.785344e-01 -9.468587e-02
<VARIANCE> 39
 6.776010e+00 1.182323e+01 1.813679e+01 1.960592e+01 1.144447e+01 3.887182e+01 2.456902e+01 5.119881e+01 3.252657e+01 3.018852e+01 3.538937e+01 1.870743e+01 4.646457e+00 2.167035e-01 5.845724e-01 8.390865e-01 8.906822e-01 2.088378e+00 1.974174e+00 1.813350e+00 1.896209e+00 1.731026e+00 1.720488e+00 1.408724e+00 1.997908e+00 1.555441e-01 4.175898e-02 1.452416e-01 1.127841e-01 1.226349e-01 2.299091e-01 1.463254e-01 2.864437e-01 3.056773e-01 3.368277e-01 2.578645e-01 2.576908e-01 3.059214e-01 2.621602e-02
<GCONST> 8.681114e+01
<STATE> 4
<MEAN> 39
 5.150163e+00 -2.710449e+01 2.657177e+00 -9.978598e+00 -2.258090e+01 -1.677129e+00 -1.668444e+01 3.593268e+00 5.151538e+00 -1.387054e+01 1.704421e+00 -2.707666e+00 6.543887e+01 -3.515113e-01 9.208885e-01 7.214015e-01 2.411161e-01 -1.066940e+00 -4.166652e-01 5.380976e-01 -6.221302e-01 -6.032460e-01 3.214149e-01 3.470119e-01 2.189602e-01 -6.136122e-01 -5.889580e-02 1.568224e-01 -3.623288e-02 -7.441186e-03 1.766523e-01 1.018230e-01 -1.146387e-01 -2.056489e-01 -1.115139e-01 5.767092e-02 9.698378e-03 -7.491887e-02 -5.409124e-02
<VARIANCE> 39
 7.710791e+00 2.338331e+01 2.006375e+01 1.570787e+01 3.715597e+01 3.396442e+01 2.499448e+01 2.921969e+01 5.148791e+01 3.223391e+01 4.751363e+01 3.967599e+01 8.752445e+00 2.659784e-01 1.091636e+00 5.564496e-01 8.603078e-01 1.129495e+00 1.497713e+00 1.789571e+00 2.633159e+00 1.748477e+00 1.539373e+00 1.802902e+00 1.123534e+00 2.697909e-01 5.409703e-02 1.348090e-01 1.243668e-01 1.436488e-01 1.590628e-01 1.765665e-01 2.260407e-01 4.108841e-01 3.505416e-01 3.244974e-01 2.904147e-01 2.432057e-01 2.963416e-02
<GCONST> 9.073514e+01
<STATE> 5
<MEAN> 39
 -5.280601e-01 -1.351454e+01 4.509309e+00 -4.938850e+00 -2.200402e+01 -5.626316e+00 -1.671424e+01 -7.660943e+00 -2.681762e+00 -1.255886e+01 -9.971606e-01 -2.472598e+00 5.696534e+01 -1.243886e+00 1.206290e+00 -5.361830e-01 6.092659e-01 1.258101e+00 -1.740366e-01 3.552575e-01 -4.425524e-01 -3.334613e-01 2.418564e-01 -4.503595e-01 2.196808e-01 -9.468400e-01 -1.531848e-01 -1.815410e-01 -1.670013e-01 -6.543332e-02 1.599020e-01 7.994117e-02 1.759938e-01 2.686891e-01 1.547361e-01 1.115490e-01 -1.614098e-02 -1.243272e-02 2.381615e-02
<VARIANCE> 39
 1.406568e+01 3.738184e+01 2.587168e+01 2.288595e+01 5.975812e+01 5.906612e+01 3.741170e+01 4.281622e+01 2.938082e+01 2.250173e+01 3.778507e+01 2.741258e+01 1.035582e+01 8.825824e-01 1.034609e+00 1.581697e+00 8.105078e-01 1.515840e+00 1.729830e+00 2.529224e+00 3.421121e+00 2.338156e+00 2.343791e+00 1.877673e+00 2.495114e+00 2.078255e-01 1.052847e-01 1.241257e-01 2.379868e-01 1.775751e-01 2.650118e-01 2.332904e-01 4.668373e-01 6.029523e-01 3.305273e-01 4.379622e-01 3.315052e-01 3.862366e-01 2.492983e-02
<GCONST> 1.013695e+02
<TRANSP> 6
 0.000000e+00 1.000000e+00 0.000000e+00 0.000000e+00 0.000000e+00 0.000000e+00
 0.000000e+00 8.673916e-01 1.326084e-01 0.000000e+00 0.000000e+00 0.000000e+00
 0.000000e+00 0.000000e+00 9.201467e-01 7.985327e-02 0.000000e+00 0.000000e+00
 0.000000e+00 0.000000e+00 0.000000e+00 8.990689e-01 1.009311e-01 0.000000e+00
 0.000000e+00 0.000000e+00 0.000000e+00 0.000000e+00 8.795325e-01 1.204675e-01
 0.000000e+00 0.000000e+00 0.000000e+00 0.000000e+00 0.000000e+00 0.000000e+00
<ENDHMM>
