~o
<STREAMINFO> 1 39
<VECSIZE> 39<NULLD><MFCC_D_A_0><DIAGC>
~h "six"
<BEGINHMM>
<NUMSTATES> 6
<STATE> 2
<MEAN> 39
 5.264838e-01 -2.190820e+01 2.859395e+00 -5.101627e+00 -2.392172e+01 -3.337203e+00 -1.203217e+01 -7.862460e+00 5.871284e-01 -7.901645e+00 8.805468e-01 7.651615e-01 6.141247e+01 2.140019e+00 -5.479892e-01 7.005465e-02 -4.423711e-01 -1.730429e+00 -1.741960e+00 -2.303811e-01 -4.804392e-01 7.707769e-02 3.924013e-01 -1.627844e-01 3.906327e-01 1.602298e+00 -4.398168e-01 -3.601533e-02 -1.098830e-01 1.388358e-01 8.125047e-02 1.777564e-01 4.572311e-01 1.368411e-01 8.632996e-02 1.877873e-01 4.069523e-02 -1.742411e-02 -9.761018e-02
<VARIANCE> 39
 8.804850e+01 7.603656e+01 2.987409e+01 2.928271e+01 7.114125e+01 8.480627e+01 4.076754e+01 4.715401e+01 3.204767e+01 4.228740e+01 2.726062e+01 3.007452e+01 4.575749e+01 4.432971e+00 1.353251e+00 2.411777e+00 2.758224e+00 2.181295e+00 6.510334e+00 4.511949e+00 3.671169e+00 4.223607e+00 4.988060e+00 2.677303e+00 2.709373e+00 1.232689e+00 8.971788e-01 2.071901e-01 2.745919e-01 4.116319e-01 4.116396e-01 1.029150e+00 8.233112e-01 7.762002e-01 5.924327e-01 4.654541e-01 5.034355e-01 4.208011e-01 1.536352e-01
<GCONST> 1.257737e+02
<STATE> 3
<MEAN> 39
 6.553046e+00 -2.843491e+01 4.833279e+00 -9.002372e+00 -3.266111e+01 -6.344799e+00 -8.145129e+00 -2.680999e+00 3.103622e+00 -5.454008e+00 3.322371e+00 -5.392389e-01 7.070318e+01 -5.616090e-01 -6.382894e-02 6.325777e-01 -2.653994e-01 -2.038267e-01 3.662584e-01 3.658686e-01 6.365520e-01 -3.213679e-01 -3.344080e-01 4.465886e-01 -5.642786e-01 8.567578e-04 -2.335743e-01 1.612222e-01 1.493235e-01 8.375649e-02 2.629436e-01 2.106306e-01 -2.684921e-01 -8.828745e-02 -2.075098e-01 -2.964902e-01 -1.717645e-02 -2.788357e-02 -3.803259e-01
<VARIANCE> 39
 1.223802e+01 1.159440e+01 3.944946e+01 6.403200e+01 2.553552e+01 1.511543e+02 4.586225e+01 7.769394e+01 3.878575e+01 9.619825e+01 3.573921e+01 3.753285e+01 5.155125e+00 4.955476e-01 5.545439e-01 1.975435e+00 1.681137e+00 1.221782e+00 2.321411e+00 4.811877e+00 4.099239e+00 2.206477e+00 5.514380e+00 2.731649e+00 2.941726e+00 6.747823e-01 1.521496e-01 8.648300e-02 3.562050e-01 3.483334e-01 3.202610e-01 5.478080e-01 6.267047e-01 6.645926e-01 2.961298e-01 1.073772e+00 4.428644e-01 6.734279e-01 6.446446e-02
<GCONST> 1.119605e+02
<STATE> 4
<MEAN> 39
 8.797991e-01 -2.637502e+01 9.013542e+00 -8.553098e+00 -3.141541e+01 -4.476972e+00 -1.100160e+01 -2.663298e+00 -2.144409e-01 -8.780812e+00 4.405288e+00 -1.684670e+00 6.460707e+01 -1.460603e+00 8.108812e-01 -4.299928e-01 9.412710e-01 9.455284e-01 5.334496e-01 3.518687e-01 6.687073e-02 -1.531790e-01 9.192018e-03 -4.963423e-01 1.321206e-01 -2.047566e+00 -2.958655e-01 2.784042e-01 -5.767319e-01 1.160685e-01 4.191326e-01 -7.862366e-02 2.810656e-01 2.326644e-01 3.489053e-01 3.341892e-01 -7.479989e-02 1.336874e-01 -1.611379e-01
<VARIANCE> 39
 1.622619e+01 1.016774e+01 1.067999e+01 3.660841e+01 3.043386e+01 1.022902e+02 6.459283e+01 6.503757e+01 8.783958e+01 3.705022e+01 4.027089e+01 2.022509e+01 1.562555e+01 7.669905e-01 6.978477e-01 1.416392e+00 1.051982e+00 1.963880e+00 1.639894e+00 2.160204e+00 2.004864e+00 2.909675e+00 2.793280e+00 1.972705e+00 1.867946e+00 2.674408e-01 1.662790e-01 2.472323e-01 2.152255e-01 3.494456e-01 4.844809e-01 3.963874e-01 5.756567e-01 4.077991e-01 5.889377e-01 5.710564e-01 4.591303e-01 4.997838e-01 1.086176e-01
<GCONST> 1.075072e+02
<STATE> 5
<MEAN> 39
 -6.579365e+00 -2.097268e+01 1.599295e+00 -2.653632e+00 -2.260020e+01 -5.140861e+00 -8.913427e+00 -1.179428e+00 1.849498e-01 -7.845451e+00 3.061265e+00 2.566417e-01 5.677120e+01 -2.144907e+00 1.711412e+00 -1.584783e+00 4.198638e-01 2.421869e+00 3.613806e-02 2.944363e-01 4.649394e-01 4.985271e-01 5.124785e-01 -2.383320e-01 6.852692e-01 -1.585916e+00 2.068789e-01 -1.678835e-01 -5.898075e-02 -1.518518e-01 -5.511040e-03 -8.754093e-02 -1.280913e-01 -1.598152e-01 2.062646e-02 1.019143e-01 -1.513958e-02 7.204546e-02 2.213818e-01
<VARIANCE> 39
 1.961646e+01 4.186526e+01 2.451853e+01 2.952163e+01 5.086655e+01 7.688160e+01 5.960670e+01 3.738137e+01 6.541714e+01 4.589898e+01 2.839968e+01 2.822005e+01 1.189839e+01 2.559898e+00 5.354382e+00 2.718030e+00 2.759712e+00 6.713645e+00 4.555398e+00 3.607922e+00 3.514359e+00 4.633749e+00 4.769641e+00 2.580784e+00 2.512130e+00 1.978485e+00 4.350752e-01 1.021256e+00 3.401083e-01 3.534814e-01 1.334759e+00 6.997314e-01 6.995789e-01 3.654508e-01 8.221286e-01 8.776805e-01 3.366091e-01 4.835715e-01 2.835561e-01
<GCONST> 1.265997e+02
<TRANSP> 6
 0.000000e+00 1.000000e+00 0.000000e+00 0.000000e+00 0.000000e+00 0.000000e+00
 0.000000e+00 8.221495e-01 1.778505e-01 0.000000e+00 0.000000e+00 0.000000e+00
 0.000000e+00 0.000000e+00 8.616759e-01 1.383241e-01 0.000000e+00 0.000000e+00
 0.000000e+00 0.000000e+00 0.000000e+00 7.650871e-01 2.349129e-01 0.000000e+00
 0.000000e+00 0.000000e+00 0.000000e+00 0.000000e+00 7.388111e-01 2.611888e-01
 0.000000e+00 0.000000e+00 0.000000e+00 0.000000e+00 0.000000e+00 0.000000e+00
<ENDHMM>
