~o
<STREAMINFO> 1 39
<VECSIZE> 39<NULLD><MFCC_D_A_0><DIAGC>
~h "sil"
<BEGINHMM>
<NUMSTATES> 6
<STATE> 2
<MEAN> 39
 -9.074328e+00 -1.617516e+01 -2.503167e+00 -5.443325e+00 -1.482291e+01 -4.851146e-01 -1.006970e+01 -4.459625e+00 -2.876131e-02 -7.149359e+00 2.550018e-01 -1.087728e+00 5.382535e+01 -5.081430e-01 3.249851e-01 -2.513275e-01 7.327825e-02 4.877160e-01 -2.408759e-02 3.098446e-01 1.347584e-01 9.785150e-03 2.503916e-01 -1.477269e-02 1.154841e-01 -3.162188e-01 -1.547137e-02 1.487735e-02 3.392941e-02 -6.380840e-03 1.655528e-04 2.225298e-02 1.408737e-02 2.913761e-02 -2.730553e-03 1.135756e-02 3.416396e-02 -6.987183e-03 -3.670320e-03
<VARIANCE> 39
 2.854167e+01 4.155785e+01 3.754967e+01 2.311444e+01 5.130167e+01 4.792574e+01 4.068103e+01 3.939931e+01 3.240392e+01 3.385765e+01 3.327628e+01 2.467132e+01 1.246526e+01 1.471104e+00 1.752007e+00 1.632061e+00 1.350516e+00 2.810024e+00 2.226602e+00 2.829993e+00 2.546346e+00 2.327540e+00 2.502808e+00 2.175628e+00 1.967085e+00 5.352938e-01 1.915523e-01 2.809244e-01 2.596844e-01 2.479980e-01 4.454271e-01 3.954323e-01 5.141582e-01 4.562691e-01 4.197641e-01 4.782103e-01 4.092337e-01 3.702289e-01 8.123964e-02
<GCONST> 1.102249e+02
<STATE> 3
<MEAN> 39
 -1.770310e+01 -7.805258e+00 -4.001538e+00 -3.063561e+00 -5.410079e+00 3.865144e-01 -3.595500e+00 -1.297395e+00 1.495706e-01 -1.924298e+00 3.699051e-01 1.310752e-01 4.745774e+01 -7.769363e-01 4.002872e-01 -2.452052e-01 6.796954e-02 4.075973e-01 -1.115272e-02 3.925664e-01 1.529344e-01 -1.266340e-01 2.541392e-01 -3.202305e-02 -1.749783e-02 -3.847784e-01 1.635409e-01 -9.781498e-02 3.762835e-02 -3.278262e-02 -1.420450e-01 -2.892445e-02 -1.482342e-01 -8.435513e-02 -1.864183e-02 -1.020854e-01 -2.564971e-02 -3.207969e-02 9.760969e-02
<VARIANCE> 39
 2.256351e+01 1.292635e+01 1.767393e+01 1.209856e+01 1.563599e+01 2.420769e+01 1.649925e+01 1.849802e+01 2.166623e+01 1.929067e+01 1.757496e+01 1.474753e+01 1.388422e+01 1.666196e+00 9.215214e-01 1.238399e+00 1.112898e+00 1.722871e+00 1.886843e+00 1.907129e+00 2.074222e+00 2.064312e+00 1.974784e+00 1.725620e+00 1.447705e+00 5.545891e-01 2.395379e-01 1.419971e-01 1.897178e-01 1.801562e-01 2.678660e-01 2.922626e-01 3.285506e-01 3.558910e-01 3.558839e-01 3.406083e-01 3.114375e-01 2.555518e-01 7.394056e-02
<GCONST> 9.493761e+01
<STATE> 4
<MEAN> 39
 -2.291687e+01 -5.019027e+00 -7.112895e+00 -3.345349e+00 -4.242522e+00 -2.266946e+00 -2.810632e+00 -1.636570e+00 -1.857034e+00 -1.072930e+00 -1.210941e+00 -7.449123e-01 4.547725e+01 7.361911e-04 -4.296426e-04 -7.871495e-04 3.243968e-03 8.792293e-03 7.073422e-04 1.315016e-03 4.007997e-03 6.069275e-03 -2.504439e-02 -1.990189e-02 7.823803e-03 -7.632222e-04 2.430383e-02 -1.500582e-02 1.001487e-02 4.032245e-03 -7.398161e-03 6.406720e-03 -2.867169e-03 2.048299e-03 1.063580e-02 -1.662011e-03 9.013113e-03 8.384737e-03 1.073145e-02
<VARIANCE> 39
 1.013365e+00 2.276755e+00 4.131330e+00 6.182912e+00 8.145649e+00 1.017388e+01 1.182250e+01 1.312370e+01 1.377298e+01 1.403261e+01 1.322479e+01 1.181492e+01 1.908891e-01 1.145064e-01 2.501458e-01 4.523655e-01 6.847275e-01 9.105539e-01 1.130739e+00 1.257614e+00 1.428915e+00 1.509834e+00 1.521508e+00 1.429468e+00 1.245293e+00 2.130529e-02 3.147737e-02 5.461201e-02 9.334923e-02 1.387742e-01 1.832613e-01 2.254597e-01 2.470417e-01 2.872492e-01 2.995464e-01 3.003016e-01 2.812994e-01 2.439070e-01 6.481491e-03
<GCONST> 6.065397e+01
<STATE> 5
<MEAN> 39
 -1.144276e+01 -1.532286e+01 -1.634149e+00 -4.913046e+00 -1.185992e+01 2.023965e+00 -8.669472e+00 -2.285219e+00 1.706931e+00 -6.133783e+00 1.304888e+00 -5.474327e-01 5.285206e+01 1.103187e+00 -7.737778e-01 4.211697e-01 -2.777795e-01 -8.545579e-01 1.359319e-01 -5.748092e-01 -1.280694e-01 1.914047e-01 -3.689186e-01 1.905436e-01 -2.162807e-02 7.364618e-01 1.324919e-01 -5.099850e-02 3.391504e-02 -7.395732e-02 -9.663112e-02 -4.174932e-02 -8.132909e-02 -9.356411e-03 -1.157251e-02 -2.768245e-02 1.340821e-02 -2.012275e-02 9.480766e-02
<VARIANCE> 39
 4.907254e+01 5.279769e+01 2.896171e+01 2.240641e+01 5.569341e+01 3.571724e+01 4.098022e+01 3.134082e+01 2.670723e+01 3.246449e+01 2.270207e+01 2.039880e+01 3.043084e+01 3.234101e+00 2.099360e+00 1.690569e+00 2.050153e+00 3.161001e+00 2.553094e+00 3.232089e+00 2.473449e+00 2.288929e+00 2.370395e+00 2.133336e+00 1.890172e+00 1.376901e+00 4.364822e-01 3.220519e-01 2.802308e-01 3.201121e-01 4.985501e-01 4.394106e-01 5.608050e-01 4.619468e-01 4.383676e-01 4.279997e-01 4.108951e-01 3.745621e-01 1.759646e-01
<GCONST> 1.152903e+02
<TRANSP> 6
 0.000000e+00 4.713803e-01 5.286197e-01 0.000000e+00 0.000000e+00 0.000000e+00
 0.000000e+00 9.451366e-01 5.486342e-02 0.000000e+00 0.000000e+00 0.000000e+00
 0.000000e+00 0.000000e+00 8.083851e-01 1.882009e-01 3.413978e-03 0.000000e+00
 0.000000e+00 0.000000e+00 0.000000e+00 9.521599e-01 2.316879e-02 2.467131e-02
 0.000000e+00 0.000000e+00 0.000000e+00 0.000000e+00 9.493008e-01 5.069925e-02
 0.000000e+00 0.000000e+00 0.000000e+00 0.000000e+00 0.000000e+00 0.000000e+00
<ENDHMM>


~h "zero"
<BEGINHMM>
<NUMSTATES> 6
<STATE> 2
<MEAN> 39
 6.628231e-01 -1.701520e+01 1.074062e+01 -5.011910e+00 -2.205504e+01 -4.999616e+00 -2.307349e+01 -6.938286e+00 -7.418225e-01 -1.257977e+01 2.304247e+00 -1.795635e+00 6.033676e+01 1.440145e+00 -1.028906e+00 1.243032e+00 3.445133e-02 -1.333338e+00 -1.179131e+00 -9.061213e-01 -4.032270e-01 -6.802239e-01 -1.205732e-01 7.085927e-01 -1.277380e-01 1.341161e+00 -2.953694e-01 1.615689e-02 -2.647319e-01 -1.695949e-02 1.983472e-01 1.186704e-01 5.044098e-01 2.614067e-02 -8.391653e-02 2.310903e-01 -2.890087e-02 3.985212e-03 -5.209206e-02
<VARIANCE> 39
 2.420822e+01 7.217754e+01 3.224504e+01 1.597975e+01 4.527176e+01 4.606999e+01 5.780761e+01 3.815709e+01 3.525048e+01 3.295551e+01 3.755925e+01 3.023478e+01 2.465462e+01 3.357109e+00 1.731442e+00 1.391277e+00 1.091285e+00 2.361700e+00 5.075655e+00 7.951973e+00 2.872197e+00 2.639796e+00 2.883869e+00 3.113773e+00 1.935037e+00 7.700583e-01 5.829608e-01 1.974498e-01 3.110721e-01 1.944626e-01 4.379869e-01 7.076308e-01 9.871569e-01 5.392816e-01 4.169001e-01 4.064602e-01 4.022930e-01 3.585156e-01 1.224754e-01
<GCONST> 1.168010e+02
<STATE> 3
<MEAN> 39
 7.487606e+00 -2.445418e+01 1.088331e+01 -8.074949e+00 -2.611115e+01 -8.700118e+00 -2.177515e+01 -3.708976e+00 -2.091574e+00 -8.693616e+00 8.024474e+00 -3.465770e+00 6.908642e+01 3.236322e-01 -3.457359e-01 -1.069714e+00 -5.608712e-01 8.998328e-01 2.147020e-01 -5.208045e-01 6.926966e-01 6.365010e-01 2.672352e-01 1.766851e-01 -2.886711e-01 2.145868e-01 -5.631176e-02 5.405635e-02 -1.712332e-01 -6.572095e-02 2.268580e-01 2.845462e-01 -6.958488e-02 1.557591e-02 2.036066e-01 9.770518e-03 -1.059344e-01 -3.136434e-02 -1.387500e-01
<VARIANCE> 39
 1.260663e+01 1.496271e+01 3.186466e+01 3.134275e+01 2.953698e+01 3.980769e+01 6.292238e+01 4.886384e+01 5.532834e+01 5.890241e+01 3.086965e+01 2.498207e+01 6.577725e+00 5.939628e-01 9.617900e-01 2.335146e+00 1.306541e+00 1.862357e+00 3.256273e+00 5.053342e+00 4.057823e+00 3.328914e+00 3.081561e+00 2.826526e+00 1.849027e+00 5.961519e-01 1.362383e-01 1.971508e-01 4.174605e-01 2.107671e-01 3.136353e-01 5.687500e-01 9.792460e-01 8.862887e-01 6.382508e-01 6.087988e-01 6.221018e-01 3.883088e-01 9.855723e-02
<GCONST> 1.117919e+02
<STATE> 4
<MEAN> 39
 9.614856e+00 -2.649988e+01 -7.567648e-01 -1.487792e+01 -1.767989e+01 1.643594e+00 -2.247984e+01 -1.542848e+00 4.309527e+00 -7.059668e+00 7.062319e+00 -5.558386e+00 6.879115e+01 -3.289278e-02 1.933946e-01 -3.104728e-01 -3.115868e-01 -2.511144e-02 5.056171e-01 3.156276e-01 -1.527635e-01 -1.051125e-01 -1.095827e-02 2.324751e-02 4.051544e-02 -2.619839e-01 -4.660345e-02 7.244141e-02 5.377544e-02 7.042114e-02 -7.057914e-02 -9.341159e-02 4.320273e-02 -3.785870e-02 -1.145235e-01 -5.617036e-02 8.534292e-04 5.253327e-02 -5.503716e-02
<VARIANCE> 39
 8.916286e+00 2.553366e+01 3.246034e+01 2.310579e+01 1.823174e+01 5.313419e+01 5.567259e+01 5.297496e+01 3.838497e+01 2.678304e+01 3.217459e+01 3.204116e+01 9.869087e+00 2.946415e-01 6.643519e-01 1.036731e+00 7.004739e-01 1.192141e+00 1.615455e+00 1.936634e+00 2.487911e+00 1.901097e+00 1.658759e+00 1.679593e+00 1.824443e+00 3.159576e-01 4.825283e-02 1.096601e-01 1.430699e-01 1.383451e-01 1.952931e-01 2.481059e-01 3.539557e-01 3.253497e-01 2.744115e-01 2.472861e-01 3.069327e-01 2.729431e-01 2.998848e-02
<GCONST> 9.311701e+01
<STATE> 5
<MEAN> 39
 1.539939e+00 -1.529282e+01 -7.721818e-01 -1.051521e+01 -1.634480e+01 4.561528e+00 -1.341434e+01 -7.361262e+00 -3.480721e+00 -9.152864e+00 3.409122e+00 -4.166526e+00 5.766957e+01 -1.452080e+00 8.574747e-01 -3.673710e-01 9.757581e-01 8.722175e-01 -1.495052e-01 1.358858e+00 -1.847701e-01 -3.152311e-01 3.039246e-01 -7.401497e-01 1.779870e-01 -9.910551e-01 -7.593694e-02 -7.638407e-02 -3.188767e-02 2.337301e-02 1.057550e-01 -1.279496e-02 6.276920e-02 1.552554e-01 1.023801e-01 6.184939e-02 -4.010101e-02 -2.646581e-04 1.796319e-02
<VARIANCE> 39
 5.680027e+01 3.020242e+01 5.940290e+01 5.192949e+01 2.691663e+01 2.908934e+01 3.613901e+01 4.270726e+01 3.062858e+01 4.863298e+01 4.993376e+01 2.416823e+01 1.521984e+01 9.348890e-01 1.299891e+00 1.855414e+00 1.711866e+00 1.496901e+00 1.338450e+00 1.837220e+00 2.023023e+00 2.197508e+00 2.345270e+00 2.466327e+00 1.770565e+00 4.197044e-01 1.360770e-01 1.938553e-01 2.950231e-01 2.282633e-01 2.677183e-01 2.094691e-01 3.104885e-01 2.607390e-01 3.515056e-01 3.777368e-01 3.983024e-01 2.961085e-01 4.562712e-02
<GCONST> 1.049204e+02
<TRANSP> 6
 0.000000e+00 1.000000e+00 0.000000e+00 0.000000e+00 0.000000e+00 0.000000e+00
 0.000000e+00 8.464646e-01 1.535354e-01 0.000000e+00 0.000000e+00 0.000000e+00
 0.000000e+00 0.000000e+00 8.970152e-01 1.029848e-01 0.000000e+00 0.000000e+00
 0.000000e+00 0.000000e+00 0.000000e+00 9.510013e-01 4.899867e-02 0.000000e+00
 0.000000e+00 0.000000e+00 0.000000e+00 0.000000e+00 9.021996e-01 9.780049e-02
 0.000000e+00 0.000000e+00 0.000000e+00 0.000000e+00 0.000000e+00 0.000000e+00
<ENDHMM>



~h "one"
<BEGINHMM>
<NUMSTATES> 6
<STATE> 2
<MEAN> 39
 6.516323e+00 -1.518755e+01 2.406190e+00 -1.850353e+01 -2.728960e+01 -1.385539e+00 -1.655696e+01 -7.803713e-01 1.294147e+00 -1.081878e+01 3.688407e+00 -3.643387e+00 6.134808e+01 1.540198e+00 -1.396682e+00 -2.519254e-01 -1.596971e+00 -6.770911e-01 1.004616e+00 2.901740e-01 8.424655e-01 2.806270e-01 -2.925025e-01 5.284070e-01 -5.383058e-02 1.507850e+00 -4.952023e-01 -1.467154e-01 -2.578493e-01 3.277504e-01 6.682512e-01 4.014519e-01 3.816545e-01 -8.793651e-02 -5.782636e-02 9.308758e-02 -4.417417e-03 1.501564e-01 -8.664607e-02
<VARIANCE> 39
 1.904208e+01 3.765894e+01 4.332369e+01 4.107232e+01 2.697607e+01 2.736594e+01 6.202914e+01 3.955504e+01 2.800768e+01 2.347456e+01 2.945546e+01 2.043291e+01 2.420761e+01 3.587606e+00 1.549502e+00 3.664613e+00 2.797148e+00 5.406110e+00 3.161321e+00 6.099036e+00 3.013949e+00 2.799099e+00 2.519692e+00 2.787747e+00 2.282788e+00 4.231362e-01 4.185577e-01 2.533477e-01 3.490368e-01 5.994800e-01 4.358050e-01 3.517216e-01 7.453325e-01 8.153024e-01 5.777310e-01 4.358062e-01 4.298304e-01 4.530895e-01 6.910437e-02
<GCONST> 1.170886e+02
<STATE> 3
<MEAN> 39
 7.894356e+00 -2.856247e+01 -5.138142e+00 -1.865738e+01 -1.485689e+01 1.333589e+01 -1.284036e+01 -1.816838e+00 2.516582e+00 -1.124385e+01 3.897789e+00 -3.172791e+00 7.012940e+01 -1.161728e-01 -6.001335e-01 -3.707848e-01 6.544502e-01 7.905712e-01 2.030609e-01 -3.604246e-01 -3.960374e-01 2.022860e-01 -1.070388e-01 -3.205191e-01 4.423954e-02 9.163001e-02 -1.991586e-02 1.456916e-01 1.400556e-01 5.596551e-02 -2.324221e-01 -3.315868e-01 -1.195873e-01 9.159440e-02 6.966372e-02 -4.402273e-03 -6.218524e-02 -1.678691e-02 -1.193565e-01
<VARIANCE> 39
 3.905220e+00 1.529371e+01 3.989364e+01 5.547502e+01 5.946442e+01 3.142315e+01 4.155376e+01 4.667173e+01 2.319808e+01 3.248269e+01 3.198078e+01 3.046405e+01 1.129908e+01 1.862738e-01 6.829598e-01 1.233166e+00 1.483247e+00 2.059660e+00 3.625958e+00 2.626585e+00 2.722139e+00 1.751307e+00 2.897888e+00 2.177669e+00 2.274495e+00 2.501592e-01 3.563003e-02 8.931892e-02 2.208994e-01 2.497123e-01 1.776931e-01 2.780490e-01 3.613082e-01 4.162132e-01 2.783866e-01 5.067965e-01 3.337628e-01 4.019996e-01 3.044534e-02
<GCONST> 9.785308e+01
<STATE> 4
<MEAN> 39
 6.703918e+00 -2.887177e+01 -2.509659e+00 -1.320885e+01 -1.940621e+01 3.037830e+00 -1.786831e+01 -1.193108e+00 3.345616e+00 -1.343464e+01 1.682300e+00 -2.405974e+00 6.672384e+01 -5.640416e-01 1.015702e+00 1.427878e+00 9.450098e-01 -1.140036e+00 -1.413685e+00 -7.162322e-01 -4.598016e-01 -5.897190e-01 5.861308e-02 -9.210952e-02 -4.456633e-01 -1.049691e+00 -1.771260e-01 3.271249e-01 8.603398e-02 1.980138e-01 2.299510e-01 1.500517e-01 5.325846e-02 -3.748504e-01 -3.114387e-01 9.918991e-02 2.489881e-03 -1.377573e-01 -1.974671e-01
<VARIANCE> 39
 5.224535e+00 1.336459e+01 3.353260e+01 1.694287e+01 3.119868e+01 1.880359e+01 3.225468e+01 2.986184e+01 6.240557e+01 2.743308e+01 4.935010e+01 4.756721e+01 8.908113e+00 5.657586e-01 8.520161e-01 6.514178e-01 2.232137e+00 1.213526e+00 1.529503e+00 2.024540e+00 2.950897e+00 1.739932e+00 1.832198e+00 1.898546e+00 1.744295e+00 4.236044e-01 4.410064e-02 7.147685e-02 2.128779e-01 3.110882e-01 2.112278e-01 2.704816e-01 5.062899e-01 3.705699e-01 3.128676e-01 3.752007e-01 4.018747e-01 3.294754e-01 7.363307e-02
<GCONST> 9.666917e+01
<STATE> 5
<MEAN> 39
 1.026263e+00 -1.621915e+01 4.551827e+00 -5.151834e+00 -1.949802e+01 -2.793447e+00 -1.885830e+01 -7.966763e+00 -2.897477e+00 -1.282887e+01 -2.066509e+00 -5.225517e+00 5.776528e+01 -1.045247e+00 1.210450e+00 -4.573356e-02 5.305905e-01 7.127084e-01 -6.589796e-02 7.344816e-01 -3.772143e-01 -4.207259e-01 2.898244e-01 -4.466806e-01 3.136096e-02 -8.692461e-01 -3.190452e-02 -9.153284e-02 -2.152382e-01 -1.878694e-01 7.860150e-02 7.698090e-02 2.045987e-01 2.614542e-01 1.349910e-01 1.074499e-01 9.101673e-02 1.040014e-01 4.879278e-02
<VARIANCE> 39
 2.230856e+01 3.185150e+01 4.620484e+01 1.551982e+01 4.169648e+01 2.575391e+01 3.084704e+01 5.465577e+01 4.772125e+01 4.841698e+01 3.449496e+01 3.210353e+01 9.444960e+00 1.086992e+00 1.478574e+00 1.656809e+00 1.467164e+00 2.310152e+00 1.533495e+00 2.575711e+00 3.630188e+00 3.426126e+00 2.893829e+00 2.065575e+00 2.455570e+00 3.541864e-01 1.440822e-01 1.969092e-01 1.959965e-01 2.219669e-01 3.478123e-01 2.786302e-01 3.224332e-01 4.774044e-01 4.733028e-01 4.770209e-01 2.845191e-01 3.991147e-01 4.816870e-02
<GCONST> 1.063717e+02
<TRANSP> 6
 0.000000e+00 1.000000e+00 0.000000e+00 0.000000e+00 0.000000e+00 0.000000e+00
 0.000000e+00 8.611602e-01 1.289224e-01 9.917486e-03 0.000000e+00 0.000000e+00
 0.000000e+00 0.000000e+00 9.274688e-01 7.253125e-02 0.000000e+00 0.000000e+00
 0.000000e+00 0.000000e+00 0.000000e+00 8.285483e-01 1.714517e-01 0.000000e+00
 0.000000e+00 0.000000e+00 0.000000e+00 0.000000e+00 8.882459e-01 1.117541e-01
 0.000000e+00 0.000000e+00 0.000000e+00 0.000000e+00 0.000000e+00 0.000000e+00
<ENDHMM>


~h "two"
<BEGINHMM>
<NUMSTATES> 6
<STATE> 2
<MEAN> 39
 2.374196e+00 -2.564153e+01 1.089490e+01 -5.806018e+00 -2.504844e+01 -2.470152e+00 -1.794766e+01 -5.823327e+00 2.783599e-01 -1.123863e+01 3.829880e+00 -1.915483e+00 6.541144e+01 1.675014e+00 1.786286e-01 1.113022e+00 -4.062702e-01 -7.952747e-01 -1.407488e+00 -1.673735e+00 -5.450691e-01 -8.700141e-01 -4.689787e-01 1.827591e-01 -6.213481e-01 1.209383e+00 -2.208591e-01 1.468652e-01 -2.292979e-01 -5.260095e-02 2.159104e-01 1.237106e-01 1.386192e-01 9.065496e-02 3.558670e-02 1.640842e-01 5.036454e-02 -1.118053e-01 -1.478288e-01
<VARIANCE> 39
 3.444082e+01 2.008811e+01 2.581735e+01 2.722596e+01 3.209624e+01 5.472047e+01 6.337285e+01 4.334031e+01 2.559207e+01 5.231289e+01 2.667019e+01 4.782233e+01 1.191352e+01 1.738132e+00 2.544969e+00 2.174450e+00 2.513140e+00 2.003030e+00 2.936120e+00 4.080534e+00 3.862232e+00 2.877230e+00 2.709472e+00 2.678581e+00 2.987579e+00 8.318262e-01 4.484706e-01 4.659000e-01 3.227003e-01 3.566082e-01 4.069065e-01 5.957932e-01 6.891329e-01 6.808721e-01 5.389251e-01 5.071519e-01 4.921965e-01 5.360228e-01 1.979776e-01
<GCONST> 1.185020e+02
<STATE> 3
<MEAN> 39
 8.779608e+00 -2.411946e+01 1.039257e+01 -6.710398e+00 -2.485117e+01 -7.841964e+00 -2.595090e+01 -8.315557e+00 -3.389920e+00 -1.199529e+01 6.632411e+00 -4.398372e+00 6.879372e+01 1.443951e-01 9.698752e-02 -5.205941e-01 -1.915484e-01 4.648591e-01 2.627102e-01 -3.291817e-01 -3.659568e-01 -1.258832e-01 2.462822e-01 2.566017e-01 -1.950744e-02 -1.573354e-01 -2.925860e-02 2.935717e-02 -4.481265e-02 -4.037085e-03 4.502868e-02 7.152245e-02 1.264606e-02 -5.932196e-02 1.481595e-02 -1.727835e-02 -2.041819e-02 8.725333e-02 -8.631096e-02
<VARIANCE> 39
 7.190739e+00 8.717731e+00 1.291231e+01 1.584981e+01 3.398206e+01 3.943282e+01 6.105470e+01 5.456456e+01 1.775796e+01 3.496837e+01 2.542966e+01 3.960630e+01 3.542769e+00 2.402879e-01 4.733196e-01 5.043734e-01 5.597753e-01 6.403543e-01 1.206835e+00 1.497986e+00 1.971879e+00 1.100987e+00 1.278799e+00 9.767863e-01 1.799904e+00 1.314722e-01 6.465355e-02 8.795412e-02 1.146305e-01 1.147391e-01 1.036190e-01 2.035556e-01 2.426841e-01 2.818458e-01 1.543778e-01 2.436436e-01 1.761830e-01 2.774259e-01 2.859547e-02
<GCONST> 8.142822e+01
<STATE> 4
<MEAN> 39
 1.011658e+01 -2.140758e+01 4.816570e+00 -1.282393e+01 -2.017676e+01 -1.347740e+00 -2.851755e+01 -1.130017e+01 -4.848933e+00 -1.075977e+01 9.225265e+00 -4.104548e+00 6.557427e+01 -7.512052e-02 5.217439e-01 -2.860450e-01 -4.348705e-01 2.952159e-01 7.707024e-01 1.724985e-01 -3.233919e-02 -6.284077e-01 -4.291260e-01 6.323081e-02 -4.431292e-02 -6.266332e-01 -1.365094e-01 8.590937e-02 1.737858e-02 1.864817e-01 -3.685855e-02 -1.614449e-02 2.899274e-01 1.623991e-01 7.430229e-02 1.470996e-02 -1.293527e-01 -2.382514e-02 -8.113059e-02
<VARIANCE> 39
 4.142394e+00 1.727396e+01 2.325630e+01 2.064039e+01 1.655341e+01 2.376998e+01 2.268624e+01 4.175220e+01 6.641248e+01 3.313808e+01 3.611720e+01 1.745940e+01 9.245917e+00 2.685581e-01 5.765218e-01 1.041145e+00 8.120952e-01 8.978171e-01 1.351086e+00 1.903737e+00 2.241835e+00 2.337101e+00 1.160179e+00 2.327918e+00 1.614697e+00 2.256066e-01 7.404204e-02 1.238149e-01 1.734215e-01 1.398396e-01 1.674584e-01 2.411909e-01 2.631635e-01 3.744007e-01 3.430774e-01 1.999122e-01 3.551123e-01 3.177479e-01 2.577414e-02
<GCONST> 8.930322e+01
<STATE> 5
<MEAN> 39
 3.529078e+00 -1.315590e+01 2.763845e+00 -9.973883e+00 -1.725660e+01 2.251830e+00 -1.849606e+01 -9.313725e+00 -7.288796e+00 -1.251305e+01 3.608493e+00 -3.840246e+00 5.807817e+01 -1.895513e+00 9.757345e-01 -9.055361e-01 7.140450e-01 8.594670e-01 -1.787317e-01 1.896230e+00 7.061128e-01 7.568852e-01 8.208278e-01 -8.427080e-01 4.396269e-01 -9.952552e-01 -1.964845e-01 -8.350804e-02 -1.015370e-01 3.819494e-02 1.740824e-01 -1.442954e-01 -4.396211e-02 -4.803844e-03 1.186213e-01 7.584168e-02 -1.781662e-02 9.175463e-02 1.403226e-02
<VARIANCE> 39
 2.637511e+01 3.263318e+01 3.277231e+01 3.119423e+01 3.430115e+01 2.331827e+01 4.976558e+01 3.441121e+01 2.699621e+01 3.549879e+01 4.168368e+01 2.767978e+01 1.044880e+01 1.460823e+00 8.892546e-01 1.552880e+00 1.476633e+00 1.663437e+00 1.723472e+00 2.648370e+00 2.285238e+00 1.525993e+00 2.408194e+00 2.510677e+00 1.493368e+00 2.912662e-01 2.040029e-01 1.339173e-01 2.723976e-01 2.582199e-01 2.337870e-01 3.852839e-01 5.585564e-01 3.747717e-01 2.901806e-01 4.454252e-01 4.457687e-01 2.413850e-01 3.150809e-02
<GCONST> 1.031338e+02
<TRANSP> 6
 0.000000e+00 1.000000e+00 0.000000e+00 0.000000e+00 0.000000e+00 0.000000e+00
 0.000000e+00 8.595455e-01 1.404545e-01 0.000000e+00 0.000000e+00 0.000000e+00
 0.000000e+00 0.000000e+00 9.068879e-01 9.311205e-02 0.000000e+00 0.000000e+00
 0.000000e+00 0.000000e+00 0.000000e+00 8.780808e-01 1.219192e-01 0.000000e+00
 0.000000e+00 0.000000e+00 0.000000e+00 0.000000e+00 8.640363e-01 1.359638e-01
 0.000000e+00 0.000000e+00 0.000000e+00 0.000000e+00 0.000000e+00 0.000000e+00
<ENDHMM>



~h "three"
<BEGINHMM>
<NUMSTATES> 6
<STATE> 2
<MEAN> 39
 4.388408e-01 -2.423049e+01 8.606725e-01 -5.906762e+00 -1.907348e+01 -5.170398e-01 -1.903913e+01 -6.115331e+00 3.299679e+00 -1.006025e+01 3.465249e+00 1.325873e+00 6.142533e+01 2.304345e+00 -8.241792e-01 2.599648e-01 -2.965412e-02 -6.207770e-01 -1.284410e+00 -2.112632e+00 -6.879486e-01 -5.216900e-01 -7.855687e-01 3.805168e-01 2.412013e-02 1.374153e+00 -1.934052e-01 2.624898e-01 -1.624102e-01 2.249748e-02 2.935006e-01 -1.238385e-01 8.298776e-02 -1.362254e-02 -1.659064e-01 6.951912e-02 -2.056605e-02 -8.489263e-02 -1.097271e-01
<VARIANCE> 39
 7.397796e+01 2.636145e+01 3.628113e+01 3.337331e+01 4.375266e+01 7.175468e+01 6.900936e+01 5.363155e+01 6.395231e+01 4.076368e+01 3.606964e+01 3.139434e+01 2.116522e+01 2.892341e+00 4.098955e+00 4.568646e+00 3.168859e+00 5.701613e+00 7.134216e+00 5.975723e+00 4.223595e+00 5.468318e+00 3.126583e+00 3.776548e+00 3.506602e+00 1.339389e+00 5.936284e-01 6.382431e-01 9.209070e-01 6.104071e-01 9.247739e-01 1.488699e+00 1.270545e+00 8.257766e-01 9.331565e-01 5.668949e-01 6.445329e-01 6.699197e-01 2.200758e-01
<GCONST> 1.341953e+02
<STATE> 3
<MEAN> 39
 9.080178e+00 -2.708918e+01 2.247262e+00 -5.403474e+00 -1.924887e+01 -1.045450e+01 -2.833903e+01 -6.460730e+00 -1.922254e+00 -1.292689e+01 6.602027e+00 -6.132121e-01 6.917554e+01 -1.818131e-01 -2.223918e-01 8.778556e-01 1.021185e-01 -9.194695e-01 -3.487026e-01 6.325933e-01 1.417782e-01 -3.429855e-01 -2.098396e-01 8.126505e-02 1.589205e-01 3.502294e-01 -1.407143e-01 6.799944e-02 1.852687e-01 -2.240790e-02 -2.161555e-01 2.239627e-01 3.200099e-01 -1.331485e-01 -3.360905e-02 2.336618e-02 -6.232390e-02 8.035286e-02 -1.040965e-01
<VARIANCE> 39
 6.611181e+00 8.858967e+00 3.760941e+01 2.403833e+01 3.531126e+01 5.045136e+01 3.578728e+01 3.307483e+01 4.524148e+01 3.201463e+01 4.094471e+01 2.690355e+01 7.732195e+00 4.436579e-01 5.816824e-01 2.107055e+00 1.435267e+00 2.299910e+00 2.925455e+00 3.210740e+00 2.824262e+00 4.029064e+00 2.269761e+00 2.848247e+00 2.131967e+00 2.862099e-01 9.054504e-02 1.187505e-01 2.391041e-01 2.384026e-01 2.411712e-01 5.533184e-01 3.187363e-01 5.391350e-01 7.852383e-01 4.259592e-01 4.741480e-01 3.527979e-01 3.398500e-02
<GCONST> 1.026354e+02
<STATE> 4
<MEAN> 39
 4.546893e+00 -2.348765e+01 1.646125e+01 -6.942911e+00 -3.217211e+01 -4.909585e+00 -1.772580e+01 -1.456137e+01 -5.388298e+00 -1.226384e+01 5.266024e+00 1.239006e-01 6.813618e+01 -2.276341e-01 3.989288e-01 3.342960e-01 -8.905156e-02 -1.759269e-01 5.498814e-01 1.152717e-01 -4.674097e-01 9.656333e-03 1.454194e-01 -1.614117e-01 -1.872080e-01 -4.648310e-01 -2.751008e-02 2.095766e-02 -1.511974e-01 3.732343e-02 1.228025e-01 -4.092890e-02 -4.600741e-02 1.116733e-01 7.481272e-02 3.887732e-02 -2.707769e-02 -5.167757e-02 -6.362512e-02
<VARIANCE> 39
 1.083999e+01 1.083963e+01 1.711040e+01 1.536166e+01 1.611674e+01 4.301062e+01 3.696883e+01 5.028654e+01 4.484348e+01 3.771634e+01 3.844929e+01 3.258523e+01 1.153704e+01 3.814669e-01 5.357090e-01 1.104812e+00 8.563465e-01 1.151522e+00 1.888198e+00 2.458826e+00 2.915221e+00 1.915967e+00 1.858417e+00 1.662784e+00 1.882302e+00 3.309043e-01 7.654682e-02 8.166364e-02 1.261356e-01 1.519668e-01 2.055139e-01 2.330538e-01 4.328594e-01 3.885104e-01 3.671612e-01 3.635202e-01 2.674333e-01 3.283641e-01 2.484966e-02
<GCONST> 9.351212e+01
<STATE> 5
<MEAN> 39
 -3.942711e+00 -1.664190e+01 9.166153e+00 -5.424552e+00 -2.620317e+01 7.848227e-01 -1.239088e+01 -1.107556e+01 -2.419701e+00 -1.036580e+01 6.084553e-01 -9.248087e-01 5.741866e+01 -1.460065e+00 8.386591e-01 -1.520479e+00 1.357349e-01 1.512870e+00 1.963574e-01 1.159594e+00 9.308581e-01 2.152354e-01 5.466795e-01 -3.074817e-01 -3.345013e-02 -9.656793e-01 -1.426642e-02 -4.934002e-02 -1.092715e-01 -1.775251e-02 2.113495e-01 -1.123428e-01 -3.437482e-02 6.462671e-02 -1.263921e-02 3.545103e-02 8.444201e-02 9.451376e-02 5.582970e-02
<VARIANCE> 39
 3.063946e+01 3.463051e+01 5.617469e+01 1.379302e+01 6.499335e+01 4.015181e+01 8.036051e+01 7.727377e+01 5.107716e+01 3.661586e+01 3.376995e+01 2.667883e+01 1.234006e+01 9.484689e-01 9.308850e-01 1.736294e+00 1.110328e+00 2.966551e+00 2.364535e+00 3.243422e+00 2.808351e+00 2.490498e+00 2.126771e+00 1.662080e+00 2.048007e+00 2.807114e-01 1.666355e-01 1.230067e-01 2.682626e-01 1.865360e-01 4.423662e-01 3.906081e-01 6.168686e-01 5.159342e-01 4.149100e-01 3.545956e-01 3.314516e-01 3.716446e-01 3.348244e-02
<GCONST> 1.078683e+02
<TRANSP> 6
 0.000000e+00 1.000000e+00 0.000000e+00 0.000000e+00 0.000000e+00 0.000000e+00
 0.000000e+00 8.735565e-01 1.264435e-01 0.000000e+00 0.000000e+00 0.000000e+00
 0.000000e+00 0.000000e+00 9.075501e-01 9.244991e-02 0.000000e+00 0.000000e+00
 0.000000e+00 0.000000e+00 0.000000e+00 9.420726e-01 5.792740e-02 0.000000e+00
 0.000000e+00 0.000000e+00 0.000000e+00 0.000000e+00 8.834900e-01 1.165100e-01
 0.000000e+00 0.000000e+00 0.000000e+00 0.000000e+00 0.000000e+00 0.000000e+00
<ENDHMM>


~h "four"
<BEGINHMM>
<NUMSTATES> 6
<STATE> 2
<MEAN> 39
 8.010134e+00 -1.882156e+01 -2.165557e+00 -1.939628e+01 -2.672967e+01 1.018216e+00 -1.308312e+01 -3.472134e+00 -1.007795e+00 -1.072876e+01 4.851518e+00 -6.508748e-02 6.433694e+01 2.559042e+00 -9.256892e-01 9.532688e-01 -2.162204e+00 -2.407477e+00 2.053112e-01 -4.105071e-01 7.591269e-01 3.999595e-01 -9.807597e-01 5.882342e-01 1.388284e-01 1.741658e+00 -9.630103e-01 1.575831e-01 -4.386512e-04 6.788123e-01 7.312762e-01 5.896557e-02 2.336083e-01 7.223945e-02 1.395727e-01 2.832695e-01 -9.274843e-02 -6.325473e-02 -5.111048e-01
<VARIANCE> 39
 2.338357e+01 4.214670e+01 2.393679e+01 4.427812e+01 3.223492e+01 2.490665e+01 1.706394e+01 1.726449e+01 1.133799e+01 2.803710e+01 3.729117e+01 1.628492e+01 1.718642e+01 5.502289e+00 2.217633e+00 2.085275e+00 4.634357e+00 4.330873e+00 3.264122e+00 2.220198e+00 2.039382e+00 1.663153e+00 3.082733e+00 3.849676e+00 2.266039e+00 2.099798e+00 6.131920e-01 3.924081e-01 3.581274e-01 6.401234e-01 5.246936e-01 5.566713e-01 4.602741e-01 3.774276e-01 2.439796e-01 5.570158e-01 6.130812e-01 5.111169e-01 2.620993e-01
<GCONST> 1.160225e+02
<STATE> 3
<MEAN> 39
 9.943865e+00 -1.830635e+01 2.067257e+00 -2.332080e+01 -3.031617e+01 3.071294e-01 -1.592080e+01 8.328161e-01 8.176981e-01 -1.220940e+01 6.735501e+00 -1.624864e+00 6.482824e+01 -6.565508e-02 -1.280470e-01 -3.002664e-01 -7.089985e-02 4.517707e-01 2.574957e-01 -3.249929e-02 -2.165789e-02 -3.479472e-01 2.627691e-02 3.545317e-01 -2.642066e-02 -4.388986e-02 -1.813018e-02 8.861303e-03 -1.420787e-01 9.095045e-02 1.731141e-01 -7.028866e-03 -1.490101e-02 -6.910012e-02 -5.567262e-02 5.560432e-02 1.591580e-02 -1.811410e-02 -2.175009e-02
<VARIANCE> 39
 2.726752e+00 2.356367e+01 1.753290e+01 1.426031e+01 1.380021e+01 2.585381e+01 2.672679e+01 1.737298e+01 2.160060e+01 1.294219e+01 2.574909e+01 2.267797e+01 7.659935e+00 1.828865e-01 7.225764e-01 1.223060e+00 7.251331e-01 1.275457e+00 1.315200e+00 1.703456e+00 1.375042e+00 1.605199e+00 8.348207e-01 1.529198e+00 1.602802e+00 2.581642e-01 4.017967e-02 1.066279e-01 1.142792e-01 1.275144e-01 1.713869e-01 1.661806e-01 2.412664e-01 2.055854e-01 3.126130e-01 1.583472e-01 2.405618e-01 2.884944e-01 3.300256e-02
<GCONST> 8.114946e+01
<STATE> 4
<MEAN> 39
 8.555838e+00 -2.354490e+01 -7.764530e+00 -1.912138e+01 -1.781283e+01 3.436551e+00 -1.753626e+01 -1.207491e-02 1.614958e+00 -7.816725e+00 8.732005e+00 -4.798014e+00 6.499411e+01 -1.756462e-01 -1.981041e-01 -1.306624e-01 8.056059e-01 5.386847e-01 -5.933738e-01 -8.722384e-01 2.583228e-02 6.545587e-01 2.192237e-01 -4.973257e-01 -4.865721e-01 -2.087727e-01 -7.489166e-02 4.277184e-02 1.255114e-01 5.371883e-02 -1.148856e-01 -5.466568e-02 2.763832e-02 -7.849684e-03 -1.497744e-02 -7.503056e-02 -1.424512e-01 -8.174630e-03 -6.318832e-02
<VARIANCE> 39
 6.358650e+00 1.707743e+01 1.584190e+01 2.572331e+01 2.148333e+01 3.700811e+01 6.015638e+01 3.259557e+01 4.372274e+01 3.078841e+01 5.032340e+01 3.907058e+01 8.066042e+00 3.320522e-01 5.610476e-01 1.295945e+00 1.244821e+00 1.836243e+00 1.100544e+00 2.413465e+00 1.443217e+00 1.821856e+00 1.641899e+00 1.642981e+00 1.353119e+00 2.178247e-01 7.064230e-02 1.108663e-01 1.593761e-01 2.063403e-01 2.311790e-01 2.208475e-01 4.045784e-01 2.928281e-01 3.578967e-01 2.746790e-01 3.341148e-01 2.336275e-01 2.924069e-02
<GCONST> 9.285638e+01
<STATE> 5
<MEAN> 39
 1.085743e+00 -2.066444e+01 -5.139066e+00 -7.983327e+00 -1.306008e+01 -1.136879e+00 -2.051212e+01 -2.884138e+00 3.351349e+00 -8.264847e+00 1.598497e+00 -5.765707e+00 5.947311e+01 -2.003299e+00 1.077904e+00 -2.130865e-01 1.393120e+00 1.162666e+00 -1.274614e-01 1.318309e+00 -3.199784e-01 -6.263555e-02 5.660799e-01 -8.422623e-01 1.627810e-01 -1.184720e+00 -1.803549e-01 1.214593e-01 -1.228032e-01 -9.442330e-02 9.885997e-02 5.168865e-02 2.340876e-01 2.796502e-02 6.308782e-03 1.795579e-01 6.773332e-02 1.719818e-01 -7.519498e-02
<VARIANCE> 39
 3.297963e+01 3.228049e+01 2.300449e+01 2.890087e+01 3.721458e+01 5.301160e+01 6.046075e+01 2.855728e+01 2.859826e+01 4.538810e+01 3.365298e+01 1.717194e+01 1.030095e+01 1.134377e+00 1.008618e+00 1.062783e+00 8.882878e-01 1.561640e+00 1.653219e+00 2.449347e+00 1.751495e+00 2.002917e+00 1.946708e+00 2.315377e+00 1.988143e+00 3.187217e-01 1.894083e-01 1.430040e-01 2.076644e-01 1.949010e-01 3.058659e-01 3.112711e-01 4.843222e-01 3.116653e-01 3.475748e-01 3.297641e-01 4.596751e-01 3.394271e-01 4.429350e-02
<GCONST> 1.020752e+02
<TRANSP> 6
 0.000000e+00 1.000000e+00 0.000000e+00 0.000000e+00 0.000000e+00 0.000000e+00
 0.000000e+00 7.896507e-01 1.953236e-01 1.502576e-02 0.000000e+00 0.000000e+00
 0.000000e+00 0.000000e+00 9.300760e-01 6.992401e-02 0.000000e+00 0.000000e+00
 0.000000e+00 0.000000e+00 0.000000e+00 9.152200e-01 8.478007e-02 0.000000e+00
 0.000000e+00 0.000000e+00 0.000000e+00 0.000000e+00 8.577175e-01 1.422825e-01
 0.000000e+00 0.000000e+00 0.000000e+00 0.000000e+00 0.000000e+00 0.000000e+00
<ENDHMM>



~h "five"
<BEGINHMM>
<NUMSTATES> 6
<STATE> 2
<MEAN> 39
 6.275264e+00 -2.702601e+01 -5.895910e+00 -1.749793e+01 -1.683523e+01 1.003016e+01 -1.116833e+01 -8.324206e-01 3.165918e+00 -4.635867e+00 7.237264e+00 -5.947877e+00 6.649648e+01 2.294928e+00 -1.453786e+00 -3.358427e-01 -2.041815e+00 -2.066816e-01 1.788067e+00 -1.024480e-01 4.151954e-01 -1.691115e-01 -6.913924e-01 3.135970e-01 -9.920571e-01 2.501524e+00 -9.123629e-01 3.136076e-01 2.343038e-01 7.185830e-01 6.453310e-01 -2.635176e-02 2.985577e-01 1.053927e-01 -1.096881e-01 -2.189975e-01 -5.351017e-01 1.542062e-01 -6.256093e-01
<VARIANCE> 39
 1.884259e+01 3.065460e+01 3.131675e+01 6.350628e+01 2.665354e+01 2.980175e+01 3.595120e+01 3.173503e+01 2.287828e+01 2.669082e+01 2.745726e+01 3.234830e+01 1.949077e+01 4.954190e+00 1.774160e+00 3.058531e+00 5.314691e+00 4.127750e+00 2.680306e+00 4.373778e+00 2.960564e+00 2.312046e+00 2.328319e+00 3.921110e+00 2.145325e+00 1.926773e+00 5.676583e-01 2.372345e-01 5.746788e-01 7.207340e-01 4.506658e-01 4.625339e-01 8.385300e-01 6.179368e-01 5.252783e-01 3.875861e-01 4.443386e-01 3.473408e-01 1.800680e-01
<GCONST> 1.196310e+02
<STATE> 3
<MEAN> 39
 7.365294e+00 -3.073945e+01 -6.172034e+00 -1.832356e+01 -1.087209e+01 1.661316e+01 -1.201127e+01 -3.617709e-01 1.764107e+00 -1.028657e+01 3.616854e+00 -8.341253e+00 7.006686e+01 -1.784292e-01 -1.616264e-01 -1.735808e-02 1.830669e-01 2.022251e-01 -1.695498e-02 -9.544982e-02 1.546836e-01 8.137570e-02 -1.950087e-01 -4.289143e-01 -3.174497e-01 -7.747493e-02 -1.670886e-02 6.471350e-02 -4.898362e-03 1.179707e-02 -1.464012e-01 -1.866253e-01 -8.169662e-03 4.535433e-02 6.931764e-02 9.541977e-02 6.764801e-03 1.234711e-02 -6.904160e-02
<VARIANCE> 39
 3.766074e+00 1.005078e+01 2.561352e+01 2.933594e+01 1.954707e+01 1.192578e+01 2.816390e+01 1.319086e+01 2.678393e+01 2.442665e+01 1.880448e+01 2.769100e+01 8.085768e+00 1.781050e-01 3.654839e-01 6.838025e-01 6.755177e-01 1.199919e+00 1.042290e+00 1.771915e+00 1.656228e+00 1.271976e+00 1.492155e+00 1.288376e+00 1.212005e+00 1.332188e-01 4.466643e-02 8.459467e-02 1.342069e-01 1.189080e-01 1.669345e-01 2.194377e-01 3.252510e-01 3.518640e-01 2.220147e-01 3.037332e-01 2.692131e-01 2.198531e-01 3.154639e-02
<GCONST> 8.082671e+01
<STATE> 4
<MEAN> 39
 5.177866e+00 -3.011299e+01 -3.725940e+00 -1.575329e+01 -2.015073e+01 4.643482e+00 -1.344120e+01 6.062876e+00 7.808419e+00 -9.017966e+00 -3.572519e-01 -8.879077e+00 6.694122e+01 -2.207137e-01 6.034816e-01 5.229856e-01 3.058761e-01 -1.397120e+00 -1.863088e+00 -3.347992e-01 4.545654e-01 2.617612e-01 1.070317e-02 2.230705e-01 6.356058e-01 -6.150596e-01 -4.160681e-02 1.320120e-01 6.250610e-02 3.236706e-02 4.197185e-02 -1.202260e-02 -3.654278e-02 -1.569406e-01 -1.643369e-01 -4.161293e-02 9.648590e-02 7.006983e-02 -9.114403e-02
<VARIANCE> 39
 4.701171e+00 1.608338e+01 3.938192e+01 2.097842e+01 4.227964e+01 4.335654e+01 4.428071e+01 2.916245e+01 2.201830e+01 1.938650e+01 2.652697e+01 2.279177e+01 1.992658e+01 2.657184e-01 6.624241e-01 8.721588e-01 9.666820e-01 1.401279e+00 2.028927e+00 1.958529e+00 1.937344e+00 2.239442e+00 2.097589e+00 2.348198e+00 1.031332e+00 2.470223e-01 5.049263e-02 9.150796e-02 1.323911e-01 1.536846e-01 3.140160e-01 4.004699e-01 3.200703e-01 3.130516e-01 2.912021e-01 3.807622e-01 3.797670e-01 1.826240e-01 2.710138e-02
<GCONST> 9.223153e+01
<STATE> 5
<MEAN> 39
 1.010414e-01 -2.071103e+01 5.896193e-02 -1.121362e+01 -2.356195e+01 -6.264493e+00 -1.604728e+01 3.053486e+00 4.651606e+00 -9.401540e+00 1.977522e+00 -3.660680e+00 5.834772e+01 -1.474729e+00 1.401831e+00 -2.682755e-01 7.036871e-01 1.236994e+00 -5.495691e-02 3.829656e-01 -9.265639e-01 -5.368668e-01 2.619419e-01 -5.038455e-01 3.481049e-01 -1.406955e+00 -2.127955e-01 -3.883445e-02 -2.145788e-01 -3.528776e-02 3.539531e-01 3.400411e-01 3.154955e-01 2.687185e-02 1.213310e-02 1.479362e-01 -1.582630e-01 -2.187333e-02 -1.485853e-02
<VARIANCE> 39
 2.221337e+01 4.788599e+01 4.796799e+01 2.094224e+01 2.554446e+01 3.017611e+01 4.159269e+01 4.100495e+01 2.820425e+01 3.002455e+01 4.911309e+01 2.779786e+01 1.736234e+01 1.345223e+00 7.424408e-01 1.479451e+00 8.216568e-01 1.607513e+00 3.116323e+00 3.707963e+00 1.786000e+00 1.912092e+00 1.591935e+00 2.231681e+00 1.645805e+00 3.056631e-01 1.809517e-01 1.055017e-01 1.913280e-01 2.032551e-01 3.449416e-01 4.741836e-01 6.066568e-01 3.947149e-01 4.509957e-01 2.559747e-01 3.990248e-01 2.629070e-01 5.244317e-02
<GCONST> 1.035804e+02
<TRANSP> 6
 0.000000e+00 1.000000e+00 0.000000e+00 0.000000e+00 0.000000e+00 0.000000e+00
 0.000000e+00 7.811422e-01 2.188579e-01 0.000000e+00 0.000000e+00 0.000000e+00
 0.000000e+00 0.000000e+00 9.281355e-01 7.186453e-02 0.000000e+00 0.000000e+00
 0.000000e+00 0.000000e+00 0.000000e+00 8.986902e-01 1.013098e-01 0.000000e+00
 0.000000e+00 0.000000e+00 0.000000e+00 0.000000e+00 8.554439e-01 1.445561e-01
 0.000000e+00 0.000000e+00 0.000000e+00 0.000000e+00 0.000000e+00 0.000000e+00
<ENDHMM>

~h "six"
<BEGINHMM>
<NUMSTATES> 6
<STATE> 2
<MEAN> 39
 5.268384e-01 -2.190840e+01 2.859329e+00 -5.101460e+00 -2.392186e+01 -3.337552e+00 -1.203224e+01 -7.862391e+00 5.870947e-01 -7.901628e+00 8.805054e-01 7.653024e-01 6.141264e+01 2.140085e+00 -5.479801e-01 7.003168e-02 -4.423710e-01 -1.730485e+00 -1.742057e+00 -2.303734e-01 -4.804429e-01 7.703634e-02 3.924308e-01 -1.627875e-01 3.906434e-01 1.602320e+00 -4.398271e-01 -3.602235e-02 -1.098762e-01 1.388248e-01 8.125011e-02 1.777704e-01 4.572276e-01 1.368495e-01 8.634229e-02 1.877949e-01 4.071345e-02 -1.742993e-02 -9.760777e-02
<VARIANCE> 39
 8.804790e+01 7.603383e+01 2.987431e+01 2.928087e+01 7.113910e+01 8.481045e+01 4.076717e+01 4.715549e+01 3.204813e+01 4.228774e+01 2.725937e+01 3.007461e+01 4.575557e+01 4.432949e+00 1.353304e+00 2.411828e+00 2.758282e+00 2.181292e+00 6.510375e+00 4.512191e+00 3.671194e+00 4.223721e+00 4.988111e+00 2.677423e+00 2.709487e+00 1.232701e+00 8.971635e-01 2.071959e-01 2.746036e-01 4.116280e-01 4.116406e-01 1.029163e+00 8.232993e-01 7.762035e-01 5.924502e-01 4.654622e-01 5.034479e-01 4.208191e-01 1.536272e-01
<GCONST> 1.257740e+02
<STATE> 3
<MEAN> 39
 6.552752e+00 -2.843493e+01 4.834035e+00 -9.002781e+00 -3.266103e+01 -6.344431e+00 -8.145623e+00 -2.680371e+00 3.103580e+00 -5.454511e+00 3.323123e+00 -5.398359e-01 7.070292e+01 -5.616268e-01 -6.377400e-02 6.326509e-01 -2.652886e-01 -2.038006e-01 3.662036e-01 3.656428e-01 6.363798e-01 -3.214435e-01 -3.345294e-01 4.465390e-01 -5.641595e-01 7.218525e-04 -2.335873e-01 1.612344e-01 1.492100e-01 8.383477e-02 2.629552e-01 2.105936e-01 -2.683612e-01 -8.830437e-02 -2.074991e-01 -2.963549e-01 -1.722031e-02 -2.784560e-02 -3.803353e-01
<VARIANCE> 39
 1.223757e+01 1.159412e+01 3.945027e+01 6.402658e+01 2.553608e+01 1.511482e+02 4.586508e+01 7.769199e+01 3.878738e+01 9.618980e+01 3.573969e+01 3.753226e+01 5.155441e+00 4.956037e-01 5.545720e-01 1.975361e+00 1.681190e+00 1.221656e+00 2.321261e+00 4.811855e+00 4.099030e+00 2.206593e+00 5.514539e+00 2.731483e+00 2.941715e+00 6.749923e-01 1.521507e-01 8.647673e-02 3.562959e-01 3.483461e-01 3.202546e-01 5.477572e-01 6.268351e-01 6.645563e-01 2.961200e-01 1.073841e+00 4.428385e-01 6.734077e-01 6.446546e-02
<GCONST> 1.119609e+02
<STATE> 4
<MEAN> 39
 8.781579e-01 -2.637377e+01 9.012523e+00 -8.551789e+00 -3.141445e+01 -4.477350e+00 -1.100144e+01 -2.664260e+00 -2.157014e-01 -8.780645e+00 4.404319e+00 -1.684701e+00 6.460497e+01 -1.461017e+00 8.111842e-01 -4.306791e-01 9.413132e-01 9.460251e-01 5.335586e-01 3.523771e-01 6.712183e-02 -1.527860e-01 9.673966e-03 -4.965789e-01 1.322525e-01 -2.047666e+00 -2.958397e-01 2.784024e-01 -5.766844e-01 1.160121e-01 4.191837e-01 -7.873612e-02 2.809154e-01 2.327655e-01 3.489556e-01 3.340121e-01 -7.480573e-02 1.337376e-01 -1.610161e-01
<VARIANCE> 39
 1.622814e+01 1.017040e+01 1.067851e+01 3.661300e+01 3.043437e+01 1.022885e+02 6.459140e+01 6.503471e+01 8.785203e+01 3.705328e+01 4.027480e+01 2.022763e+01 1.562817e+01 7.673454e-01 6.980795e-01 1.416208e+00 1.052112e+00 1.964450e+00 1.640132e+00 2.159511e+00 2.005086e+00 2.909540e+00 2.792206e+00 1.972678e+00 1.867966e+00 2.673057e-01 1.662868e-01 2.472441e-01 2.151523e-01 3.494756e-01 4.845951e-01 3.964518e-01 5.756093e-01 4.077243e-01 5.890720e-01 5.709652e-01 4.591324e-01 4.998150e-01 1.086201e-01
<GCONST> 1.075084e+02
<STATE> 5
<MEAN> 39
 -6.580186e+00 -2.097220e+01 1.598155e+00 -2.653132e+00 -2.259901e+01 -5.140468e+00 -8.912778e+00 -1.179239e+00 1.855609e-01 -7.845405e+00 3.061150e+00 2.577039e-01 5.677066e+01 -2.144734e+00 1.711307e+00 -1.584644e+00 4.197384e-01 2.421825e+00 3.611587e-02 2.942580e-01 4.648566e-01 4.984701e-01 5.123467e-01 -2.381749e-01 6.851851e-01 -1.585841e+00 2.069529e-01 -1.679728e-01 -5.887625e-02 -1.519639e-01 -5.651733e-03 -8.741659e-02 -1.280912e-01 -1.599068e-01 2.060389e-02 1.019570e-01 -1.507481e-02 7.194387e-02 2.213921e-01
<VARIANCE> 39
 1.961625e+01 4.187053e+01 2.451894e+01 2.952063e+01 5.087010e+01 7.688137e+01 5.961416e+01 3.737920e+01 6.540337e+01 4.590339e+01 2.839640e+01 2.821478e+01 1.189943e+01 2.560208e+00 5.355662e+00 2.718553e+00 2.759855e+00 6.714892e+00 4.555705e+00 3.608605e+00 3.514644e+00 4.634635e+00 4.770420e+00 2.580928e+00 2.512353e+00 1.978934e+00 4.351487e-01 1.021435e+00 3.401369e-01 3.534157e-01 1.334814e+00 6.997734e-01 6.997412e-01 3.654497e-01 8.221093e-01 8.778368e-01 3.366399e-01 4.835367e-01 2.836203e-01
<GCONST> 1.266024e+02
<TRANSP> 6
 0.000000e+00 1.000000e+00 0.000000e+00 0.000000e+00 0.000000e+00 0.000000e+00
 0.000000e+00 8.221422e-01 1.778578e-01 0.000000e+00 0.000000e+00 0.000000e+00
 0.000000e+00 0.000000e+00 8.616943e-01 1.383058e-01 0.000000e+00 0.000000e+00
 0.000000e+00 0.000000e+00 0.000000e+00 7.650869e-01 2.349131e-01 0.000000e+00
 0.000000e+00 0.000000e+00 0.000000e+00 0.000000e+00 7.387545e-01 2.612456e-01
 0.000000e+00 0.000000e+00 0.000000e+00 0.000000e+00 0.000000e+00 0.000000e+00
<ENDHMM>


~h "seven"
<BEGINHMM>
<NUMSTATES> 6
<STATE> 2
<MEAN> 39
 4.136296e+00 -2.365946e+01 -4.664383e+00 -9.121174e+00 -1.985036e+01 -5.237688e+00 -1.653664e+01 -9.136352e-01 4.391150e+00 -4.565598e+00 2.410195e+00 -6.243422e+00 6.288387e+01 1.931767e+00 -8.661788e-01 2.075532e-01 -1.219440e+00 -9.639405e-01 -4.455358e-01 -9.051445e-01 5.833434e-01 3.912820e-01 -1.828256e-02 -9.006025e-02 -1.080450e+00 1.425073e+00 -2.961241e-01 4.429954e-02 -1.337553e-01 7.393453e-02 2.174606e-01 1.958234e-01 4.091494e-01 1.437137e-01 -2.558021e-02 -4.764965e-02 -2.027770e-01 -1.019130e-01 -1.195847e-01
<VARIANCE> 39
 6.558035e+01 2.974797e+01 7.426906e+01 3.234554e+01 2.550319e+01 6.335470e+01 5.010850e+01 4.001274e+01 5.213139e+01 5.320520e+01 2.082548e+01 4.602561e+01 1.805776e+01 6.014207e+00 2.931759e+00 5.934818e+00 2.248146e+00 2.798945e+00 6.638868e+00 5.849606e+00 3.259875e+00 2.843721e+00 3.797846e+00 3.031209e+00 3.252177e+00 2.137956e+00 7.895656e-01 2.841459e-01 9.224296e-01 4.347997e-01 5.172392e-01 9.299013e-01 1.131956e+00 5.288895e-01 3.989907e-01 6.474044e-01 5.212464e-01 4.770960e-01 2.482586e-01
<GCONST> 1.286823e+02
<STATE> 3
<MEAN> 39
 7.184911e+00 -2.936031e+01 -2.644175e+00 -1.501733e+01 -2.088678e+01 3.690319e-01 -1.501250e+01 6.523705e+00 9.294798e+00 -6.900271e+00 -7.597436e-01 -1.072206e+01 6.913424e+01 -1.291269e-01 -3.769886e-02 7.741837e-02 2.079908e-01 1.314704e-01 6.045634e-02 -2.019598e-01 -2.211920e-01 1.544408e-02 4.427534e-02 1.061812e-02 -8.919861e-02 -1.069109e-01 -1.126255e-01 1.421152e-01 1.246936e-01 1.406865e-01 -4.847837e-02 -1.793107e-01 -2.644539e-01 -2.277984e-01 -1.430595e-01 -5.088942e-02 1.668958e-01 1.726333e-01 -2.018014e-01
<VARIANCE> 39
 9.845987e+00 3.097956e+01 1.801955e+01 1.450177e+01 7.876144e+00 2.856737e+01 3.316004e+01 4.059309e+01 6.876226e+01 3.211412e+01 4.512682e+01 1.872598e+01 5.747937e+00 2.491849e-01 7.216815e-01 1.218289e+00 6.064221e-01 9.407124e-01 1.617034e+00 3.037514e+00 3.356622e+00 1.988699e+00 2.140345e+00 3.372764e+00 8.408050e-01 6.450503e-01 1.016176e-01 1.283391e-01 2.041636e-01 1.596310e-01 1.425567e-01 2.158224e-01 3.718771e-01 6.197553e-01 4.607148e-01 3.927483e-01 4.806466e-01 2.028274e-01 1.294165e-01
<GCONST> 9.575331e+01
<STATE> 4
<MEAN> 39
 4.710739e+00 -2.576826e+01 -1.467420e+00 -1.039179e+01 -2.441003e+01 -3.689027e+00 -1.941929e+01 -2.922525e+00 7.485087e+00 -8.641033e+00 -1.867891e+00 -4.360065e+00 6.361900e+01 -4.143021e-01 5.669878e-01 -5.552284e-02 6.034898e-01 2.579690e-02 -2.330474e-01 9.578294e-02 -6.232668e-01 -5.267780e-01 -1.848438e-01 -2.194018e-01 1.532428e-01 -6.300803e-01 -8.427370e-02 1.490701e-01 -1.544642e-02 2.210194e-02 1.325446e-01 2.867825e-02 1.148166e-01 -1.250354e-02 -6.069218e-02 9.098610e-02 -8.636770e-03 -3.646074e-02 -3.958950e-02
<VARIANCE> 39
 1.761948e+01 1.381290e+01 2.747071e+01 2.700569e+01 1.389659e+01 2.333609e+01 3.549823e+01 3.820111e+01 6.189077e+01 4.219904e+01 2.979928e+01 3.678313e+01 1.107104e+01 1.263636e+00 1.112273e+00 1.306050e+00 1.169226e+00 1.206005e+00 1.408127e+00 2.450195e+00 3.084720e+00 2.446878e+00 1.953760e+00 2.021501e+00 1.995932e+00 8.245679e-01 1.825278e-01 1.482224e-01 2.017136e-01 2.004055e-01 2.112055e-01 2.350928e-01 4.122318e-01 5.028034e-01 4.920813e-01 4.216842e-01 3.828743e-01 3.631513e-01 1.179193e-01
<GCONST> 1.030512e+02
<STATE> 5
<MEAN> 39
 -1.879770e+00 -1.307978e+01 5.984002e-01 -5.611348e+00 -1.929727e+01 -5.911024e+00 -1.642088e+01 -7.921074e+00 -2.401789e+00 -9.640759e+00 -2.933203e+00 -6.121930e+00 5.594149e+01 -1.301991e+00 1.045743e+00 -1.301167e-01 4.612525e-01 9.388810e-01 -1.382499e-01 9.172920e-01 4.405663e-03 -3.110143e-01 2.351550e-01 -2.871796e-01 4.112703e-01 -8.503481e-01 -3.373660e-02 -1.507715e-01 -1.194700e-01 -1.180604e-01 2.382278e-02 1.250902e-01 1.397654e-01 2.306752e-01 1.335804e-01 -6.191355e-03 -3.067304e-03 6.423192e-02 3.630644e-02
<VARIANCE> 39
 3.579864e+01 3.372558e+01 2.410294e+01 1.964223e+01 2.864637e+01 2.535323e+01 4.058092e+01 1.633320e+01 3.072056e+01 3.147550e+01 2.931148e+01 2.155801e+01 7.684547e+00 1.438370e+00 1.628691e+00 9.412194e-01 1.419791e+00 2.206660e+00 1.780746e+00 3.051098e+00 1.981067e+00 1.612141e+00 1.875546e+00 2.681128e+00 2.135118e+00 3.423855e-01 2.840445e-01 2.486543e-01 2.089864e-01 2.475677e-01 4.323490e-01 3.381943e-01 5.893476e-01 3.316674e-01 2.961920e-01 3.961004e-01 6.007578e-01 3.772469e-01 6.988318e-02
<GCONST> 1.040131e+02
<TRANSP> 6
 0.000000e+00 1.000000e+00 0.000000e+00 0.000000e+00 0.000000e+00 0.000000e+00
 0.000000e+00 8.706190e-01 1.035154e-01 2.586559e-02 0.000000e+00 0.000000e+00
 0.000000e+00 0.000000e+00 9.108213e-01 8.917876e-02 0.000000e+00 0.000000e+00
 0.000000e+00 0.000000e+00 0.000000e+00 9.080766e-01 9.192341e-02 0.000000e+00
 0.000000e+00 0.000000e+00 0.000000e+00 0.000000e+00 8.938480e-01 1.061520e-01
 0.000000e+00 0.000000e+00 0.000000e+00 0.000000e+00 0.000000e+00 0.000000e+00
<ENDHMM>


~h "eight"
<BEGINHMM>
<NUMSTATES> 6
<STATE> 2
<MEAN> 39
 2.828839e+00 -2.614569e+01 5.919383e+00 -1.245699e+01 -3.025886e+01 -4.899434e-01 -1.334895e+01 -1.241578e+00 5.340399e+00 -7.458532e+00 4.543513e+00 -1.756328e+00 6.580297e+01 2.307709e+00 -8.300002e-01 1.377172e+00 -1.527763e+00 -2.328317e+00 -5.147994e-01 -9.386958e-01 -1.049762e+00 -1.422931e-01 -2.621731e-01 2.202647e-01 -1.639069e-01 2.016467e+00 -4.831032e-01 4.241108e-01 -1.642830e-01 3.059820e-01 5.032842e-01 -1.043681e-01 1.766475e-01 -2.526692e-01 -2.612658e-01 -2.673328e-03 -1.545522e-01 6.140691e-02 -3.222125e-01
<VARIANCE> 39
 3.245036e+01 2.127133e+01 1.901078e+01 2.358945e+01 4.111476e+01 3.898924e+01 3.404866e+01 7.202170e+01 3.415066e+01 4.249431e+01 3.953997e+01 3.367087e+01 2.194103e+01 2.907976e+00 2.460316e+00 1.393717e+00 2.465985e+00 2.916851e+00 1.521091e+00 2.800929e+00 3.792053e+00 2.839476e+00 2.480774e+00 2.764596e+00 2.782289e+00 1.632205e+00 3.853884e-01 3.932892e-01 2.841849e-01 3.838719e-01 5.097297e-01 2.517900e-01 5.258324e-01 4.897034e-01 4.775510e-01 4.508244e-01 5.205551e-01 5.101856e-01 2.992339e-01
<GCONST> 1.170241e+02
<STATE> 3
<MEAN> 39
 7.018089e+00 -2.250315e+01 1.299431e+01 -1.403237e+01 -3.507393e+01 -1.617285e+00 -1.868161e+01 -1.264975e+01 1.023916e+00 -9.447497e+00 3.162257e+00 6.432385e-01 6.774048e+01 -1.264221e-01 4.565516e-01 4.511928e-01 3.778310e-01 1.762185e-01 -1.321357e-02 -4.663088e-01 -6.280305e-01 -5.006391e-01 -1.496967e-01 1.900290e-02 2.640735e-02 -4.534373e-01 -1.210194e-01 4.618205e-03 -1.103539e-01 9.669900e-02 1.561991e-01 7.311882e-02 6.045336e-02 1.097506e-01 2.081924e-02 1.075071e-02 -4.510371e-03 8.736160e-03 -1.393103e-01
<VARIANCE> 39
 7.363486e+00 1.616811e+01 1.788718e+01 1.920886e+01 1.502444e+01 3.653090e+01 3.180419e+01 4.309824e+01 6.008242e+01 2.265017e+01 3.642689e+01 3.404208e+01 8.422102e+00 3.214969e-01 6.066240e-01 6.965432e-01 9.146765e-01 1.113785e+00 1.153995e+00 1.538426e+00 1.831111e+00 1.736549e+00 1.510896e+00 1.532098e+00 2.129511e+00 3.129904e-01 1.068303e-01 1.015998e-01 1.289551e-01 1.889671e-01 1.918858e-01 2.686234e-01 3.048491e-01 2.792452e-01 3.044909e-01 2.895301e-01 2.818388e-01 3.119928e-01 3.185799e-02
<GCONST> 9.051073e+01
<STATE> 4
<MEAN> 39
 -8.484476e+00 -1.496390e+01 4.399123e+00 -3.966390e+00 -1.361352e+01 4.947521e+00 -7.575294e+00 -2.806153e+00 4.139370e+00 -3.303397e+00 5.228998e+00 1.274222e+00 5.567289e+01 3.061437e-01 2.461316e-02 -4.876373e-01 -1.619995e-01 4.740477e-01 1.238137e-01 -3.862058e-01 5.308449e-01 -1.112509e-01 -7.616735e-01 -1.078630e-01 -1.278708e-01 1.049786e-02 2.262495e-03 -1.069151e-02 7.755909e-02 1.172011e-02 -1.120533e-01 4.221080e-02 4.480186e-02 -1.290585e-01 -6.483125e-02 5.926211e-02 -8.119116e-02 -8.718678e-02 2.349631e-02
<VARIANCE> 39
 7.855300e+01 6.251334e+01 5.090136e+01 3.003126e+01 1.311355e+02 2.945794e+01 1.304386e+02 1.187676e+02 3.447611e+01 1.296320e+02 1.542548e+01 1.174762e+01 4.815830e+01 2.760059e+00 3.962216e+00 2.023032e+00 1.815636e+00 1.025782e+01 3.095075e+00 7.165786e+00 5.931463e+00 3.273455e+00 6.056780e+00 2.227712e+00 1.342912e+00 2.132512e+00 3.213077e-01 6.199948e-01 3.157097e-01 3.594563e-01 1.814658e+00 5.721419e-01 1.210168e+00 1.082065e+00 5.042684e-01 1.008041e+00 4.849129e-01 2.012175e-01 2.123658e-01
<GCONST> 1.306000e+02
<STATE> 5
<MEAN> 39
 -2.786018e+00 -1.748038e+01 3.230762e+00 -6.269155e+00 -2.195505e+01 -6.532016e-01 -1.452973e+01 -9.158352e+00 -2.200560e+00 -1.105450e+01 2.628922e-01 -1.066965e+00 5.765738e+01 -1.155287e+00 3.749392e-01 -1.157937e+00 4.340808e-01 1.050758e+00 -4.447182e-02 1.060594e+00 7.227522e-01 1.092406e-01 2.912478e-01 -2.618614e-01 1.614582e-01 -6.904722e-01 -5.492732e-03 -5.925192e-03 -9.441678e-02 -6.801179e-02 4.721127e-02 -6.595634e-02 -4.746791e-03 5.187348e-02 5.073577e-02 2.702288e-02 -4.246946e-03 1.722176e-02 4.816737e-02
<VARIANCE> 39
 3.634619e+01 2.842462e+01 5.073132e+01 2.158795e+01 5.336841e+01 2.734414e+01 4.557760e+01 3.768150e+01 3.130064e+01 2.473447e+01 2.479198e+01 1.666273e+01 9.043996e+00 3.277693e+00 2.042936e+00 2.760448e+00 2.020261e+00 3.714633e+00 1.808401e+00 3.367881e+00 2.441032e+00 3.033521e+00 2.163996e+00 1.535762e+00 1.819689e+00 8.007541e-01 4.686461e-01 2.678958e-01 3.899028e-01 3.354457e-01 4.382072e-01 3.114880e-01 6.115784e-01 3.760152e-01 5.701346e-01 3.949780e-01 2.540704e-01 3.629672e-01 7.041385e-02
<GCONST> 1.114486e+02
<TRANSP> 6
 0.000000e+00 1.000000e+00 0.000000e+00 0.000000e+00 0.000000e+00 0.000000e+00
 0.000000e+00 8.195779e-01 1.804221e-01 0.000000e+00 0.000000e+00 0.000000e+00
 0.000000e+00 0.000000e+00 9.336463e-01 6.031605e-03 6.032205e-02 0.000000e+00
 0.000000e+00 0.000000e+00 0.000000e+00 9.743632e-01 2.563678e-02 0.000000e+00
 0.000000e+00 0.000000e+00 0.000000e+00 0.000000e+00 9.180602e-01 8.193982e-02
 0.000000e+00 0.000000e+00 0.000000e+00 0.000000e+00 0.000000e+00 0.000000e+00
<ENDHMM>


~h "nine"
<BEGINHMM>
<NUMSTATES> 6
<STATE> 2
<MEAN> 39
 6.085685e+00 -2.237793e+01 2.381666e+00 -6.743948e+00 -2.068113e+01 -1.810004e+00 -1.841736e+01 -5.102656e+00 1.081418e-01 -1.258454e+01 -8.567929e-01 -3.956157e+00 6.323744e+01 1.475652e+00 -2.225948e+00 -4.892795e-01 -1.021824e+00 1.842656e-01 7.479991e-01 -6.409647e-01 1.172770e+00 8.007654e-01 -3.281634e-01 6.014112e-04 -8.871121e-01 1.700530e+00 -4.251926e-01 1.876374e-01 -1.999292e-01 -7.633181e-03 5.431936e-01 1.996306e-01 1.397502e-01 3.432071e-02 9.549551e-02 2.347180e-01 3.603777e-02 -4.357212e-02 -2.002695e-01
<VARIANCE> 39
 2.763262e+01 6.519342e+01 4.598899e+01 3.383369e+01 3.016166e+01 3.852351e+01 4.586131e+01 8.304361e+01 4.707708e+01 2.608220e+01 4.492804e+01 3.376106e+01 2.704955e+01 2.875551e+00 2.103604e+00 4.162240e+00 1.670441e+00 3.961374e+00 4.288350e+00 4.614229e+00 6.818861e+00 2.734803e+00 1.928928e+00 2.884537e+00 2.091045e+00 9.379228e-01 2.777336e-01 3.380324e-01 7.046182e-01 3.371489e-01 4.597152e-01 7.232353e-01 7.466224e-01 1.292076e+00 5.141380e-01 3.733754e-01 5.217134e-01 4.578943e-01 1.312375e-01
<GCONST> 1.229246e+02
<STATE> 3
<MEAN> 39
 7.298450e+00 -3.144782e+01 -3.433917e+00 -1.312283e+01 -1.198313e+01 6.482861e+00 -2.078928e+01 6.902682e-01 5.279448e+00 -1.114795e+01 3.161727e-01 -9.109548e+00 6.908388e+01 -1.189862e-01 8.650240e-02 1.446891e-01 1.288707e-01 3.569353e-03 -1.999136e-01 -1.330260e-01 2.433107e-01 1.872436e-01 -1.964060e-01 -5.925506e-02 1.431091e-01 -1.139372e-01 -1.615755e-02 1.000472e-01 8.116204e-02 1.208827e-01 -2.817703e-01 -2.534156e-01 1.459112e-01 2.955878e-02 -6.442340e-02 -8.223433e-02 -1.305856e-02 1.785229e-01 -9.468997e-02
<VARIANCE> 39
 6.776403e+00 1.182334e+01 1.813651e+01 1.960507e+01 1.144439e+01 3.886992e+01 2.456917e+01 5.119807e+01 3.252674e+01 3.018981e+01 3.538836e+01 1.870764e+01 4.646303e+00 2.167019e-01 5.845608e-01 8.390584e-01 8.906643e-01 2.088392e+00 1.974218e+00 1.813264e+00 1.896230e+00 1.730954e+00 1.720467e+00 1.408722e+00 1.997910e+00 1.555505e-01 4.176028e-02 1.452309e-01 1.127794e-01 1.226287e-01 2.299079e-01 1.463241e-01 2.864323e-01 3.056798e-01 3.368088e-01 2.578732e-01 2.576777e-01 3.059284e-01 2.621603e-02
<GCONST> 8.681076e+01
<STATE> 4
<MEAN> 39
 5.150396e+00 -2.710434e+01 2.657406e+00 -9.977818e+00 -2.258057e+01 -1.678566e+00 -1.668473e+01 3.594466e+00 5.150784e+00 -1.387106e+01 1.704412e+00 -2.708646e+00 6.543865e+01 -3.515755e-01 9.209166e-01 7.213475e-01 2.411547e-01 -1.066855e+00 -4.167540e-01 5.379419e-01 -6.220553e-01 -6.031480e-01 3.214126e-01 3.470680e-01 2.189377e-01 -6.136235e-01 -5.892747e-02 1.568554e-01 -3.627767e-02 -7.454394e-03 1.766610e-01 1.018933e-01 -1.145890e-01 -2.057726e-01 -1.114785e-01 5.771124e-02 9.625984e-03 -7.486553e-02 -5.408903e-02
<VARIANCE> 39
 7.710835e+00 2.338168e+01 2.006256e+01 1.570720e+01 3.715048e+01 3.398761e+01 2.499435e+01 2.921221e+01 5.149393e+01 3.223154e+01 4.751318e+01 3.968295e+01 8.752610e+00 2.659851e-01 1.091653e+00 5.564709e-01 8.603177e-01 1.129575e+00 1.497364e+00 1.789590e+00 2.632525e+00 1.748469e+00 1.539363e+00 1.802919e+00 1.123444e+00 2.697929e-01 5.409462e-02 1.347938e-01 1.243787e-01 1.436459e-01 1.590629e-01 1.766305e-01 2.259932e-01 4.108409e-01 3.505574e-01 3.244068e-01 2.903916e-01 2.432711e-01 2.963427e-02
<GCONST> 9.073499e+01
<STATE> 5
<MEAN> 39
 -5.282116e-01 -1.351402e+01 4.509294e+00 -4.939065e+00 -2.200402e+01 -5.624943e+00 -1.671367e+01 -7.662105e+00 -2.681172e+00 -1.255857e+01 -9.973940e-01 -2.471475e+00 5.696529e+01 -1.243820e+00 1.206267e+00 -5.361477e-01 6.092211e-01 1.258070e+00 -1.738697e-01 3.554617e-01 -4.426842e-01 -3.335510e-01 2.419201e-01 -4.504279e-01 2.196732e-01 -9.468492e-01 -1.531534e-01 -1.815941e-01 -1.669583e-01 -6.543259e-02 1.598947e-01 7.985992e-02 1.759105e-01 2.688235e-01 1.547117e-01 1.115012e-01 -1.606095e-02 -1.249362e-02 2.382166e-02
<VARIANCE> 39
 1.406318e+01 3.737646e+01 2.587375e+01 2.289383e+01 5.976544e+01 5.905376e+01 3.741234e+01 4.279334e+01 2.938365e+01 2.250365e+01 3.778484e+01 2.740183e+01 1.035607e+01 8.826939e-01 1.034631e+00 1.581884e+00 8.105918e-01 1.516012e+00 1.730069e+00 2.529331e+00 3.421683e+00 2.338200e+00 2.343721e+00 1.877554e+00 2.495106e+00 2.078239e-01 1.052877e-01 1.241150e-01 2.379882e-01 1.775894e-01 2.650194e-01 2.332120e-01 4.669404e-01 6.028638e-01 3.305232e-01 4.380418e-01 3.315357e-01 3.861598e-01 2.492947e-02
<GCONST> 1.013694e+02
<TRANSP> 6
 0.000000e+00 1.000000e+00 0.000000e+00 0.000000e+00 0.000000e+00 0.000000e+00
 0.000000e+00 8.673915e-01 1.326085e-01 0.000000e+00 0.000000e+00 0.000000e+00
 0.000000e+00 0.000000e+00 9.201484e-01 7.985163e-02 0.000000e+00 0.000000e+00
 0.000000e+00 0.000000e+00 0.000000e+00 8.990661e-01 1.009339e-01 0.000000e+00
 0.000000e+00 0.000000e+00 0.000000e+00 0.000000e+00 8.795320e-01 1.204680e-01
 0.000000e+00 0.000000e+00 0.000000e+00 0.000000e+00 0.000000e+00 0.000000e+00
<ENDHMM>
