~o
<STREAMINFO> 1 39
<VECSIZE> 39<NULLD><MFCC_D_A_0><DIAGC>
~h "three"
<BEGINHMM>
<NUMSTATES> 6
<STATE> 2
<MEAN> 39
 4.386901e-01 -2.423079e+01 8.607648e-01 -5.906588e+00 -1.907361e+01 -5.174102e-01 -1.903950e+01 -6.115248e+00 3.299708e+00 -1.006036e+01 3.465166e+00 1.325524e+00 6.142542e+01 2.304374e+00 -8.242072e-01 2.600424e-01 -2.965163e-02 -6.208131e-01 -1.284440e+00 -2.112624e+00 -6.879122e-01 -5.217267e-01 -7.855918e-01 3.806069e-01 2.416340e-02 1.374193e+00 -1.934158e-01 2.625074e-01 -1.624113e-01 2.248932e-02 2.934977e-01 -1.238558e-01 8.300100e-02 -1.361949e-02 -1.659142e-01 6.951306e-02 -2.056441e-02 -8.486366e-02 -1.097426e-01
<VARIANCE> 39
 7.397500e+01 2.636209e+01 3.628126e+01 3.337428e+01 4.375078e+01 7.175926e+01 6.901052e+01 5.362602e+01 6.395438e+01 4.076401e+01 3.606951e+01 3.139304e+01 2.116489e+01 2.892283e+00 4.099218e+00 4.568498e+00 3.168971e+00 5.701698e+00 7.134499e+00 5.975613e+00 4.223455e+00 5.468394e+00 3.126706e+00 3.776631e+00 3.506602e+00 1.339357e+00 5.936152e-01 6.382643e-01 9.208962e-01 6.104220e-01 9.248155e-01 1.488741e+00 1.270508e+00 8.257251e-01 9.331683e-01 5.669157e-01 6.445351e-01 6.699036e-01 2.200700e-01
<GCONST> 1.341953e+02
<STATE> 3
<MEAN> 39
 9.080022e+00 -2.708908e+01 2.249464e+00 -5.402971e+00 -1.925182e+01 -1.045491e+01 -2.833708e+01 -6.461820e+00 -1.923085e+00 -1.292764e+01 6.601819e+00 -6.124473e-01 6.917582e+01 -1.819624e-01 -2.220853e-01 8.782032e-01 1.019952e-01 -9.196033e-01 -3.480120e-01 6.327143e-01 1.411168e-01 -3.430496e-01 -2.097338e-01 8.105336e-02 1.588341e-01 3.500211e-01 -1.406923e-01 6.803461e-02 1.852034e-01 -2.244594e-02 -2.160212e-01 2.239932e-01 3.198540e-01 -1.331091e-01 -3.350300e-02 2.332984e-02 -6.237257e-02 8.026461e-02 -1.041003e-01
<VARIANCE> 39
 6.610837e+00 8.857683e+00 3.761216e+01 2.403722e+01 3.532487e+01 5.044857e+01 3.579958e+01 3.308152e+01 4.524904e+01 3.201471e+01 4.094392e+01 2.690408e+01 7.730135e+00 4.437028e-01 5.819801e-01 2.107301e+00 1.435274e+00 2.299645e+00 2.926634e+00 3.210576e+00 2.825689e+00 4.028224e+00 2.269587e+00 2.848039e+00 2.131617e+00 2.863316e-01 9.054868e-02 1.187503e-01 2.390708e-01 2.384266e-01 2.412203e-01 5.533041e-01 3.188274e-01 5.391178e-01 7.851840e-01 4.259940e-01 4.740875e-01 3.528185e-01 3.398414e-02
<GCONST> 1.026378e+02
<STATE> 4
<MEAN> 39
 4.546401e+00 -2.348692e+01 1.646253e+01 -6.943181e+00 -3.217274e+01 -4.908957e+00 -1.772519e+01 -1.456182e+01 -5.388862e+00 -1.226358e+01 5.265945e+00 1.234216e-01 6.813564e+01 -2.275608e-01 3.988831e-01 3.339547e-01 -8.899464e-02 -1.757090e-01 5.496216e-01 1.151219e-01 -4.671101e-01 9.777555e-03 1.454442e-01 -1.613609e-01 -1.872159e-01 -4.648795e-01 -2.751279e-02 2.092656e-02 -1.512168e-01 3.735485e-02 1.227785e-01 -4.097392e-02 -4.595983e-02 1.116927e-01 7.476549e-02 3.890908e-02 -2.704365e-02 -5.165935e-02 -6.361006e-02
<VARIANCE> 39
 1.083886e+01 1.084001e+01 1.710144e+01 1.536057e+01 1.611537e+01 4.300634e+01 3.696632e+01 5.028874e+01 4.484109e+01 3.771650e+01 3.845189e+01 3.258746e+01 1.154007e+01 3.814436e-01 5.356742e-01 1.104177e+00 8.562514e-01 1.151281e+00 1.887923e+00 2.458708e+00 2.914729e+00 1.915908e+00 1.858434e+00 1.662713e+00 1.882418e+00 3.309232e-01 7.654880e-02 8.165281e-02 1.261350e-01 1.519389e-01 2.055148e-01 2.329955e-01 4.328925e-01 3.884998e-01 3.670805e-01 3.634714e-01 2.674288e-01 3.283618e-01 2.484741e-02
<GCONST> 9.350932e+01
<STATE> 5
<MEAN> 39
 -3.942947e+00 -1.664174e+01 9.166083e+00 -5.424515e+00 -2.620307e+01 7.850709e-01 -1.239061e+01 -1.107551e+01 -2.419761e+00 -1.036581e+01 6.084135e-01 -9.249012e-01 5.741855e+01 -1.460138e+00 8.386490e-01 -1.520533e+00 1.356970e-01 1.512954e+00 1.964027e-01 1.159642e+00 9.308722e-01 2.152264e-01 5.466775e-01 -3.074772e-01 -3.346058e-02 -9.656766e-01 -1.425156e-02 -4.934800e-02 -1.092819e-01 -1.774941e-02 2.113638e-01 -1.123743e-01 -3.440971e-02 6.463347e-02 -1.264131e-02 3.544643e-02 8.445841e-02 9.453116e-02 5.582685e-02
<VARIANCE> 39
 3.063927e+01 3.463249e+01 5.617010e+01 1.379339e+01 6.499254e+01 4.015171e+01 8.035986e+01 7.726941e+01 5.107894e+01 3.661715e+01 3.377061e+01 2.667935e+01 1.234029e+01 9.484251e-01 9.309510e-01 1.736279e+00 1.110347e+00 2.966559e+00 2.364457e+00 3.243406e+00 2.808336e+00 2.490513e+00 2.126779e+00 1.662128e+00 2.048126e+00 2.807139e-01 1.666311e-01 1.230130e-01 2.682661e-01 1.865406e-01 4.423831e-01 3.905825e-01 6.168340e-01 5.159487e-01 4.149286e-01 3.546055e-01 3.314522e-01 3.716455e-01 3.348218e-02
<GCONST> 1.078685e+02
<TRANSP> 6
 0.000000e+00 1.000000e+00 0.000000e+00 0.000000e+00 0.000000e+00 0.000000e+00
 0.000000e+00 8.735560e-01 1.264440e-01 0.000000e+00 0.000000e+00 0.000000e+00
 0.000000e+00 0.000000e+00 9.075739e-01 9.242611e-02 0.000000e+00 0.000000e+00
 0.000000e+00 0.000000e+00 0.000000e+00 9.420626e-01 5.793742e-02 0.000000e+00
 0.000000e+00 0.000000e+00 0.000000e+00 0.000000e+00 8.834847e-01 1.165153e-01
 0.000000e+00 0.000000e+00 0.000000e+00 0.000000e+00 0.000000e+00 0.000000e+00
<ENDHMM>
