~o
<STREAMINFO> 1 39
<VECSIZE> 39<NULLD><MFCC_D_A_0><DIAGC>
~h "four"
<BEGINHMM>
<NUMSTATES> 6
<STATE> 2
<MEAN> 39
 8.010155e+00 -1.882159e+01 -2.165435e+00 -1.939623e+01 -2.672965e+01 1.018213e+00 -1.308319e+01 -3.472135e+00 -1.007783e+00 -1.072879e+01 4.851502e+00 -6.509639e-02 6.433700e+01 2.559022e+00 -9.256891e-01 9.532912e-01 -2.162173e+00 -2.407481e+00 2.052920e-01 -4.105211e-01 7.591227e-01 3.999845e-01 -9.807517e-01 5.882307e-01 1.388371e-01 1.741646e+00 -9.630028e-01 1.575700e-01 -4.469298e-04 6.788143e-01 7.312672e-01 5.896231e-02 2.336103e-01 7.223581e-02 1.395720e-01 2.832654e-01 -9.274496e-02 -6.325940e-02 -5.111028e-01
<VARIANCE> 39
 2.338357e+01 4.214769e+01 2.393702e+01 4.427753e+01 3.223502e+01 2.490693e+01 1.706369e+01 1.726473e+01 1.133807e+01 2.803689e+01 3.729086e+01 1.628494e+01 1.718662e+01 5.502285e+00 2.217586e+00 2.085268e+00 4.634393e+00 4.330858e+00 3.264128e+00 2.220170e+00 2.039375e+00 1.663175e+00 3.082747e+00 3.849602e+00 2.266013e+00 2.099776e+00 6.131892e-01 3.924010e-01 3.581268e-01 6.401264e-01 5.246935e-01 5.566760e-01 4.602724e-01 3.774319e-01 2.439803e-01 5.570197e-01 6.130714e-01 5.111087e-01 2.620958e-01
<GCONST> 1.160224e+02
<STATE> 3
<MEAN> 39
 9.943880e+00 -1.830637e+01 2.067473e+00 -2.332065e+01 -3.031634e+01 3.070349e-01 -1.592084e+01 8.329442e-01 8.179678e-01 -1.220939e+01 6.735460e+00 -1.624815e+00 6.482820e+01 -6.564946e-02 -1.280441e-01 -3.002636e-01 -7.091620e-02 4.517711e-01 2.575307e-01 -3.248073e-02 -2.163186e-02 -3.479673e-01 2.626890e-02 3.545487e-01 -2.641023e-02 -4.389097e-02 -1.813503e-02 8.867060e-03 -1.420807e-01 9.093677e-02 1.731168e-01 -7.026851e-03 -1.489474e-02 -6.911186e-02 -5.570315e-02 5.560627e-02 1.592503e-02 -1.811897e-02 -2.174654e-02
<VARIANCE> 39
 2.726787e+00 2.356355e+01 1.753303e+01 1.426052e+01 1.379949e+01 2.585364e+01 2.672793e+01 1.736954e+01 2.159851e+01 1.294240e+01 2.574937e+01 2.267828e+01 7.660034e+00 1.828921e-01 7.225900e-01 1.223070e+00 7.251353e-01 1.275469e+00 1.315163e+00 1.703547e+00 1.375016e+00 1.605232e+00 8.348467e-01 1.529213e+00 1.602792e+00 2.581655e-01 4.017928e-02 1.066293e-01 1.142814e-01 1.275117e-01 1.713939e-01 1.661817e-01 2.412739e-01 2.055836e-01 3.125903e-01 1.583526e-01 2.405652e-01 2.884962e-01 3.300269e-02
<GCONST> 8.114943e+01
<STATE> 4
<MEAN> 39
 8.555939e+00 -2.354453e+01 -7.764361e+00 -1.912172e+01 -1.781331e+01 3.437005e+00 -1.753542e+01 -1.253246e-02 1.614310e+00 -7.816855e+00 8.732151e+00 -4.797770e+00 6.499401e+01 -1.756021e-01 -1.981325e-01 -1.307020e-01 8.056033e-01 5.387136e-01 -5.933943e-01 -8.722418e-01 2.581342e-02 6.545988e-01 2.192817e-01 -4.972770e-01 -4.866057e-01 -2.087379e-01 -7.487866e-02 4.274950e-02 1.255112e-01 5.372394e-02 -1.148733e-01 -5.469471e-02 2.757957e-02 -7.830620e-03 -1.493263e-02 -7.502828e-02 -1.424572e-01 -8.179750e-03 -6.317913e-02
<VARIANCE> 39
 6.358703e+00 1.707943e+01 1.584314e+01 2.572205e+01 2.148330e+01 3.700559e+01 6.014824e+01 3.259911e+01 4.372501e+01 3.078564e+01 5.032074e+01 3.907040e+01 8.066649e+00 3.320115e-01 5.610315e-01 1.295933e+00 1.244854e+00 1.836194e+00 1.100549e+00 2.413347e+00 1.443287e+00 1.821805e+00 1.641825e+00 1.643018e+00 1.353110e+00 2.178060e-01 7.064445e-02 1.108602e-01 1.593777e-01 2.063469e-01 2.311758e-01 2.208259e-01 4.045106e-01 2.928438e-01 3.579358e-01 2.746779e-01 3.341154e-01 2.336304e-01 2.923826e-02
<GCONST> 9.285595e+01
<STATE> 5
<MEAN> 39
 1.086162e+00 -2.066486e+01 -5.139247e+00 -7.983689e+00 -1.306019e+01 -1.137229e+00 -2.051280e+01 -2.883775e+00 3.351544e+00 -8.265045e+00 1.598528e+00 -5.765954e+00 5.947354e+01 -2.003246e+00 1.077869e+00 -2.130399e-01 1.393059e+00 1.162555e+00 -1.274949e-01 1.318193e+00 -3.199596e-01 -6.269959e-02 5.659413e-01 -8.422931e-01 1.628093e-01 -1.184696e+00 -1.803595e-01 1.214803e-01 -1.227942e-01 -9.439613e-02 9.883957e-02 5.172950e-02 2.341501e-01 2.795438e-02 6.284542e-03 1.795348e-01 6.771821e-02 1.719887e-01 -7.521300e-02
<VARIANCE> 39
 3.297997e+01 3.228216e+01 2.300300e+01 2.890181e+01 3.721224e+01 5.300890e+01 6.046656e+01 2.855693e+01 2.859714e+01 4.539046e+01 3.365419e+01 1.717269e+01 1.030299e+01 1.134344e+00 1.008600e+00 1.062765e+00 8.883049e-01 1.561724e+00 1.653198e+00 2.449529e+00 1.751439e+00 2.002857e+00 1.946871e+00 2.315251e+00 1.988087e+00 3.187084e-01 1.893972e-01 1.430083e-01 2.076494e-01 1.949042e-01 3.058546e-01 3.112896e-01 4.843781e-01 3.116460e-01 3.475575e-01 3.297705e-01 4.596694e-01 3.394071e-01 4.429612e-02
<GCONST> 1.020754e+02
<TRANSP> 6
 0.000000e+00 1.000000e+00 0.000000e+00 0.000000e+00 0.000000e+00 0.000000e+00
 0.000000e+00 7.896513e-01 1.953228e-01 1.502588e-02 0.000000e+00 0.000000e+00
 0.000000e+00 0.000000e+00 9.300740e-01 6.992596e-02 0.000000e+00 0.000000e+00
 0.000000e+00 0.000000e+00 0.000000e+00 9.152190e-01 8.478104e-02 0.000000e+00
 0.000000e+00 0.000000e+00 0.000000e+00 0.000000e+00 8.577287e-01 1.422713e-01
 0.000000e+00 0.000000e+00 0.000000e+00 0.000000e+00 0.000000e+00 0.000000e+00
<ENDHMM>
