~o
<STREAMINFO> 1 39
<VECSIZE> 39<NULLD><MFCC_D_A_0><DIAGC>
~h "six"
<BEGINHMM>
<NUMSTATES> 6
<STATE> 2
<MEAN> 39
 5.269163e-01 -2.190865e+01 2.859374e+00 -5.101433e+00 -2.392192e+01 -3.337598e+00 -1.203237e+01 -7.862363e+00 5.871022e-01 -7.901616e+00 8.805833e-01 7.652742e-01 6.141276e+01 2.140097e+00 -5.479659e-01 7.002057e-02 -4.423656e-01 -1.730489e+00 -1.742103e+00 -2.303583e-01 -4.804461e-01 7.701036e-02 3.924518e-01 -1.627848e-01 3.906451e-01 1.602329e+00 -4.398240e-01 -3.601779e-02 -1.098798e-01 1.388250e-01 8.125018e-02 1.777654e-01 4.572303e-01 1.368518e-01 8.634447e-02 1.877995e-01 4.071290e-02 -1.742891e-02 -9.760682e-02
<VARIANCE> 39
 8.804666e+01 7.603307e+01 2.987429e+01 2.928095e+01 7.113766e+01 8.481136e+01 4.076728e+01 4.715469e+01 3.204810e+01 4.228786e+01 2.725931e+01 3.007484e+01 4.575483e+01 4.432862e+00 1.353288e+00 2.411859e+00 2.758279e+00 2.181263e+00 6.510322e+00 4.512194e+00 3.671160e+00 4.223783e+00 4.988113e+00 2.677415e+00 2.709491e+00 1.232668e+00 8.971547e-01 2.071950e-01 2.746085e-01 4.116242e-01 4.116364e-01 1.029176e+00 8.233057e-01 7.761956e-01 5.924573e-01 4.654600e-01 5.034498e-01 4.208201e-01 1.536264e-01
<GCONST> 1.257739e+02
<STATE> 3
<MEAN> 39
 6.552775e+00 -2.843495e+01 4.833980e+00 -9.002713e+00 -3.266100e+01 -6.344623e+00 -8.145732e+00 -2.680373e+00 3.103549e+00 -5.454466e+00 3.323101e+00 -5.397838e-01 7.070295e+01 -5.616288e-01 -6.377684e-02 6.326432e-01 -2.652938e-01 -2.037992e-01 3.662025e-01 3.656645e-01 6.364114e-01 -3.214350e-01 -3.345206e-01 4.465454e-01 -5.641624e-01 7.354045e-04 -2.335892e-01 1.612325e-01 1.492160e-01 8.383225e-02 2.629577e-01 2.106014e-01 -2.683669e-01 -8.830703e-02 -2.075029e-01 -2.963642e-01 -1.721728e-02 -2.784900e-02 -3.803352e-01
<VARIANCE> 39
 1.223750e+01 1.159414e+01 3.945021e+01 6.402721e+01 2.553572e+01 1.511479e+02 4.586464e+01 7.769209e+01 3.878742e+01 9.619091e+01 3.574017e+01 3.753211e+01 5.155393e+00 4.955954e-01 5.545754e-01 1.975357e+00 1.681165e+00 1.221670e+00 2.321258e+00 4.811779e+00 4.099005e+00 2.206611e+00 5.514455e+00 2.731522e+00 2.941714e+00 6.749740e-01 1.521507e-01 8.647773e-02 3.562900e-01 3.483419e-01 3.202582e-01 5.477624e-01 6.268209e-01 6.645563e-01 2.961226e-01 1.073829e+00 4.428467e-01 6.734059e-01 6.446544e-02
<GCONST> 1.119608e+02
<STATE> 4
<MEAN> 39
 8.782845e-01 -2.637389e+01 9.012583e+00 -8.551883e+00 -3.141449e+01 -4.477417e+00 -1.100150e+01 -2.664130e+00 -2.156657e-01 -8.780709e+00 4.404419e+00 -1.684685e+00 6.460519e+01 -1.460977e+00 8.111506e-01 -4.306144e-01 9.413110e-01 9.459844e-01 5.335664e-01 3.523297e-01 6.708827e-02 -1.528173e-01 9.632512e-03 -4.965614e-01 1.322256e-01 -2.047664e+00 -2.958408e-01 2.784014e-01 -5.766813e-01 1.160139e-01 4.191736e-01 -7.872120e-02 2.809222e-01 2.327565e-01 3.489551e-01 3.340194e-01 -7.480268e-02 1.337365e-01 -1.610282e-01
<VARIANCE> 39
 1.622797e+01 1.017004e+01 1.067872e+01 3.661255e+01 3.043374e+01 1.022899e+02 6.459152e+01 6.503416e+01 8.785213e+01 3.705333e+01 4.027479e+01 2.022763e+01 1.562793e+01 7.673104e-01 6.980717e-01 1.416187e+00 1.052080e+00 1.964388e+00 1.640141e+00 2.159521e+00 2.005078e+00 2.909537e+00 2.792330e+00 1.972702e+00 1.867972e+00 2.673139e-01 1.662855e-01 2.472480e-01 2.151553e-01 3.494652e-01 4.845847e-01 3.964507e-01 5.756040e-01 4.077286e-01 5.890523e-01 5.709735e-01 4.591364e-01 4.998199e-01 1.086208e-01
<GCONST> 1.075082e+02
<STATE> 5
<MEAN> 39
 -6.580102e+00 -2.097232e+01 1.598209e+00 -2.653120e+00 -2.259899e+01 -5.140550e+00 -8.913020e+00 -1.179254e+00 1.854481e-01 -7.845529e+00 3.061227e+00 2.576435e-01 5.677074e+01 -2.144725e+00 1.711280e+00 -1.584631e+00 4.197287e-01 2.421779e+00 3.614426e-02 2.942651e-01 4.648466e-01 4.984925e-01 5.123324e-01 -2.381765e-01 6.852095e-01 -1.585828e+00 2.069443e-01 -1.679597e-01 -5.889307e-02 -1.519571e-01 -5.648218e-03 -8.743928e-02 -1.280831e-01 -1.598905e-01 2.061339e-02 1.019640e-01 -1.508268e-02 7.195611e-02 2.213891e-01
<VARIANCE> 39
 1.961624e+01 4.187052e+01 2.451923e+01 2.952046e+01 5.086963e+01 7.688142e+01 5.961345e+01 3.737931e+01 6.540469e+01 4.590316e+01 2.839661e+01 2.821566e+01 1.189946e+01 2.560224e+00 5.355659e+00 2.718560e+00 2.759832e+00 6.714871e+00 4.555734e+00 3.608557e+00 3.514579e+00 4.634507e+00 4.770429e+00 2.580918e+00 2.512366e+00 1.978942e+00 4.351446e-01 1.021422e+00 3.401394e-01 3.534180e-01 1.334810e+00 6.997771e-01 6.997198e-01 3.654481e-01 8.221051e-01 8.778379e-01 3.366400e-01 4.835449e-01 2.836192e-01
<GCONST> 1.266024e+02
<TRANSP> 6
 0.000000e+00 1.000000e+00 0.000000e+00 0.000000e+00 0.000000e+00 0.000000e+00
 0.000000e+00 8.221408e-01 1.778592e-01 0.000000e+00 0.000000e+00 0.000000e+00
 0.000000e+00 0.000000e+00 8.616924e-01 1.383076e-01 0.000000e+00 0.000000e+00
 0.000000e+00 0.000000e+00 0.000000e+00 7.650853e-01 2.349147e-01 0.000000e+00
 0.000000e+00 0.000000e+00 0.000000e+00 0.000000e+00 7.387632e-01 2.612368e-01
 0.000000e+00 0.000000e+00 0.000000e+00 0.000000e+00 0.000000e+00 0.000000e+00
<ENDHMM>
