~o
<STREAMINFO> 1 39
<VECSIZE> 39<NULLD><MFCC_D_A_0><DIAGC>
~h "eight"
<BEGINHMM>
<NUMSTATES> 6
<STATE> 2
<MEAN> 39
 2.832234e+00 -2.614720e+01 5.921789e+00 -1.245827e+01 -3.026194e+01 -4.932323e-01 -1.335018e+01 -1.240643e+00 5.338561e+00 -7.460760e+00 4.545351e+00 -1.755973e+00 6.580611e+01 2.306097e+00 -8.292955e-01 1.376674e+00 -1.526241e+00 -2.327649e+00 -5.151595e-01 -9.374839e-01 -1.050981e+00 -1.422416e-01 -2.616007e-01 2.190488e-01 -1.637735e-01 2.015402e+00 -4.829112e-01 4.238586e-01 -1.642990e-01 3.062198e-01 5.032817e-01 -1.042361e-01 1.765058e-01 -2.525950e-01 -2.612253e-01 -2.546410e-03 -1.545365e-01 6.137200e-02 -3.222643e-01
<VARIANCE> 39
 3.244817e+01 2.126447e+01 1.901293e+01 2.358118e+01 4.110133e+01 3.899996e+01 3.406679e+01 7.201079e+01 3.415466e+01 4.249746e+01 3.953702e+01 3.366129e+01 2.194013e+01 2.909692e+00 2.459429e+00 1.393841e+00 2.467714e+00 2.915807e+00 1.521506e+00 2.801686e+00 3.792214e+00 2.838369e+00 2.480217e+00 2.765638e+00 2.782971e+00 1.632687e+00 3.853439e-01 3.930977e-01 2.841843e-01 3.837121e-01 5.094244e-01 2.518137e-01 5.259714e-01 4.894361e-01 4.773724e-01 4.509066e-01 5.202774e-01 5.101593e-01 2.990544e-01
<GCONST> 1.170220e+02
<STATE> 3
<MEAN> 39
 7.016529e+00 -2.250244e+01 1.299547e+01 -1.403294e+01 -3.507529e+01 -1.615963e+00 -1.868032e+01 -1.265106e+01 1.028177e+00 -9.446362e+00 3.160570e+00 6.442518e-01 6.774291e+01 -1.254316e-01 4.568118e-01 4.521924e-01 3.768774e-01 1.753386e-01 -1.344377e-02 -4.675403e-01 -6.275737e-01 -5.009454e-01 -1.498645e-01 1.944734e-02 2.559220e-02 -4.529059e-01 -1.202189e-01 4.570387e-03 -1.100479e-01 9.618413e-02 1.560784e-01 7.321481e-02 5.985465e-02 1.094110e-01 2.049772e-02 1.068285e-02 -4.486862e-03 8.712953e-03 -1.391674e-01
<VARIANCE> 39
 7.365829e+00 1.617050e+01 1.789653e+01 1.920697e+01 1.502543e+01 3.654967e+01 3.180054e+01 4.306622e+01 6.009155e+01 2.265994e+01 3.643275e+01 3.405603e+01 8.413991e+00 3.199659e-01 6.069317e-01 6.946464e-01 9.139152e-01 1.111565e+00 1.152975e+00 1.537345e+00 1.831227e+00 1.737601e+00 1.510838e+00 1.531983e+00 2.129026e+00 3.119876e-01 1.059124e-01 1.016102e-01 1.288748e-01 1.887462e-01 1.919785e-01 2.687882e-01 3.042100e-01 2.791200e-01 3.043394e-01 2.895659e-01 2.820127e-01 3.121384e-01 3.184963e-02
<GCONST> 9.048591e+01
<STATE> 4
<MEAN> 39
 -8.484533e+00 -1.496388e+01 4.399126e+00 -3.966362e+00 -1.361351e+01 4.947528e+00 -7.575233e+00 -2.806157e+00 4.139397e+00 -3.303324e+00 5.229019e+00 1.274248e+00 5.567286e+01 3.061515e-01 2.461519e-02 -4.876476e-01 -1.620090e-01 4.740614e-01 1.238088e-01 -3.862185e-01 5.308623e-01 -1.112454e-01 -7.616830e-01 -1.078520e-01 -1.278636e-01 1.050206e-02 2.262137e-03 -1.069190e-02 7.756271e-02 1.171942e-02 -1.120563e-01 4.221489e-02 4.480463e-02 -1.290617e-01 -6.483376e-02 5.926434e-02 -8.119407e-02 -8.719203e-02 2.349755e-02
<VARIANCE> 39
 7.855223e+01 6.251348e+01 5.090170e+01 3.003111e+01 1.311358e+02 2.945802e+01 1.304378e+02 1.187681e+02 3.447599e+01 1.296312e+02 1.542548e+01 1.174748e+01 4.815813e+01 2.760047e+00 3.962227e+00 2.023007e+00 1.815611e+00 1.025780e+01 3.095079e+00 7.165761e+00 5.931389e+00 3.273459e+00 6.056769e+00 2.227689e+00 1.342908e+00 2.132513e+00 3.213086e-01 6.199967e-01 3.157063e-01 3.594576e-01 1.814661e+00 5.721405e-01 1.210170e+00 1.082064e+00 5.042679e-01 1.008043e+00 4.849125e-01 2.012125e-01 2.123659e-01
<GCONST> 1.305999e+02
<STATE> 5
<MEAN> 39
 -2.775897e+00 -1.748378e+01 3.238954e+00 -6.275377e+00 -2.196478e+01 -6.539374e-01 -1.453620e+01 -9.164283e+00 -2.203013e+00 -1.105404e+01 2.657569e-01 -1.066020e+00 5.766245e+01 -1.155652e+00 3.747818e-01 -1.157814e+00 4.351463e-01 1.051565e+00 -4.384112e-02 1.060365e+00 7.216986e-01 1.089405e-01 2.908369e-01 -2.616735e-01 1.623573e-01 -6.912388e-01 -6.540542e-03 -5.887486e-03 -9.477387e-02 -6.740506e-02 4.733562e-02 -6.595616e-02 -3.930599e-03 5.243468e-02 5.118043e-02 2.703373e-02 -4.227782e-03 1.724024e-02 4.791445e-02
<VARIANCE> 39
 3.643416e+01 2.841539e+01 5.076821e+01 2.163486e+01 5.344694e+01 2.732333e+01 4.559661e+01 3.769536e+01 3.129187e+01 2.471442e+01 2.479868e+01 1.666456e+01 9.067410e+00 3.275224e+00 2.041345e+00 2.758785e+00 2.020278e+00 3.712413e+00 1.808582e+00 3.365907e+00 2.440383e+00 3.031230e+00 2.163598e+00 1.535259e+00 1.819738e+00 8.008801e-01 4.696446e-01 2.677605e-01 3.897187e-01 3.357155e-01 4.379019e-01 3.112398e-01 6.120685e-01 3.761811e-01 5.700701e-01 3.947326e-01 2.539173e-01 3.626845e-01 7.043032e-02
<GCONST> 1.114523e+02
<TRANSP> 6
 0.000000e+00 1.000000e+00 0.000000e+00 0.000000e+00 0.000000e+00 0.000000e+00
 0.000000e+00 8.197106e-01 1.802895e-01 0.000000e+00 0.000000e+00 0.000000e+00
 0.000000e+00 0.000000e+00 9.335811e-01 6.037562e-03 6.038139e-02 0.000000e+00
 0.000000e+00 0.000000e+00 0.000000e+00 9.743631e-01 2.563686e-02 0.000000e+00
 0.000000e+00 0.000000e+00 0.000000e+00 0.000000e+00 9.181340e-01 8.186603e-02
 0.000000e+00 0.000000e+00 0.000000e+00 0.000000e+00 0.000000e+00 0.000000e+00
<ENDHMM>
