~o
<STREAMINFO> 1 39
<VECSIZE> 39<NULLD><MFCC_D_A_0><DIAGC>
~h "five"
<BEGINHMM>
<NUMSTATES> 6
<STATE> 2
<MEAN> 39
 6.275363e+00 -2.702601e+01 -5.896171e+00 -1.749778e+01 -1.683528e+01 1.003038e+01 -1.116756e+01 -8.323543e-01 3.166018e+00 -4.635831e+00 7.237173e+00 -5.947721e+00 6.649675e+01 2.294776e+00 -1.453752e+00 -3.359005e-01 -2.041688e+00 -2.065823e-01 1.788061e+00 -1.024632e-01 4.150952e-01 -1.691197e-01 -6.913790e-01 3.134981e-01 -9.920329e-01 2.501442e+00 -9.123364e-01 3.135833e-01 2.343222e-01 7.185456e-01 6.452927e-01 -2.637558e-02 2.984422e-01 1.053410e-01 -1.096758e-01 -2.190095e-01 -5.351028e-01 1.542137e-01 -6.256050e-01
<VARIANCE> 39
 1.884192e+01 3.065298e+01 3.131618e+01 6.350331e+01 2.665224e+01 2.980115e+01 3.596193e+01 3.173359e+01 2.287714e+01 2.669005e+01 2.745645e+01 3.234763e+01 1.949121e+01 4.954475e+00 1.774127e+00 3.058401e+00 5.314931e+00 4.127778e+00 2.680212e+00 4.373612e+00 2.960701e+00 2.311945e+00 2.328223e+00 3.921209e+00 2.145212e+00 1.926839e+00 5.676644e-01 2.372403e-01 5.746574e-01 7.207338e-01 4.506661e-01 4.625209e-01 8.388143e-01 6.179631e-01 5.252752e-01 3.875731e-01 4.443241e-01 3.473201e-01 1.800636e-01
<GCONST> 1.196310e+02
<STATE> 3
<MEAN> 39
 7.365280e+00 -3.073957e+01 -6.171993e+00 -1.832363e+01 -1.087206e+01 1.661314e+01 -1.201149e+01 -3.617080e-01 1.764208e+00 -1.028652e+01 3.616782e+00 -8.341433e+00 7.006681e+01 -1.784168e-01 -1.616225e-01 -1.733004e-02 1.830552e-01 2.021913e-01 -1.699064e-02 -9.544722e-02 1.547280e-01 8.139240e-02 -1.949999e-01 -4.288901e-01 -3.174436e-01 -7.748241e-02 -1.670643e-02 6.472072e-02 -4.907393e-03 1.180258e-02 -1.464005e-01 -1.866259e-01 -8.136329e-03 4.536977e-02 6.931140e-02 9.542406e-02 6.773497e-03 1.234549e-02 -6.903530e-02
<VARIANCE> 39
 3.766100e+00 1.005054e+01 2.561322e+01 2.933562e+01 1.954678e+01 1.192584e+01 2.815945e+01 1.319115e+01 2.678432e+01 2.442689e+01 1.880482e+01 2.769055e+01 8.085674e+00 1.780977e-01 3.654892e-01 6.837713e-01 6.754998e-01 1.199882e+00 1.042277e+00 1.771931e+00 1.656188e+00 1.271982e+00 1.492196e+00 1.288364e+00 1.212018e+00 1.332091e-01 4.466685e-02 8.459406e-02 1.341984e-01 1.189076e-01 1.669365e-01 2.194378e-01 3.251781e-01 3.518493e-01 2.220118e-01 3.037394e-01 2.692142e-01 2.198558e-01 3.154477e-02
<GCONST> 8.082599e+01
<STATE> 4
<MEAN> 39
 5.177872e+00 -3.011304e+01 -3.725913e+00 -1.575325e+01 -2.015083e+01 4.643293e+00 -1.344132e+01 6.062967e+00 7.808547e+00 -9.017883e+00 -3.572547e-01 -8.879100e+00 6.694122e+01 -2.207082e-01 6.034801e-01 5.229868e-01 3.058779e-01 -1.397108e+00 -1.863075e+00 -3.348105e-01 4.545476e-01 2.617398e-01 1.069292e-02 2.230779e-01 6.355999e-01 -6.150605e-01 -4.160835e-02 1.320116e-01 6.250125e-02 3.236509e-02 4.197454e-02 -1.201726e-02 -3.654209e-02 -1.569452e-01 -1.643369e-01 -4.161033e-02 9.648447e-02 7.006747e-02 -9.114442e-02
<VARIANCE> 39
 4.701097e+00 1.608317e+01 3.938080e+01 2.097798e+01 4.227885e+01 4.335570e+01 4.428058e+01 2.916192e+01 2.201821e+01 1.938661e+01 2.652669e+01 2.279152e+01 1.992614e+01 2.657177e-01 6.624287e-01 8.721406e-01 9.666842e-01 1.401260e+00 2.028929e+00 1.958523e+00 1.937296e+00 2.239422e+00 2.097598e+00 2.348162e+00 1.031322e+00 2.470206e-01 5.049279e-02 9.150708e-02 1.323891e-01 1.536851e-01 3.140115e-01 4.004630e-01 3.200724e-01 3.130472e-01 2.912020e-01 3.807656e-01 3.797604e-01 1.826210e-01 2.710148e-02
<GCONST> 9.223118e+01
<STATE> 5
<MEAN> 39
 1.010386e-01 -2.071101e+01 5.894374e-02 -1.121357e+01 -2.356199e+01 -6.264601e+00 -1.604732e+01 3.053441e+00 4.651605e+00 -9.401501e+00 1.977547e+00 -3.660675e+00 5.834774e+01 -1.474740e+00 1.401841e+00 -2.682900e-01 7.036948e-01 1.237011e+00 -5.494416e-02 3.829987e-01 -9.265685e-01 -5.368714e-01 2.619410e-01 -5.038517e-01 3.481255e-01 -1.406955e+00 -2.127962e-01 -3.883782e-02 -2.145771e-01 -3.528707e-02 3.539539e-01 3.400441e-01 3.154989e-01 2.687493e-02 1.213513e-02 1.479394e-01 -1.582670e-01 -2.187520e-02 -1.485884e-02
<VARIANCE> 39
 2.221318e+01 4.788622e+01 4.796752e+01 2.094200e+01 2.554469e+01 3.017599e+01 4.159224e+01 4.100466e+01 2.820423e+01 3.002455e+01 4.911215e+01 2.779821e+01 1.736214e+01 1.345221e+00 7.424492e-01 1.479463e+00 8.216515e-01 1.607544e+00 3.116271e+00 3.708010e+00 1.786035e+00 1.912090e+00 1.591924e+00 2.231671e+00 1.645798e+00 3.056594e-01 1.809514e-01 1.055030e-01 1.913352e-01 2.032521e-01 3.449449e-01 4.741769e-01 6.066566e-01 3.947188e-01 4.509953e-01 2.559758e-01 3.990237e-01 2.629064e-01 5.244278e-02
<GCONST> 1.035804e+02
<TRANSP> 6
 0.000000e+00 1.000000e+00 0.000000e+00 0.000000e+00 0.000000e+00 0.000000e+00
 0.000000e+00 7.811514e-01 2.188487e-01 0.000000e+00 0.000000e+00 0.000000e+00
 0.000000e+00 0.000000e+00 9.281348e-01 7.186522e-02 0.000000e+00 0.000000e+00
 0.000000e+00 0.000000e+00 0.000000e+00 8.986906e-01 1.013094e-01 0.000000e+00
 0.000000e+00 0.000000e+00 0.000000e+00 0.000000e+00 8.554431e-01 1.445569e-01
 0.000000e+00 0.000000e+00 0.000000e+00 0.000000e+00 0.000000e+00 0.000000e+00
<ENDHMM>
