~o
<STREAMINFO> 1 39
<VECSIZE> 39<NULLD><MFCC_D_A_0><DIAGC>
~h "nine"
<BEGINHMM>
<NUMSTATES> 6
<STATE> 2
<MEAN> 39
 6.085493e+00 -2.237796e+01 2.381760e+00 -6.744163e+00 -2.068113e+01 -1.809968e+00 -1.841762e+01 -5.102551e+00 1.081718e-01 -1.258453e+01 -8.566512e-01 -3.956138e+00 6.323740e+01 1.475679e+00 -2.225993e+00 -4.892730e-01 -1.021840e+00 1.842473e-01 7.480066e-01 -6.409672e-01 1.172809e+00 8.008124e-01 -3.281646e-01 5.967449e-04 -8.871182e-01 1.700562e+00 -4.252001e-01 1.876456e-01 -1.999448e-01 -7.623025e-03 5.432085e-01 1.996265e-01 1.397736e-01 3.432630e-02 9.550048e-02 2.347268e-01 3.603000e-02 -4.356830e-02 -2.002729e-01
<VARIANCE> 39
 2.763319e+01 6.519341e+01 4.598961e+01 3.383366e+01 3.016106e+01 3.852333e+01 4.586234e+01 8.304419e+01 4.707729e+01 2.608239e+01 4.492693e+01 3.376062e+01 2.704975e+01 2.875590e+00 2.103678e+00 4.162362e+00 1.670431e+00 3.961465e+00 4.288336e+00 4.614442e+00 6.818934e+00 2.734934e+00 1.928968e+00 2.884520e+00 2.091049e+00 9.379412e-01 2.777357e-01 3.380447e-01 7.046418e-01 3.371492e-01 4.597171e-01 7.232265e-01 7.466422e-01 1.292102e+00 5.141622e-01 3.733830e-01 5.217137e-01 4.578954e-01 1.312392e-01
<GCONST> 1.229250e+02
<STATE> 3
<MEAN> 39
 7.298360e+00 -3.144792e+01 -3.434033e+00 -1.312291e+01 -1.198309e+01 6.482911e+00 -2.078922e+01 6.903390e-01 5.279573e+00 -1.114790e+01 3.161393e-01 -9.109517e+00 6.908390e+01 -1.189813e-01 8.649832e-02 1.446745e-01 1.288851e-01 3.566361e-03 -1.999099e-01 -1.330135e-01 2.432890e-01 1.872472e-01 -1.963998e-01 -5.927183e-02 1.431139e-01 -1.139312e-01 -1.615840e-02 1.000480e-01 8.116368e-02 1.208816e-01 -2.817743e-01 -2.534152e-01 1.459056e-01 2.955392e-02 -6.441950e-02 -8.223164e-02 -1.305909e-02 1.785265e-01 -9.469101e-02
<VARIANCE> 39
 6.776339e+00 1.182334e+01 1.813671e+01 1.960488e+01 1.144458e+01 3.887056e+01 2.456884e+01 5.119748e+01 3.252663e+01 3.018946e+01 3.538767e+01 1.870750e+01 4.646316e+00 2.166993e-01 5.845623e-01 8.390771e-01 8.906695e-01 2.088429e+00 1.974207e+00 1.813276e+00 1.896262e+00 1.730958e+00 1.720490e+00 1.408719e+00 1.997936e+00 1.555515e-01 4.175975e-02 1.452326e-01 1.127804e-01 1.226302e-01 2.299097e-01 1.463248e-01 2.864349e-01 3.056807e-01 3.368113e-01 2.578744e-01 2.576790e-01 3.059289e-01 2.621609e-02
<GCONST> 8.681088e+01
<STATE> 4
<MEAN> 39
 5.150278e+00 -2.710449e+01 2.657459e+00 -9.977894e+00 -2.258072e+01 -1.678526e+00 -1.668476e+01 3.594450e+00 5.151200e+00 -1.387101e+01 1.704349e+00 -2.708363e+00 6.543874e+01 -3.515722e-01 9.209092e-01 7.213587e-01 2.411455e-01 -1.066865e+00 -4.167573e-01 5.379231e-01 -6.220675e-01 -6.031573e-01 3.213948e-01 3.470721e-01 2.189567e-01 -6.136245e-01 -5.892540e-02 1.568537e-01 -3.627482e-02 -7.455899e-03 1.766566e-01 1.018899e-01 -1.145906e-01 -2.057726e-01 -1.114883e-01 5.770401e-02 9.627683e-03 -7.486518e-02 -5.409025e-02
<VARIANCE> 39
 7.710899e+00 2.338153e+01 2.006355e+01 1.570716e+01 3.715096e+01 3.398675e+01 2.499434e+01 2.921255e+01 5.149754e+01 3.223139e+01 4.751344e+01 3.968533e+01 8.752763e+00 2.659845e-01 1.091643e+00 5.564799e-01 8.603207e-01 1.129553e+00 1.497363e+00 1.789598e+00 2.632637e+00 1.748512e+00 1.539403e+00 1.803001e+00 1.123447e+00 2.697940e-01 5.409395e-02 1.347928e-01 1.243797e-01 1.436491e-01 1.590624e-01 1.766320e-01 2.259979e-01 4.108548e-01 3.505565e-01 3.244148e-01 2.904034e-01 2.432738e-01 2.963444e-02
<GCONST> 9.073550e+01
<STATE> 5
<MEAN> 39
 -5.282902e-01 -1.351406e+01 4.509380e+00 -4.939274e+00 -2.200437e+01 -5.625004e+00 -1.671378e+01 -7.662322e+00 -2.681201e+00 -1.255859e+01 -9.973033e-01 -2.471301e+00 5.696528e+01 -1.243824e+00 1.206280e+00 -5.361525e-01 6.092263e-01 1.258068e+00 -1.738969e-01 3.554565e-01 -4.426697e-01 -3.335786e-01 2.418981e-01 -4.504177e-01 2.196560e-01 -9.468548e-01 -1.531576e-01 -1.815923e-01 -1.669610e-01 -6.542778e-02 1.599012e-01 7.986202e-02 1.759177e-01 2.688321e-01 1.547157e-01 1.115080e-01 -1.605769e-02 -1.249825e-02 2.382049e-02
<VARIANCE> 39
 1.406323e+01 3.737724e+01 2.587300e+01 2.289360e+01 5.976665e+01 5.905147e+01 3.741159e+01 4.279369e+01 2.938339e+01 2.250373e+01 3.778413e+01 2.740359e+01 1.035613e+01 8.827066e-01 1.034633e+00 1.581883e+00 8.105860e-01 1.516056e+00 1.730061e+00 2.529312e+00 3.421691e+00 2.338180e+00 2.343737e+00 1.877583e+00 2.495161e+00 2.078245e-01 1.052895e-01 1.241192e-01 2.379885e-01 1.775871e-01 2.650229e-01 2.332110e-01 4.669341e-01 6.028613e-01 3.305212e-01 4.380484e-01 3.315404e-01 3.861601e-01 2.492964e-02
<GCONST> 1.013696e+02
<TRANSP> 6
 0.000000e+00 1.000000e+00 0.000000e+00 0.000000e+00 0.000000e+00 0.000000e+00
 0.000000e+00 8.673907e-01 1.326094e-01 0.000000e+00 0.000000e+00 0.000000e+00
 0.000000e+00 0.000000e+00 9.201481e-01 7.985190e-02 0.000000e+00 0.000000e+00
 0.000000e+00 0.000000e+00 0.000000e+00 8.990672e-01 1.009329e-01 0.000000e+00
 0.000000e+00 0.000000e+00 0.000000e+00 0.000000e+00 8.795320e-01 1.204680e-01
 0.000000e+00 0.000000e+00 0.000000e+00 0.000000e+00 0.000000e+00 0.000000e+00
<ENDHMM>
