~o
<STREAMINFO> 1 39
<VECSIZE> 39<NULLD><MFCC_D_A_0><DIAGC>
~h "two"
<BEGINHMM>
<NUMSTATES> 6
<STATE> 2
<MEAN> 39
 2.374091e+00 -2.564152e+01 1.089464e+01 -5.805934e+00 -2.504808e+01 -2.469908e+00 -1.794757e+01 -5.823118e+00 2.784064e-01 -1.123878e+01 3.829805e+00 -1.915277e+00 6.541126e+01 1.675072e+00 1.786361e-01 1.113035e+00 -4.062637e-01 -7.952724e-01 -1.407561e+00 -1.673810e+00 -5.450864e-01 -8.700583e-01 -4.690066e-01 1.827697e-01 -6.213543e-01 1.209403e+00 -2.208572e-01 1.468678e-01 -2.292821e-01 -5.261367e-02 2.158982e-01 1.236934e-01 1.386050e-01 9.064820e-02 3.558180e-02 1.640876e-01 5.037135e-02 -1.118249e-01 -1.478204e-01
<VARIANCE> 39
 3.444115e+01 2.008861e+01 2.581606e+01 2.722588e+01 3.209432e+01 5.471910e+01 6.337436e+01 4.334026e+01 2.559245e+01 5.231234e+01 2.667093e+01 4.781954e+01 1.191309e+01 1.738068e+00 2.545017e+00 2.174432e+00 2.513217e+00 2.003070e+00 2.936045e+00 4.080453e+00 3.862343e+00 2.877165e+00 2.709466e+00 2.678734e+00 2.987433e+00 8.318385e-01 4.484785e-01 4.659110e-01 3.226982e-01 3.566184e-01 4.069178e-01 5.958021e-01 6.891580e-01 6.808960e-01 5.389158e-01 5.071591e-01 4.922123e-01 5.360069e-01 1.979817e-01
<GCONST> 1.185021e+02
<STATE> 3
<MEAN> 39
 8.779363e+00 -2.411971e+01 1.039295e+01 -6.710208e+00 -2.485155e+01 -7.842413e+00 -2.595024e+01 -8.314711e+00 -3.389922e+00 -1.199525e+01 6.632639e+00 -4.398342e+00 6.879391e+01 1.443931e-01 9.694837e-02 -5.205996e-01 -1.914785e-01 4.648108e-01 2.626377e-01 -3.291688e-01 -3.659332e-01 -1.257623e-01 2.463687e-01 2.565450e-01 -1.950916e-02 -1.573087e-01 -2.926168e-02 2.935605e-02 -4.484510e-02 -4.012451e-03 4.505804e-02 7.154339e-02 1.264273e-02 -5.934167e-02 1.488451e-02 -1.727334e-02 -2.045960e-02 8.730362e-02 -8.631523e-02
<VARIANCE> 39
 7.190582e+00 8.718677e+00 1.291190e+01 1.585128e+01 3.398445e+01 3.943198e+01 6.106078e+01 5.456190e+01 1.775830e+01 3.497077e+01 2.543048e+01 3.960841e+01 3.542922e+00 2.402974e-01 4.733145e-01 5.043789e-01 5.597426e-01 6.404585e-01 1.206761e+00 1.498162e+00 1.971922e+00 1.100961e+00 1.278815e+00 9.767889e-01 1.799901e+00 1.314707e-01 6.465733e-02 8.795617e-02 1.146402e-01 1.147393e-01 1.036265e-01 2.035746e-01 2.426981e-01 2.818488e-01 1.543316e-01 2.436582e-01 1.761985e-01 2.774139e-01 2.859784e-02
<GCONST> 8.142920e+01
<STATE> 4
<MEAN> 39
 1.011681e+01 -2.140837e+01 4.816542e+00 -1.282336e+01 -2.017718e+01 -1.348506e+00 -2.851740e+01 -1.130101e+01 -4.848217e+00 -1.075912e+01 9.225203e+00 -4.104029e+00 6.557521e+01 -7.489806e-02 5.216316e-01 -2.861025e-01 -4.352651e-01 2.952177e-01 7.707152e-01 1.720383e-01 -3.264280e-02 -6.286711e-01 -4.292275e-01 6.361673e-02 -4.417539e-02 -6.265461e-01 -1.364296e-01 8.589303e-02 1.744637e-02 1.863467e-01 -3.698796e-02 -1.612575e-02 2.897758e-01 1.623998e-01 7.421747e-02 1.464501e-02 -1.292965e-01 -2.392097e-02 -8.113238e-02
<VARIANCE> 39
 4.142766e+00 1.727008e+01 2.325101e+01 2.064429e+01 1.654796e+01 2.376797e+01 2.268746e+01 4.175621e+01 6.641774e+01 3.313108e+01 3.611888e+01 1.745906e+01 9.243739e+00 2.683787e-01 5.765435e-01 1.040924e+00 8.115931e-01 8.977315e-01 1.350927e+00 1.902763e+00 2.241209e+00 2.337090e+00 1.160075e+00 2.327545e+00 1.614457e+00 2.256403e-01 7.401171e-02 1.238148e-01 1.734148e-01 1.398287e-01 1.673703e-01 2.410150e-01 2.630635e-01 3.744374e-01 3.431575e-01 1.998514e-01 3.551216e-01 3.177361e-01 2.577477e-02
<GCONST> 8.929758e+01
<STATE> 5
<MEAN> 39
 3.530556e+00 -1.315722e+01 2.764779e+00 -9.974133e+00 -1.725671e+01 2.251746e+00 -1.849885e+01 -9.313967e+00 -7.288679e+00 -1.251379e+01 3.608973e+00 -3.841012e+00 5.807926e+01 -1.895317e+00 9.757075e-01 -9.053200e-01 7.141619e-01 8.594022e-01 -1.784516e-01 1.896296e+00 7.061999e-01 7.567916e-01 8.206373e-01 -8.428541e-01 4.393377e-01 -9.952037e-01 -1.965429e-01 -8.345581e-02 -1.015640e-01 3.831832e-02 1.741514e-01 -1.442916e-01 -4.374030e-02 -4.766182e-03 1.185974e-01 7.589158e-02 -1.783353e-02 9.178536e-02 1.400980e-02
<VARIANCE> 39
 2.637883e+01 3.263508e+01 3.277535e+01 3.118951e+01 3.430105e+01 2.331825e+01 4.978924e+01 3.440847e+01 2.699549e+01 3.550296e+01 4.168056e+01 2.767548e+01 1.045138e+01 1.460700e+00 8.890795e-01 1.553082e+00 1.476522e+00 1.663233e+00 1.723738e+00 2.648149e+00 2.285491e+00 1.525857e+00 2.408135e+00 2.510522e+00 1.493882e+00 2.912228e-01 2.040011e-01 1.339051e-01 2.723589e-01 2.582606e-01 2.338015e-01 3.854096e-01 5.587131e-01 3.747132e-01 2.901599e-01 4.454232e-01 4.457184e-01 2.413962e-01 3.150520e-02
<GCONST> 1.031345e+02
<TRANSP> 6
 0.000000e+00 1.000000e+00 0.000000e+00 0.000000e+00 0.000000e+00 0.000000e+00
 0.000000e+00 8.595414e-01 1.404586e-01 0.000000e+00 0.000000e+00 0.000000e+00
 0.000000e+00 0.000000e+00 9.068808e-01 9.311922e-02 0.000000e+00 0.000000e+00
 0.000000e+00 0.000000e+00 0.000000e+00 8.780726e-01 1.219274e-01 0.000000e+00
 0.000000e+00 0.000000e+00 0.000000e+00 0.000000e+00 8.640682e-01 1.359318e-01
 0.000000e+00 0.000000e+00 0.000000e+00 0.000000e+00 0.000000e+00 0.000000e+00
<ENDHMM>
