~o
<STREAMINFO> 1 39
<VECSIZE> 39<NULLD><MFCC_D_A_0><DIAGC>
~h "seven"
<BEGINHMM>
<NUMSTATES> 6
<STATE> 2
<MEAN> 39
 4.136287e+00 -2.365942e+01 -4.664395e+00 -9.121080e+00 -1.985032e+01 -5.237872e+00 -1.653667e+01 -9.135399e-01 4.391261e+00 -4.565586e+00 2.410166e+00 -6.243300e+00 6.288384e+01 1.931787e+00 -8.661379e-01 2.075782e-01 -1.219442e+00 -9.639547e-01 -4.455827e-01 -9.051536e-01 5.833437e-01 3.912412e-01 -1.831454e-02 -9.006874e-02 -1.080442e+00 1.425052e+00 -2.961187e-01 4.429861e-02 -1.337513e-01 7.391942e-02 2.174483e-01 1.958355e-01 4.091414e-01 1.437046e-01 -2.558959e-02 -4.765805e-02 -2.027766e-01 -1.019245e-01 -1.195825e-01
<VARIANCE> 39
 6.558167e+01 2.974832e+01 7.426998e+01 3.234544e+01 2.550342e+01 6.335496e+01 5.010926e+01 4.001181e+01 5.212889e+01 5.320634e+01 2.082506e+01 4.602707e+01 1.805772e+01 6.014302e+00 2.931676e+00 5.934878e+00 2.248178e+00 2.798897e+00 6.638964e+00 5.849575e+00 3.259836e+00 2.843711e+00 3.797904e+00 3.031245e+00 3.252178e+00 2.137940e+00 7.895795e-01 2.841382e-01 9.224353e-01 4.347989e-01 5.172359e-01 9.299077e-01 1.131966e+00 5.288858e-01 3.989861e-01 6.474178e-01 5.212462e-01 4.771020e-01 2.482561e-01
<GCONST> 1.286823e+02
<STATE> 3
<MEAN> 39
 7.184973e+00 -2.936011e+01 -2.644319e+00 -1.501742e+01 -2.088685e+01 3.689191e-01 -1.501249e+01 6.523551e+00 9.294431e+00 -6.900442e+00 -7.597482e-01 -1.072194e+01 6.913416e+01 -1.291207e-01 -3.770934e-02 7.739251e-02 2.079781e-01 1.314762e-01 6.048516e-02 -2.019421e-01 -2.212012e-01 1.546183e-02 4.431539e-02 1.061345e-02 -8.921585e-02 -1.068859e-01 -1.126296e-01 1.421048e-01 1.246917e-01 1.406972e-01 -4.846971e-02 -1.793144e-01 -2.644460e-01 -2.277837e-01 -1.430468e-01 -5.088545e-02 1.668967e-01 1.726328e-01 -2.017998e-01
<VARIANCE> 39
 9.845732e+00 3.098050e+01 1.801918e+01 1.450186e+01 7.876184e+00 2.856698e+01 3.315980e+01 4.059577e+01 6.876514e+01 3.211348e+01 4.512803e+01 1.872551e+01 5.748210e+00 2.491906e-01 7.216718e-01 1.218344e+00 6.064357e-01 9.406795e-01 1.616995e+00 3.037553e+00 3.356550e+00 1.988665e+00 2.140349e+00 3.372756e+00 8.407758e-01 6.450900e-01 1.016232e-01 1.283445e-01 2.041693e-01 1.596422e-01 1.425567e-01 2.158162e-01 3.718917e-01 6.197444e-01 4.607173e-01 3.927520e-01 4.806504e-01 2.028168e-01 1.294186e-01
<GCONST> 9.575362e+01
<STATE> 4
<MEAN> 39
 4.710838e+00 -2.576817e+01 -1.467461e+00 -1.039181e+01 -2.441011e+01 -3.689099e+00 -1.941927e+01 -2.922615e+00 7.484820e+00 -8.641314e+00 -1.867975e+00 -4.359930e+00 6.361903e+01 -4.142939e-01 5.669687e-01 -5.551701e-02 6.034898e-01 2.580190e-02 -2.330424e-01 9.578174e-02 -6.232492e-01 -5.267670e-01 -1.848416e-01 -2.193974e-01 1.532236e-01 -6.300641e-01 -8.427493e-02 1.490682e-01 -1.544424e-02 2.210371e-02 1.325431e-01 2.867901e-02 1.148099e-01 -1.250807e-02 -6.069195e-02 9.098588e-02 -8.636393e-03 -3.646142e-02 -3.959123e-02
<VARIANCE> 39
 1.761957e+01 1.381266e+01 2.747010e+01 2.700627e+01 1.389671e+01 2.333628e+01 3.549847e+01 3.820117e+01 6.188753e+01 4.219826e+01 2.980001e+01 3.678315e+01 1.107120e+01 1.263667e+00 1.112273e+00 1.306071e+00 1.169228e+00 1.206015e+00 1.408141e+00 2.450190e+00 3.084600e+00 2.446792e+00 1.953751e+00 2.021522e+00 1.995896e+00 8.245640e-01 1.825318e-01 1.482215e-01 2.017159e-01 2.004060e-01 2.112086e-01 2.350939e-01 4.122299e-01 5.027842e-01 4.920638e-01 4.216821e-01 3.828750e-01 3.631451e-01 1.179179e-01
<GCONST> 1.030511e+02
<STATE> 5
<MEAN> 39
 -1.879665e+00 -1.307968e+01 5.985133e-01 -5.611348e+00 -1.929723e+01 -5.910988e+00 -1.642104e+01 -7.921068e+00 -2.401769e+00 -9.640887e+00 -2.933342e+00 -6.122026e+00 5.594151e+01 -1.301969e+00 1.045736e+00 -1.300995e-01 4.612646e-01 9.388715e-01 -1.382563e-01 9.172648e-01 4.395239e-03 -3.110118e-01 2.351409e-01 -2.871883e-01 4.112621e-01 -8.503428e-01 -3.373411e-02 -1.507706e-01 -1.194740e-01 -1.180567e-01 2.381754e-02 1.250814e-01 1.397681e-01 2.306670e-01 1.335783e-01 -6.187723e-03 -3.069723e-03 6.423815e-02 3.630745e-02
<VARIANCE> 39
 3.579816e+01 3.372618e+01 2.410258e+01 1.964228e+01 2.864624e+01 2.535315e+01 4.057900e+01 1.633338e+01 3.071898e+01 3.147537e+01 2.931147e+01 2.155840e+01 7.684584e+00 1.438384e+00 1.628666e+00 9.412027e-01 1.419701e+00 2.206642e+00 1.780746e+00 3.051057e+00 1.981044e+00 1.612131e+00 1.875530e+00 2.681125e+00 2.135145e+00 3.423918e-01 2.840445e-01 2.486522e-01 2.089864e-01 2.475527e-01 4.323492e-01 3.381957e-01 5.893434e-01 3.316672e-01 2.961880e-01 3.960970e-01 6.007555e-01 3.772478e-01 6.988386e-02
<GCONST> 1.040128e+02
<TRANSP> 6
 0.000000e+00 1.000000e+00 0.000000e+00 0.000000e+00 0.000000e+00 0.000000e+00
 0.000000e+00 8.706169e-01 1.035156e-01 2.586746e-02 0.000000e+00 0.000000e+00
 0.000000e+00 0.000000e+00 9.108222e-01 8.917789e-02 0.000000e+00 0.000000e+00
 0.000000e+00 0.000000e+00 0.000000e+00 9.080777e-01 9.192234e-02 0.000000e+00
 0.000000e+00 0.000000e+00 0.000000e+00 0.000000e+00 8.938495e-01 1.061505e-01
 0.000000e+00 0.000000e+00 0.000000e+00 0.000000e+00 0.000000e+00 0.000000e+00
<ENDHMM>
