~o
<STREAMINFO> 1 39
<VECSIZE> 39<NULLD><MFCC_D_A_0><DIAGC>
~h "sil"
<BEGINHMM>
<NUMSTATES> 6
<STATE> 2
<MEAN> 39
 -9.074087e+00 -1.617511e+01 -2.503007e+00 -5.443467e+00 -1.482304e+01 -4.851853e-01 -1.006996e+01 -4.459627e+00 -2.871829e-02 -7.149355e+00 2.552076e-01 -1.087699e+00 5.382548e+01 -5.081154e-01 3.249740e-01 -2.513143e-01 7.327229e-02 4.876943e-01 -2.408425e-02 3.098277e-01 1.347467e-01 9.782460e-03 2.503739e-01 -1.477617e-02 1.154842e-01 -3.162041e-01 -1.547089e-02 1.487576e-02 3.392813e-02 -6.378898e-03 1.664475e-04 2.225298e-02 1.408833e-02 2.913578e-02 -2.728855e-03 1.135894e-02 3.416106e-02 -6.987103e-03 -3.670420e-03
<VARIANCE> 39
 2.854606e+01 4.156012e+01 3.755243e+01 2.311575e+01 5.130381e+01 4.792690e+01 4.068250e+01 3.939967e+01 3.240458e+01 3.385761e+01 3.327686e+01 2.467150e+01 1.246727e+01 1.471122e+00 1.752056e+00 1.632063e+00 1.350509e+00 2.810065e+00 2.226634e+00 2.829968e+00 2.546314e+00 2.327554e+00 2.502787e+00 2.175591e+00 1.967083e+00 5.353189e-01 1.915575e-01 2.809343e-01 2.596850e-01 2.479946e-01 4.454321e-01 3.954388e-01 5.141568e-01 4.562595e-01 4.197681e-01 4.782100e-01 4.092260e-01 3.702289e-01 8.124409e-02
<GCONST> 1.102257e+02
<STATE> 3
<MEAN> 39
 -1.770309e+01 -7.805285e+00 -4.001547e+00 -3.063664e+00 -5.410140e+00 3.864043e-01 -3.595622e+00 -1.297474e+00 1.495139e-01 -1.924348e+00 3.698917e-01 1.311054e-01 4.745767e+01 -7.769693e-01 4.002955e-01 -2.452228e-01 6.797046e-02 4.076190e-01 -1.115115e-02 3.925817e-01 1.529406e-01 -1.266368e-01 2.541519e-01 -3.202398e-02 -1.749135e-02 -3.847931e-01 1.635394e-01 -9.781440e-02 3.762861e-02 -3.278517e-02 -1.420495e-01 -2.892577e-02 -1.482344e-01 -8.435372e-02 -1.864549e-02 -1.020850e-01 -2.564604e-02 -3.207842e-02 9.760989e-02
<VARIANCE> 39
 2.256338e+01 1.292680e+01 1.767395e+01 1.209853e+01 1.563619e+01 2.420739e+01 1.649926e+01 1.849820e+01 2.166626e+01 1.929082e+01 1.757527e+01 1.474783e+01 1.388488e+01 1.666239e+00 9.215311e-01 1.238425e+00 1.112926e+00 1.722926e+00 1.886863e+00 1.907161e+00 2.074270e+00 2.064338e+00 1.974804e+00 1.725616e+00 1.447722e+00 5.546066e-01 2.395415e-01 1.419967e-01 1.897199e-01 1.801595e-01 2.678699e-01 2.922611e-01 3.285490e-01 3.558967e-01 3.558876e-01 3.406099e-01 3.114332e-01 2.555543e-01 7.394250e-02
<GCONST> 9.493805e+01
<STATE> 4
<MEAN> 39
 -2.291687e+01 -5.019027e+00 -7.112898e+00 -3.345354e+00 -4.242527e+00 -2.266949e+00 -2.810632e+00 -1.636574e+00 -1.857040e+00 -1.072936e+00 -1.210931e+00 -7.449021e-01 4.547725e+01 7.366015e-04 -4.295924e-04 -7.870425e-04 3.244932e-03 8.791748e-03 7.070289e-04 1.314205e-03 4.008822e-03 6.070443e-03 -2.504380e-02 -1.990084e-02 7.823185e-03 -7.630997e-04 2.430425e-02 -1.500580e-02 1.001528e-02 4.033037e-03 -7.397577e-03 6.407254e-03 -2.867505e-03 2.047927e-03 1.063629e-02 -1.662240e-03 9.012077e-03 8.383694e-03 1.073154e-02
<VARIANCE> 39
 1.013366e+00 2.276746e+00 4.131315e+00 6.182926e+00 8.145624e+00 1.017386e+01 1.182248e+01 1.312367e+01 1.377296e+01 1.403268e+01 1.322478e+01 1.181491e+01 1.908895e-01 1.145060e-01 2.501443e-01 4.523653e-01 6.847295e-01 9.105511e-01 1.130737e+00 1.257614e+00 1.428914e+00 1.509834e+00 1.521514e+00 1.429461e+00 1.245290e+00 2.130522e-02 3.147733e-02 5.461164e-02 9.334932e-02 1.387745e-01 1.832603e-01 2.254596e-01 2.470418e-01 2.872499e-01 2.995459e-01 3.003030e-01 2.812991e-01 2.439057e-01 6.481476e-03
<GCONST> 6.065391e+01
<STATE> 5
<MEAN> 39
 -1.144270e+01 -1.532300e+01 -1.634086e+00 -4.913079e+00 -1.185998e+01 2.024020e+00 -8.669604e+00 -2.285212e+00 1.706913e+00 -6.133883e+00 1.304914e+00 -5.475067e-01 5.285217e+01 1.103174e+00 -7.737665e-01 4.211674e-01 -2.777752e-01 -8.545443e-01 1.359312e-01 -5.748061e-01 -1.280684e-01 1.914000e-01 -3.689156e-01 1.905411e-01 -2.163133e-02 7.364534e-01 1.324906e-01 -5.099722e-02 3.391387e-02 -7.395560e-02 -9.662923e-02 -4.174938e-02 -8.132681e-02 -9.355908e-03 -1.157208e-02 -2.768056e-02 1.340901e-02 -2.012218e-02 9.480645e-02
<VARIANCE> 39
 4.907262e+01 5.279797e+01 2.896194e+01 2.240616e+01 5.569304e+01 3.571723e+01 4.098055e+01 3.134070e+01 2.670688e+01 3.246461e+01 2.270182e+01 2.039875e+01 3.043032e+01 3.234067e+00 2.099331e+00 1.690565e+00 2.050136e+00 3.160974e+00 2.553077e+00 3.232054e+00 2.473451e+00 2.288899e+00 2.370382e+00 2.133330e+00 1.890165e+00 1.376867e+00 4.364777e-01 3.220471e-01 2.802301e-01 3.201085e-01 4.985453e-01 4.394093e-01 5.607991e-01 4.619482e-01 4.383634e-01 4.279971e-01 4.108948e-01 3.745615e-01 1.759606e-01
<GCONST> 1.152901e+02
<TRANSP> 6
 0.000000e+00 4.713771e-01 5.286229e-01 0.000000e+00 0.000000e+00 0.000000e+00
 0.000000e+00 9.451377e-01 5.486230e-02 0.000000e+00 0.000000e+00 0.000000e+00
 0.000000e+00 0.000000e+00 8.083850e-01 1.882012e-01 3.413877e-03 0.000000e+00
 0.000000e+00 0.000000e+00 0.000000e+00 9.521599e-01 2.316881e-02 2.467129e-02
 0.000000e+00 0.000000e+00 0.000000e+00 0.000000e+00 9.493015e-01 5.069849e-02
 0.000000e+00 0.000000e+00 0.000000e+00 0.000000e+00 0.000000e+00 0.000000e+00
<ENDHMM>
