~o
<STREAMINFO> 1 39
<VECSIZE> 39<NULLD><MFCC_D_A_0><DIAGC>
~h "one"
<BEGINHMM>
<NUMSTATES> 6
<STATE> 2
<MEAN> 39
 6.516380e+00 -1.518771e+01 2.406050e+00 -1.850363e+01 -2.728965e+01 -1.385433e+00 -1.655674e+01 -7.802636e-01 1.294168e+00 -1.081888e+01 3.688230e+00 -3.643438e+00 6.134821e+01 1.540151e+00 -1.396677e+00 -2.519256e-01 -1.596933e+00 -6.770354e-01 1.004650e+00 2.901806e-01 8.424196e-01 2.805957e-01 -2.925434e-01 5.283766e-01 -5.381670e-02 1.507831e+00 -4.951923e-01 -1.467120e-01 -2.578377e-01 3.277480e-01 6.682300e-01 4.014295e-01 3.816129e-01 -8.795933e-02 -5.782460e-02 9.309262e-02 -4.404797e-03 1.501533e-01 -8.665108e-02
<VARIANCE> 39
 1.904145e+01 3.765844e+01 4.332611e+01 4.107294e+01 2.697564e+01 2.736607e+01 6.203633e+01 3.955535e+01 2.800851e+01 2.347504e+01 2.945659e+01 2.043285e+01 2.420714e+01 3.587536e+00 1.549471e+00 3.664559e+00 2.797063e+00 5.406064e+00 3.161312e+00 6.098864e+00 3.013959e+00 2.799125e+00 2.519767e+00 2.787703e+00 2.282798e+00 4.231366e-01 4.185456e-01 2.533404e-01 3.490349e-01 5.994585e-01 4.357976e-01 3.517313e-01 7.453716e-01 8.152974e-01 5.777269e-01 4.358076e-01 4.298324e-01 4.530926e-01 6.910440e-02
<GCONST> 1.170887e+02
<STATE> 3
<MEAN> 39
 7.894359e+00 -2.856253e+01 -5.138127e+00 -1.865744e+01 -1.485688e+01 1.333586e+01 -1.284058e+01 -1.816916e+00 2.516541e+00 -1.124394e+01 3.897921e+00 -3.172806e+00 7.012945e+01 -1.161710e-01 -6.001228e-01 -3.707806e-01 6.544698e-01 7.905659e-01 2.030337e-01 -3.604499e-01 -3.960495e-01 2.022930e-01 -1.070025e-01 -3.205037e-01 4.422211e-02 9.161647e-02 -1.991381e-02 1.456935e-01 1.400559e-01 5.596240e-02 -2.324253e-01 -3.315866e-01 -1.195760e-01 9.160502e-02 6.966393e-02 -4.402591e-03 -6.218940e-02 -1.678884e-02 -1.193535e-01
<VARIANCE> 39
 3.905230e+00 1.529356e+01 3.989303e+01 5.547462e+01 5.946458e+01 3.142260e+01 4.155130e+01 4.667134e+01 2.319800e+01 3.248361e+01 3.198010e+01 3.046471e+01 1.129914e+01 1.862744e-01 6.829463e-01 1.233168e+00 1.483244e+00 2.059646e+00 3.625841e+00 2.626600e+00 2.722155e+00 1.751310e+00 2.897923e+00 2.177699e+00 2.274490e+00 2.501422e-01 3.562969e-02 8.931907e-02 2.209024e-01 2.497093e-01 1.776927e-01 2.780464e-01 3.612925e-01 4.162057e-01 2.783892e-01 5.068046e-01 3.337560e-01 4.020004e-01 3.044448e-02
<GCONST> 9.785282e+01
<STATE> 4
<MEAN> 39
 6.703930e+00 -2.887175e+01 -2.509621e+00 -1.320890e+01 -1.940627e+01 3.037877e+00 -1.786838e+01 -1.193274e+00 3.345403e+00 -1.343460e+01 1.682496e+00 -2.406113e+00 6.672384e+01 -5.640478e-01 1.015695e+00 1.427877e+00 9.450123e-01 -1.140027e+00 -1.413657e+00 -7.161953e-01 -4.598042e-01 -5.897262e-01 5.861114e-02 -9.213257e-02 -4.456665e-01 -1.049686e+00 -1.771258e-01 3.271219e-01 8.603438e-02 1.980105e-01 2.299487e-01 1.500507e-01 5.326262e-02 -3.748445e-01 -3.114296e-01 9.919576e-02 2.490875e-03 -1.377473e-01 -1.974657e-01
<VARIANCE> 39
 5.224496e+00 1.336484e+01 3.353220e+01 1.694338e+01 3.119895e+01 1.880351e+01 3.225486e+01 2.986178e+01 6.240771e+01 2.743366e+01 4.935156e+01 4.756763e+01 8.908214e+00 5.657622e-01 8.520158e-01 6.514108e-01 2.232132e+00 1.213522e+00 1.529498e+00 2.024571e+00 2.950892e+00 1.739931e+00 1.832214e+00 1.898553e+00 1.744258e+00 4.236043e-01 4.409991e-02 7.147769e-02 2.128777e-01 3.110856e-01 2.112260e-01 2.704797e-01 5.062980e-01 3.705687e-01 3.128789e-01 3.752057e-01 4.018749e-01 3.294722e-01 7.363313e-02
<GCONST> 9.666933e+01
<STATE> 5
<MEAN> 39
 1.026241e+00 -1.621918e+01 4.551815e+00 -5.151896e+00 -1.949812e+01 -2.793411e+00 -1.885829e+01 -7.966953e+00 -2.897530e+00 -1.282866e+01 -2.066443e+00 -5.225602e+00 5.776529e+01 -1.045266e+00 1.210450e+00 -4.573036e-02 5.306078e-01 7.127255e-01 -6.590489e-02 7.344747e-01 -3.772003e-01 -4.207081e-01 2.898122e-01 -4.466981e-01 3.136215e-02 -8.692531e-01 -3.190534e-02 -9.153207e-02 -2.152419e-01 -1.878693e-01 7.860288e-02 7.697888e-02 2.046018e-01 2.614593e-01 1.349856e-01 1.074432e-01 9.101645e-02 1.040022e-01 4.879097e-02
<VARIANCE> 39
 2.230917e+01 3.185204e+01 4.620386e+01 1.552019e+01 4.169744e+01 2.575425e+01 3.084740e+01 5.465346e+01 4.772149e+01 4.841555e+01 3.449542e+01 3.210383e+01 9.444965e+00 1.087000e+00 1.478586e+00 1.656811e+00 1.467169e+00 2.310176e+00 1.533481e+00 2.575749e+00 3.630199e+00 3.426154e+00 2.893845e+00 2.065552e+00 2.455591e+00 3.541875e-01 1.440839e-01 1.969144e-01 1.959974e-01 2.219714e-01 3.478129e-01 2.786306e-01 3.224391e-01 4.774083e-01 4.733087e-01 4.770334e-01 2.845187e-01 3.991164e-01 4.816934e-02
<GCONST> 1.063719e+02
<TRANSP> 6
 0.000000e+00 1.000000e+00 0.000000e+00 0.000000e+00 0.000000e+00 0.000000e+00
 0.000000e+00 8.611645e-01 1.289183e-01 9.917212e-03 0.000000e+00 0.000000e+00
 0.000000e+00 0.000000e+00 9.274675e-01 7.253253e-02 0.000000e+00 0.000000e+00
 0.000000e+00 0.000000e+00 0.000000e+00 8.285491e-01 1.714509e-01 0.000000e+00
 0.000000e+00 0.000000e+00 0.000000e+00 0.000000e+00 8.882440e-01 1.117560e-01
 0.000000e+00 0.000000e+00 0.000000e+00 0.000000e+00 0.000000e+00 0.000000e+00
<ENDHMM>
