~o
<STREAMINFO> 1 39
<VECSIZE> 39<NULLD><MFCC_D_A_0><DIAGC>
~h "zero"
<BEGINHMM>
<NUMSTATES> 6
<STATE> 2
<MEAN> 39
 6.638094e-01 -1.701756e+01 1.074350e+01 -5.013246e+00 -2.205854e+01 -4.999363e+00 -2.307164e+01 -6.941741e+00 -7.428848e-01 -1.257758e+01 2.305014e+00 -1.796833e+00 6.033918e+01 1.439334e+00 -1.028706e+00 1.242522e+00 3.433588e-02 -1.332879e+00 -1.178607e+00 -9.052020e-01 -4.036100e-01 -6.801664e-01 -1.204341e-01 7.078679e-01 -1.277500e-01 1.341347e+00 -2.954362e-01 1.638184e-02 -2.648850e-01 -1.681853e-02 1.985871e-01 1.186252e-01 5.044457e-01 2.657462e-02 -8.387935e-02 2.310199e-01 -2.888287e-02 4.147156e-03 -5.223817e-02
<VARIANCE> 39
 2.420448e+01 7.216502e+01 3.226094e+01 1.598568e+01 4.528980e+01 4.606865e+01 5.780290e+01 3.819482e+01 3.524296e+01 3.297379e+01 3.754953e+01 3.024325e+01 2.466120e+01 3.358099e+00 1.731007e+00 1.391553e+00 1.091152e+00 2.361731e+00 5.074930e+00 7.951768e+00 2.871881e+00 2.639393e+00 2.883102e+00 3.114966e+00 1.934504e+00 7.699297e-01 5.828034e-01 1.976076e-01 3.110665e-01 1.945155e-01 4.379920e-01 7.076166e-01 9.869120e-01 5.397419e-01 4.168365e-01 4.063587e-01 4.022205e-01 3.585916e-01 1.225016e-01
<GCONST> 1.168040e+02
<STATE> 3
<MEAN> 39
 7.488780e+00 -2.445455e+01 1.088111e+01 -8.074902e+00 -2.610979e+01 -8.701508e+00 -2.177631e+01 -3.705858e+00 -2.091054e+00 -8.694093e+00 8.025193e+00 -3.465259e+00 6.908700e+01 3.238747e-01 -3.456685e-01 -1.069944e+00 -5.609666e-01 9.000986e-01 2.147067e-01 -5.213349e-01 6.932666e-01 6.368251e-01 2.672387e-01 1.770326e-01 -2.887100e-01 2.141745e-01 -5.619808e-02 5.392562e-02 -1.710887e-01 -6.581794e-02 2.266844e-01 2.846076e-01 -6.974023e-02 1.528453e-02 2.036422e-01 9.762673e-03 -1.059544e-01 -3.148874e-02 -1.386711e-01
<VARIANCE> 39
 1.260284e+01 1.496560e+01 3.185469e+01 3.134473e+01 2.953599e+01 3.980100e+01 6.293032e+01 4.882416e+01 5.534050e+01 5.890170e+01 3.087239e+01 2.497688e+01 6.577420e+00 5.935010e-01 9.620129e-01 2.335359e+00 1.306671e+00 1.862258e+00 3.256785e+00 5.053098e+00 4.057396e+00 3.328976e+00 3.082062e+00 2.826030e+00 1.849379e+00 5.955790e-01 1.361953e-01 1.970603e-01 4.174739e-01 2.107250e-01 3.136072e-01 5.687174e-01 9.792910e-01 8.860363e-01 6.383358e-01 6.088990e-01 6.221951e-01 3.882515e-01 9.854847e-02
<GCONST> 1.117884e+02
<STATE> 4
<MEAN> 39
 9.614768e+00 -2.649987e+01 -7.567652e-01 -1.487814e+01 -1.767989e+01 1.643897e+00 -2.247969e+01 -1.542728e+00 4.309527e+00 -7.059581e+00 7.062420e+00 -5.558545e+00 6.879108e+01 -3.290537e-02 1.934103e-01 -3.104773e-01 -3.115612e-01 -2.512562e-02 5.056282e-01 3.156537e-01 -1.528143e-01 -1.051299e-01 -1.095098e-02 2.324239e-02 4.053240e-02 -2.620072e-01 -4.660878e-02 7.243993e-02 5.377063e-02 7.042284e-02 -7.057276e-02 -9.341963e-02 4.320042e-02 -3.786013e-02 -1.145227e-01 -5.617001e-02 8.549701e-04 5.253654e-02 -5.503578e-02
<VARIANCE> 39
 8.916593e+00 2.553507e+01 3.245985e+01 2.310483e+01 1.823215e+01 5.313293e+01 5.567168e+01 5.297641e+01 3.838486e+01 2.678209e+01 3.217403e+01 3.204083e+01 9.870003e+00 2.946447e-01 6.643929e-01 1.036764e+00 7.004916e-01 1.192136e+00 1.615503e+00 1.936645e+00 2.487958e+00 1.901096e+00 1.658746e+00 1.679654e+00 1.824448e+00 3.159723e-01 4.825428e-02 1.096640e-01 1.430722e-01 1.383453e-01 1.952944e-01 2.481153e-01 3.539589e-01 3.253489e-01 2.744147e-01 2.472898e-01 3.069435e-01 2.729424e-01 2.998964e-02
<GCONST> 9.311757e+01
<STATE> 5
<MEAN> 39
 1.539754e+00 -1.529270e+01 -7.724286e-01 -1.051524e+01 -1.634475e+01 4.561467e+00 -1.341409e+01 -7.361389e+00 -3.480815e+00 -9.152661e+00 3.409176e+00 -4.166380e+00 5.766945e+01 -1.452103e+00 8.574855e-01 -3.673613e-01 9.757549e-01 8.722305e-01 -1.495170e-01 1.358904e+00 -1.847195e-01 -3.152577e-01 3.039075e-01 -7.401670e-01 1.779732e-01 -9.910693e-01 -7.593267e-02 -7.638518e-02 -3.187881e-02 2.336985e-02 1.057563e-01 -1.278638e-02 6.276642e-02 1.552649e-01 1.023802e-01 6.184082e-02 -4.011107e-02 -2.653197e-04 1.796264e-02
<VARIANCE> 39
 5.679886e+01 3.020217e+01 5.940266e+01 5.192999e+01 2.691685e+01 2.908927e+01 3.613831e+01 4.270771e+01 3.062867e+01 4.863322e+01 4.993412e+01 2.416783e+01 1.521970e+01 9.348722e-01 1.299857e+00 1.855379e+00 1.711876e+00 1.496896e+00 1.338476e+00 1.837195e+00 2.022978e+00 2.197507e+00 2.345246e+00 2.466408e+00 1.770563e+00 4.197071e-01 1.360778e-01 1.938522e-01 2.950307e-01 2.282666e-01 2.677213e-01 2.094712e-01 3.104945e-01 2.607377e-01 3.515047e-01 3.777394e-01 3.983144e-01 2.961117e-01 4.562669e-02
<GCONST> 1.049204e+02
<TRANSP> 6
 0.000000e+00 1.000000e+00 0.000000e+00 0.000000e+00 0.000000e+00 0.000000e+00
 0.000000e+00 8.465251e-01 1.534749e-01 0.000000e+00 0.000000e+00 0.000000e+00
 0.000000e+00 0.000000e+00 8.969944e-01 1.030056e-01 0.000000e+00 0.000000e+00
 0.000000e+00 0.000000e+00 0.000000e+00 9.510004e-01 4.899961e-02 0.000000e+00
 0.000000e+00 0.000000e+00 0.000000e+00 0.000000e+00 9.021967e-01 9.780330e-02
 0.000000e+00 0.000000e+00 0.000000e+00 0.000000e+00 0.000000e+00 0.000000e+00
<ENDHMM>
